digraph Tree {
node [shape=box, style="filled, rounded", color="black", fontname=helvetica] ;
edge [fontname=helvetica] ;
0 [label=<f_6 &le; -6.759<br/>gini = 0.898<br/>samples = 1001<br/>value = [96, 112, 94, 71, 102, 119, 110, 103, 95, 99]<br/>class = class_5.0>, fillcolor="#399de502"] ;
1 [label=<f_2 &le; 1.811<br/>gini = 0.664<br/>samples = 324<br/>value = [0, 0, 0, 0, 0, 119, 110, 0, 95, 0]<br/>class = class_5.0>, fillcolor="#399de50b"] ;
0 -> 1 [labeldistance=2.5, labelangle=45, headlabel="True"] ;
2 [label=<f_2 &le; -5.896<br/>gini = 0.497<br/>samples = 205<br/>value = [0, 0, 0, 0, 0, 0, 110, 0, 95, 0]<br/>class = class_6.0>, fillcolor="#3c39e523"] ;
1 -> 2 ;
3 [label=<gini = 0.0<br/>samples = 95<br/>value = [0, 0, 0, 0, 0, 0, 0, 0, 95, 0]<br/>class = class_8.0>, fillcolor="#e539c0ff"] ;
2 -> 3 ;
4 [label=<gini = 0.0<br/>samples = 110<br/>value = [0, 0, 0, 0, 0, 0, 110, 0, 0, 0]<br/>class = class_6.0>, fillcolor="#3c39e5ff"] ;
2 -> 4 ;
5 [label=<gini = 0.0<br/>samples = 119<br/>value = [0, 0, 0, 0, 0, 119, 0, 0, 0, 0]<br/>class = class_5.0>, fillcolor="#399de5ff"] ;
1 -> 5 ;
6 [label=<f_6 &le; -3.548<br/>gini = 0.855<br/>samples = 677<br/>value = [96, 112, 94, 71, 102, 0, 0, 103, 0, 99]<br/>class = class_1.0>, fillcolor="#e2e53904"] ;
0 -> 6 [labeldistance=2.5, labelangle=-45, headlabel="False"] ;
7 [label=<gini = 0.0<br/>samples = 112<br/>value = [0, 112, 0, 0, 0, 0, 0, 0, 0, 0]<br/>class = class_1.0>, fillcolor="#e2e539ff"] ;
6 -> 7 ;
8 [label=<f_3 &le; -5.095<br/>gini = 0.831<br/>samples = 565<br/>value = [96, 0, 94, 71, 102, 0, 0, 103, 0, 99]<br/>class = class_7.0>, fillcolor="#a339e501"] ;
6 -> 8 ;
9 [label=<gini = 0.0<br/>samples = 103<br/>value = [0, 0, 0, 0, 0, 0, 0, 103, 0, 0]<br/>class = class_7.0>, fillcolor="#a339e5ff"] ;
8 -> 9 ;
10 [label=<f_8 &le; 3.113<br/>gini = 0.797<br/>samples = 462<br/>value = [96, 0, 94, 71, 102, 0, 0, 0, 0, 99]<br/>class = class_4.0>, fillcolor="#39e5c502"] ;
8 -> 10 ;
11 [label=<f_8 &le; -6.72<br/>gini = 0.746<br/>samples = 360<br/>value = [96, 0, 94, 71, 0, 0, 0, 0, 0, 99]<br/>class = class_9.0>, fillcolor="#e5395803"] ;
10 -> 11 ;
12 [label=<gini = 0.0<br/>samples = 96<br/>value = [96, 0, 0, 0, 0, 0, 0, 0, 0, 0]<br/>class = class_0.0>, fillcolor="#e58139ff"] ;
11 -> 12 ;
13 [label=<f_8 &le; -3.355<br/>gini = 0.66<br/>samples = 264<br/>value = [0, 0, 94, 71, 0, 0, 0, 0, 0, 99]<br/>class = class_9.0>, fillcolor="#e5395807"] ;
11 -> 13 ;
14 [label=<gini = 0.0<br/>samples = 99<br/>value = [0, 0, 0, 0, 0, 0, 0, 0, 0, 99]<br/>class = class_9.0>, fillcolor="#e53958ff"] ;
13 -> 14 ;
15 [label=<f_8 &le; -1.448<br/>gini = 0.49<br/>samples = 165<br/>value = [0, 0, 94, 71, 0, 0, 0, 0, 0, 0]<br/>class = class_2.0>, fillcolor="#7be5393e"] ;
13 -> 15 ;
16 [label=<gini = 0.0<br/>samples = 94<br/>value = [0, 0, 94, 0, 0, 0, 0, 0, 0, 0]<br/>class = class_2.0>, fillcolor="#7be539ff"] ;
15 -> 16 ;
17 [label=<gini = 0.0<br/>samples = 71<br/>value = [0, 0, 0, 71, 0, 0, 0, 0, 0, 0]<br/>class = class_3.0>, fillcolor="#39e55eff"] ;
15 -> 17 ;
18 [label=<gini = 0.0<br/>samples = 102<br/>value = [0, 0, 0, 0, 102, 0, 0, 0, 0, 0]<br/>class = class_4.0>, fillcolor="#39e5c5ff"] ;
10 -> 18 ;
}
