digraph Tree {
node [shape=box] ;
0 [label="X[12] <= 5.5\ngini = 0.9413\nsamples = 4982\nvalue = [688, 92, 85 ..., 190, 389, 72]"] ;
1 [label="X[14] <= 1.5\ngini = 0.9354\nsamples = 3650\nvalue = [670, 44, 57 ..., 190, 352, 72]"] ;
0 -> 1 [labeldistance=2.5, labelangle=45, headlabel="True"] ;
2 [label="X[7] <= 5.5\ngini = 0.8549\nsamples = 1211\nvalue = [106, 0, 0 ..., 0, 224, 0]"] ;
1 -> 2 ;
3 [label="X[12] <= 1.5\ngini = 0.786\nsamples = 889\nvalue = [106, 0, 0 ..., 0, 224, 0]"] ;
2 -> 3 ;
4 [label="X[2] <= 0.5\ngini = 0.7174\nsamples = 333\nvalue = [27, 0, 0 ..., 0, 196, 0]"] ;
3 -> 4 ;
5 [label="gini = 0.0\nsamples = 125\nvalue = [0, 0, 0 ..., 0, 0, 0]"] ;
4 -> 5 ;
6 [label="X[10] <= 10.5\ngini = 0.6259\nsamples = 208\nvalue = [27, 0, 0 ..., 0, 196, 0]"] ;
4 -> 6 ;
7 [label="X[10] <= 9.5\ngini = 0.7527\nsamples = 90\nvalue = [27, 0, 0 ..., 0, 0, 0]"] ;
6 -> 7 ;
8 [label="X[7] <= 2.5\ngini = 0.6687\nsamples = 66\nvalue = [27, 0, 0 ..., 0, 0, 0]"] ;
7 -> 8 ;
9 [label="X[6] <= 5.5\ngini = 0.2311\nsamples = 19\nvalue = [26, 0, 0 ..., 0, 0, 0]"] ;
8 -> 9 ;
10 [label="gini = 0.0\nsamples = 17\nvalue = [26, 0, 0 ..., 0, 0, 0]"] ;
9 -> 10 ;
11 [label="gini = 0.0\nsamples = 2\nvalue = [0, 0, 0 ..., 0, 0, 0]"] ;
9 -> 11 ;
12 [label="X[1] <= 5.5\ngini = 0.5483\nsamples = 47\nvalue = [1, 0, 0 ..., 0, 0, 0]"] ;
8 -> 12 ;
13 [label="X[13] <= 8.5\ngini = 0.6643\nsamples = 28\nvalue = [1, 0, 0 ..., 0, 0, 0]"] ;
12 -> 13 ;
14 [label="X[10] <= 3.5\ngini = 0.5178\nsamples = 19\nvalue = [1, 0, 0 ..., 0, 0, 0]"] ;
13 -> 14 ;
15 [label="X[13] <= 7.0\ngini = 0.1653\nsamples = 9\nvalue = [1, 0, 0 ..., 0, 0, 0]"] ;
14 -> 15 ;
16 [label="gini = 0.0\nsamples = 1\nvalue = [1, 0, 0 ..., 0, 0, 0]"] ;
15 -> 16 ;
17 [label="gini = 0.0\nsamples = 8\nvalue = [0, 0, 0 ..., 0, 0, 0]"] ;
15 -> 17 ;
18 [label="gini = 0.0\nsamples = 10\nvalue = [0, 0, 0 ..., 0, 0, 0]"] ;
14 -> 18 ;
19 [label="gini = 0.0\nsamples = 9\nvalue = [0, 0, 0 ..., 0, 0, 0]"] ;
13 -> 19 ;
20 [label="gini = 0.0\nsamples = 19\nvalue = [0, 0, 0 ..., 0, 0, 0]"] ;
12 -> 20 ;
21 [label="X[4] <= 2.0\ngini = 0.0571\nsamples = 24\nvalue = [0, 0, 0 ..., 0, 0, 0]"] ;
7 -> 21 ;
22 [label="gini = 0.0\nsamples = 23\nvalue = [0, 0, 0 ..., 0, 0, 0]"] ;
21 -> 22 ;
23 [label="gini = 0.0\nsamples = 1\nvalue = [0, 0, 0 ..., 0, 0, 0]"] ;
21 -> 23 ;
24 [label="X[14] <= 0.5\ngini = 0.058\nsamples = 118\nvalue = [0, 0, 0 ..., 0, 196, 0]"] ;
6 -> 24 ;
25 [label="X[6] <= 14.0\ngini = 0.02\nsamples = 116\nvalue = [0, 0, 0 ..., 0, 196, 0]"] ;
24 -> 25 ;
26 [label="gini = 0.0\nsamples = 115\nvalue = [0, 0, 0 ..., 0, 196, 0]"] ;
25 -> 26 ;
27 [label="gini = 0.0\nsamples = 1\nvalue = [0, 0, 0 ..., 0, 0, 0]"] ;
25 -> 27 ;
28 [label="gini = 0.0\nsamples = 2\nvalue = [0, 0, 0 ..., 0, 0, 0]"] ;
24 -> 28 ;
29 [label="X[13] <= 8.5\ngini = 0.5701\nsamples = 556\nvalue = [79, 0, 0 ..., 0, 28, 0]"] ;
3 -> 29 ;
30 [label="X[8] <= 1.5\ngini = 0.6423\nsamples = 134\nvalue = [79, 0, 0 ..., 0, 0, 0]"] ;
29 -> 30 ;
31 [label="X[2] <= 1.5\ngini = 0.0247\nsamples = 52\nvalue = [79, 0, 0 ..., 0, 0, 0]"] ;
30 -> 31 ;
32 [label="gini = 0.0\nsamples = 1\nvalue = [0, 0, 0 ..., 0, 0, 0]"] ;
31 -> 32 ;
33 [label="gini = 0.0\nsamples = 51\nvalue = [79, 0, 0 ..., 0, 0, 0]"] ;
31 -> 33 ;
34 [label="X[4] <= 4.5\ngini = 0.439\nsamples = 82\nvalue = [0, 0, 0 ..., 0, 0, 0]"] ;
30 -> 34 ;
35 [label="X[6] <= 7.5\ngini = 0.3258\nsamples = 72\nvalue = [0, 0, 0 ..., 0, 0, 0]"] ;
34 -> 35 ;
36 [label="X[14] <= 0.5\ngini = 0.6564\nsamples = 19\nvalue = [0, 0, 0 ..., 0, 0, 0]"] ;
35 -> 36 ;
37 [label="X[11] <= 8.5\ngini = 0.1975\nsamples = 6\nvalue = [0, 0, 0 ..., 0, 0, 0]"] ;
36 -> 37 ;
38 [label="gini = 0.0\nsamples = 5\nvalue = [0, 0, 0 ..., 0, 0, 0]"] ;
37 -> 38 ;
39 [label="gini = 0.0\nsamples = 1\nvalue = [0, 0, 0 ..., 0, 0, 0]"] ;
37 -> 39 ;
40 [label="X[12] <= 3.5\ngini = 0.545\nsamples = 13\nvalue = [0, 0, 0 ..., 0, 0, 0]"] ;
36 -> 40 ;
41 [label="X[10] <= 3.5\ngini = 0.5\nsamples = 2\nvalue = [0, 0, 0 ..., 0, 0, 0]"] ;
40 -> 41 ;
42 [label="gini = 0.0\nsamples = 1\nvalue = [0, 0, 0 ..., 0, 0, 0]"] ;
41 -> 42 ;
43 [label="gini = 0.0\nsamples = 1\nvalue = [0, 0, 0 ..., 0, 0, 0]"] ;
41 -> 43 ;
44 [label="X[4] <= 3.5\ngini = 0.3203\nsamples = 11\nvalue = [0, 0, 0 ..., 0, 0, 0]"] ;
40 -> 44 ;
45 [label="X[4] <= 2.5\ngini = 0.142\nsamples = 8\nvalue = [0, 0, 0 ..., 0, 0, 0]"] ;
44 -> 45 ;
46 [label="gini = 0.0\nsamples = 6\nvalue = [0, 0, 0 ..., 0, 0, 0]"] ;
45 -> 46 ;
47 [label="X[5] <= 9.5\ngini = 0.4444\nsamples = 2\nvalue = [0, 0, 0 ..., 0, 0, 0]"] ;
45 -> 47 ;
48 [label="gini = 0.0\nsamples = 1\nvalue = [0, 0, 0 ..., 0, 0, 0]"] ;
47 -> 48 ;
49 [label="gini = 0.0\nsamples = 1\nvalue = [0, 0, 0 ..., 0, 0, 0]"] ;
47 -> 49 ;
50 [label="X[15] <= 8.0\ngini = 0.4444\nsamples = 3\nvalue = [0, 0, 0 ..., 0, 0, 0]"] ;
44 -> 50 ;
51 [label="gini = 0.0\nsamples = 2\nvalue = [0, 0, 0 ..., 0, 0, 0]"] ;
50 -> 51 ;
52 [label="gini = 0.0\nsamples = 1\nvalue = [0, 0, 0 ..., 0, 0, 0]"] ;
50 -> 52 ;
53 [label="gini = 0.0\nsamples = 53\nvalue = [0, 0, 0 ..., 0, 0, 0]"] ;
35 -> 53 ;
54 [label="X[12] <= 4.5\ngini = 0.3599\nsamples = 10\nvalue = [0, 0, 0 ..., 0, 0, 0]"] ;
34 -> 54 ;
55 [label="gini = 0.0\nsamples = 8\nvalue = [0, 0, 0 ..., 0, 0, 0]"] ;
54 -> 55 ;
56 [label="gini = 0.0\nsamples = 2\nvalue = [0, 0, 0 ..., 0, 0, 0]"] ;
54 -> 56 ;
57 [label="X[12] <= 4.5\ngini = 0.3166\nsamples = 422\nvalue = [0, 0, 0 ..., 0, 28, 0]"] ;
29 -> 57 ;
58 [label="X[15] <= 6.5\ngini = 0.1535\nsamples = 373\nvalue = [0, 0, 0 ..., 0, 28, 0]"] ;
57 -> 58 ;
59 [label="X[10] <= 8.0\ngini = 0.4898\nsamples = 4\nvalue = [0, 0, 0 ..., 0, 0, 0]"] ;
58 -> 59 ;
60 [label="gini = 0.0\nsamples = 3\nvalue = [0, 0, 0 ..., 0, 0, 0]"] ;
59 -> 60 ;
61 [label="gini = 0.0\nsamples = 1\nvalue = [0, 0, 0 ..., 0, 0, 0]"] ;
59 -> 61 ;
62 [label="X[4] <= 1.5\ngini = 0.1333\nsamples = 369\nvalue = [0, 0, 0 ..., 0, 28, 0]"] ;
58 -> 62 ;
63 [label="X[13] <= 10.5\ngini = 0.2589\nsamples = 137\nvalue = [0, 0, 0 ..., 0, 27, 0]"] ;
62 -> 63 ;
64 [label="X[2] <= 1.5\ngini = 0.0314\nsamples = 82\nvalue = [0, 0, 0 ..., 0, 0, 0]"] ;
63 -> 64 ;
65 [label="gini = 0.0\nsamples = 1\nvalue = [0, 0, 0 ..., 0, 0, 0]"] ;
64 -> 65 ;
66 [label="X[8] <= 3.5\ngini = 0.0159\nsamples = 81\nvalue = [0, 0, 0 ..., 0, 0, 0]"] ;
64 -> 66 ;
67 [label="gini = 0.0\nsamples = 79\nvalue = [0, 0, 0 ..., 0, 0, 0]"] ;
66 -> 67 ;
68 [label="X[10] <= 7.5\ngini = 0.4444\nsamples = 2\nvalue = [0, 0, 0 ..., 0, 0, 0]"] ;
66 -> 68 ;
69 [label="gini = 0.0\nsamples = 1\nvalue = [0, 0, 0 ..., 0, 0, 0]"] ;
68 -> 69 ;
70 [label="gini = 0.0\nsamples = 1\nvalue = [0, 0, 0 ..., 0, 0, 0]"] ;
68 -> 70 ;
71 [label="X[10] <= 12.5\ngini = 0.4732\nsamples = 55\nvalue = [0, 0, 0 ..., 0, 27, 0]"] ;
63 -> 71 ;
72 [label="X[14] <= 0.5\ngini = 0.1027\nsamples = 36\nvalue = [0, 0, 0 ..., 0, 1, 0]"] ;
71 -> 72 ;
73 [label="X[5] <= 6.5\ngini = 0.1738\nsamples = 20\nvalue = [0, 0, 0 ..., 0, 1, 0]"] ;
72 -> 73 ;
74 [label="X[8] <= 3.5\ngini = 0.2975\nsamples = 6\nvalue = [0, 0, 0 ..., 0, 0, 0]"] ;
73 -> 74 ;
75 [label="gini = 0.0\nsamples = 5\nvalue = [0, 0, 0 ..., 0, 0, 0]"] ;
74 -> 75 ;
76 [label="gini = 0.0\nsamples = 1\nvalue = [0, 0, 0 ..., 0, 0, 0]"] ;
74 -> 76 ;
77 [label="X[8] <= 1.5\ngini = 0.0907\nsamples = 14\nvalue = [0, 0, 0 ..., 0, 1, 0]"] ;
73 -> 77 ;
78 [label="gini = 0.0\nsamples = 6\nvalue = [0, 0, 0 ..., 0, 0, 0]"] ;
77 -> 78 ;
79 [label="X[1] <= 2.0\ngini = 0.1653\nsamples = 8\nvalue = [0, 0, 0 ..., 0, 1, 0]"] ;
77 -> 79 ;
80 [label="gini = 0.0\nsamples = 5\nvalue = [0, 0, 0 ..., 0, 0, 0]"] ;
79 -> 80 ;
81 [label="X[2] <= 3.5\ngini = 0.4444\nsamples = 3\nvalue = [0, 0, 0 ..., 0, 1, 0]"] ;
79 -> 81 ;
82 [label="gini = 0.0\nsamples = 2\nvalue = [0, 0, 0 ..., 0, 0, 0]"] ;
81 -> 82 ;
83 [label="gini = 0.0\nsamples = 1\nvalue = [0, 0, 0 ..., 0, 1, 0]"] ;
81 -> 83 ;
84 [label="gini = 0.0\nsamples = 16\nvalue = [0, 0, 0 ..., 0, 0, 0]"] ;
72 -> 84 ;
85 [label="gini = 0.0\nsamples = 19\nvalue = [0, 0, 0 ..., 0, 26, 0]"] ;
71 -> 85 ;
86 [label="X[10] <= 9.0\ngini = 0.0524\nsamples = 232\nvalue = [0, 0, 0 ..., 0, 1, 0]"] ;
62 -> 86 ;
87 [label="X[11] <= 6.5\ngini = 0.32\nsamples = 4\nvalue = [0, 0, 0 ..., 0, 0, 0]"] ;
86 -> 87 ;
88 [label="gini = 0.0\nsamples = 1\nvalue = [0, 0, 0 ..., 0, 0, 0]"] ;
87 -> 88 ;
89 [label="gini = 0.0\nsamples = 3\nvalue = [0, 0, 0 ..., 0, 0, 0]"] ;
87 -> 89 ;
90 [label="X[12] <= 3.5\ngini = 0.0267\nsamples = 228\nvalue = [0, 0, 0 ..., 0, 1, 0]"] ;
86 -> 90 ;
91 [label="X[13] <= 10.5\ngini = 0.0057\nsamples = 216\nvalue = [0, 0, 0 ..., 0, 1, 0]"] ;
90 -> 91 ;
92 [label="gini = 0.0\nsamples = 180\nvalue = [0, 0, 0 ..., 0, 0, 0]"] ;
91 -> 92 ;
93 [label="X[8] <= 2.5\ngini = 0.0333\nsamples = 36\nvalue = [0, 0, 0 ..., 0, 1, 0]"] ;
91 -> 93 ;
94 [label="X[2] <= 4.5\ngini = 0.1049\nsamples = 11\nvalue = [0, 0, 0 ..., 0, 1, 0]"] ;
93 -> 94 ;
95 [label="gini = 0.0\nsamples = 7\nvalue = [0, 0, 0 ..., 0, 0, 0]"] ;
94 -> 95 ;
96 [label="X[10] <= 11.0\ngini = 0.2449\nsamples = 4\nvalue = [0, 0, 0 ..., 0, 1, 0]"] ;
94 -> 96 ;
97 [label="gini = 0.0\nsamples = 3\nvalue = [0, 0, 0 ..., 0, 0, 0]"] ;
96 -> 97 ;
98 [label="gini = 0.0\nsamples = 1\nvalue = [0, 0, 0 ..., 0, 1, 0]"] ;
96 -> 98 ;
99 [label="gini = 0.0\nsamples = 25\nvalue = [0, 0, 0 ..., 0, 0, 0]"] ;
93 -> 99 ;
100 [label="X[11] <= 8.5\ngini = 0.3084\nsamples = 12\nvalue = [0, 0, 0 ..., 0, 0, 0]"] ;
90 -> 100 ;
101 [label="gini = 0.0\nsamples = 10\nvalue = [0, 0, 0 ..., 0, 0, 0]"] ;
100 -> 101 ;
102 [label="gini = 0.0\nsamples = 2\nvalue = [0, 0, 0 ..., 0, 0, 0]"] ;
100 -> 102 ;
103 [label="X[8] <= 3.5\ngini = 0.5234\nsamples = 49\nvalue = [0, 0, 0 ..., 0, 0, 0]"] ;
57 -> 103 ;
104 [label="X[2] <= 6.5\ngini = 0.0435\nsamples = 30\nvalue = [0, 0, 0 ..., 0, 0, 0]"] ;
103 -> 104 ;
105 [label="gini = 0.0\nsamples = 29\nvalue = [0, 0, 0 ..., 0, 0, 0]"] ;
104 -> 105 ;
106 [label="gini = 0.0\nsamples = 1\nvalue = [0, 0, 0 ..., 0, 0, 0]"] ;
104 -> 106 ;
107 [label="X[6] <= 10.5\ngini = 0.18\nsamples = 19\nvalue = [0, 0, 0 ..., 0, 0, 0]"] ;
103 -> 107 ;
108 [label="gini = 0.0\nsamples = 17\nvalue = [0, 0, 0 ..., 0, 0, 0]"] ;
107 -> 108 ;
109 [label="gini = 0.0\nsamples = 2\nvalue = [0, 0, 0 ..., 0, 0, 0]"] ;
107 -> 109 ;
110 [label="X[9] <= 11.5\ngini = 0.731\nsamples = 322\nvalue = [0, 0, 0 ..., 0, 0, 0]"] ;
2 -> 110 ;
111 [label="X[9] <= 6.5\ngini = 0.6309\nsamples = 250\nvalue = [0, 0, 0 ..., 0, 0, 0]"] ;
110 -> 111 ;
112 [label="X[5] <= 4.5\ngini = 0.2994\nsamples = 66\nvalue = [0, 0, 0 ..., 0, 0, 0]"] ;
111 -> 112 ;
113 [label="gini = 0.0\nsamples = 5\nvalue = [0, 0, 0 ..., 0, 0, 0]"] ;
112 -> 113 ;
114 [label="X[8] <= 3.0\ngini = 0.1798\nsamples = 61\nvalue = [0, 0, 0 ..., 0, 0, 0]"] ;
112 -> 114 ;
115 [label="X[6] <= 6.5\ngini = 0.046\nsamples = 56\nvalue = [0, 0, 0 ..., 0, 0, 0]"] ;
114 -> 115 ;
116 [label="gini = 0.0\nsamples = 1\nvalue = [0, 0, 0 ..., 0, 0, 0]"] ;
115 -> 116 ;
117 [label="gini = 0.0\nsamples = 55\nvalue = [0, 0, 0 ..., 0, 0, 0]"] ;
115 -> 117 ;
118 [label="gini = 0.0\nsamples = 5\nvalue = [0, 0, 0 ..., 0, 0, 0]"] ;
114 -> 118 ;
119 [label="X[14] <= 0.5\ngini = 0.4661\nsamples = 184\nvalue = [0, 0, 0 ..., 0, 0, 0]"] ;
111 -> 119 ;
120 [label="X[8] <= 3.5\ngini = 0.3998\nsamples = 173\nvalue = [0, 0, 0 ..., 0, 0, 0]"] ;
119 -> 120 ;
121 [label="X[0] <= 1.5\ngini = 0.1282\nsamples = 138\nvalue = [0, 0, 0 ..., 0, 0, 0]"] ;
120 -> 121 ;
122 [label="X[7] <= 9.5\ngini = 0.4298\nsamples = 24\nvalue = [0, 0, 0 ..., 0, 0, 0]"] ;
121 -> 122 ;
123 [label="X[12] <= 3.5\ngini = 0.4444\nsamples = 7\nvalue = [0, 0, 0 ..., 0, 0, 0]"] ;
122 -> 123 ;
124 [label="gini = 0.0\nsamples = 2\nvalue = [0, 0, 0 ..., 0, 0, 0]"] ;
123 -> 124 ;
125 [label="gini = 0.0\nsamples = 5\nvalue = [0, 0, 0 ..., 0, 0, 0]"] ;
123 -> 125 ;
126 [label="gini = 0.0\nsamples = 17\nvalue = [0, 0, 0 ..., 0, 0, 0]"] ;
122 -> 126 ;
127 [label="X[7] <= 13.5\ngini = 0.033\nsamples = 114\nvalue = [0, 0, 0 ..., 0, 0, 0]"] ;
121 -> 127 ;
128 [label="X[15] <= 7.5\ngini = 0.1388\nsamples = 27\nvalue = [0, 0, 0 ..., 0, 0, 0]"] ;
127 -> 128 ;
129 [label="gini = 0.0\nsamples = 1\nvalue = [0, 0, 0 ..., 0, 0, 0]"] ;
128 -> 129 ;
130 [label="X[1] <= 6.5\ngini = 0.0512\nsamples = 26\nvalue = [0, 0, 0 ..., 0, 0, 0]"] ;
128 -> 130 ;
131 [label="X[4] <= 2.5\ngini = 0.18\nsamples = 8\nvalue = [0, 0, 0 ..., 0, 0, 0]"] ;
130 -> 131 ;
132 [label="gini = 0.0\nsamples = 3\nvalue = [0, 0, 0 ..., 0, 0, 0]"] ;
131 -> 132 ;
133 [label="X[12] <= 4.0\ngini = 0.32\nsamples = 5\nvalue = [0, 0, 0 ..., 0, 0, 0]"] ;
131 -> 133 ;
134 [label="gini = 0.0\nsamples = 4\nvalue = [0, 0, 0 ..., 0, 0, 0]"] ;
133 -> 134 ;
135 [label="gini = 0.0\nsamples = 1\nvalue = [0, 0, 0 ..., 0, 0, 0]"] ;
133 -> 135 ;
136 [label="gini = 0.0\nsamples = 18\nvalue = [0, 0, 0 ..., 0, 0, 0]"] ;
130 -> 136 ;
137 [label="gini = 0.0\nsamples = 87\nvalue = [0, 0, 0 ..., 0, 0, 0]"] ;
127 -> 137 ;
138 [label="gini = 0.0\nsamples = 35\nvalue = [0, 0, 0 ..., 0, 0, 0]"] ;
120 -> 138 ;
139 [label="X[0] <= 5.5\ngini = 0.1975\nsamples = 11\nvalue = [0, 0, 0 ..., 0, 0, 0]"] ;
119 -> 139 ;
140 [label="gini = 0.0\nsamples = 10\nvalue = [0, 0, 0 ..., 0, 0, 0]"] ;
139 -> 140 ;
141 [label="gini = 0.0\nsamples = 1\nvalue = [0, 0, 0 ..., 0, 0, 0]"] ;
139 -> 141 ;
142 [label="X[5] <= 6.0\ngini = 0.0676\nsamples = 72\nvalue = [0, 0, 0 ..., 0, 0, 0]"] ;
110 -> 142 ;
143 [label="X[11] <= 6.0\ngini = 0.375\nsamples = 2\nvalue = [0, 0, 0 ..., 0, 0, 0]"] ;
142 -> 143 ;
144 [label="gini = 0.0\nsamples = 1\nvalue = [0, 0, 0 ..., 0, 0, 0]"] ;
143 -> 144 ;
145 [label="gini = 0.0\nsamples = 1\nvalue = [0, 0, 0 ..., 0, 0, 0]"] ;
143 -> 145 ;
146 [label="gini = 0.0\nsamples = 70\nvalue = [0, 0, 0 ..., 0, 0, 0]"] ;
142 -> 146 ;
147 [label="X[12] <= 1.5\ngini = 0.9169\nsamples = 2439\nvalue = [564, 44, 57 ..., 190, 128, 72]"] ;
1 -> 147 ;
148 [label="X[13] <= 8.5\ngini = 0.5329\nsamples = 376\nvalue = [19, 19, 0 ..., 0, 0, 2]"] ;
147 -> 148 ;
149 [label="X[14] <= 3.5\ngini = 0.4168\nsamples = 124\nvalue = [19, 19, 0 ..., 0, 0, 2]"] ;
148 -> 149 ;
150 [label="X[9] <= 10.5\ngini = 0.2079\nsamples = 106\nvalue = [19, 0, 0 ..., 0, 0, 0]"] ;
149 -> 150 ;
151 [label="gini = 0.0\nsamples = 11\nvalue = [17, 0, 0 ..., 0, 0, 0]"] ;
150 -> 151 ;
152 [label="X[13] <= 7.0\ngini = 0.0384\nsamples = 95\nvalue = [2, 0, 0 ..., 0, 0, 0]"] ;
150 -> 152 ;
153 [label="X[0] <= 2.5\ngini = 0.4444\nsamples = 2\nvalue = [2, 0, 0 ..., 0, 0, 0]"] ;
152 -> 153 ;
154 [label="gini = 0.0\nsamples = 1\nvalue = [2, 0, 0 ..., 0, 0, 0]"] ;
153 -> 154 ;
155 [label="gini = 0.0\nsamples = 1\nvalue = [0, 0, 0 ..., 0, 0, 0]"] ;
153 -> 155 ;
156 [label="gini = 0.0\nsamples = 93\nvalue = [0, 0, 0 ..., 0, 0, 0]"] ;
152 -> 156 ;
157 [label="X[5] <= 7.5\ngini = 0.5622\nsamples = 18\nvalue = [0, 19, 0 ..., 0, 0, 2]"] ;
149 -> 157 ;
158 [label="X[13] <= 7.5\ngini = 0.1723\nsamples = 13\nvalue = [0, 19, 0 ..., 0, 0, 0]"] ;
157 -> 158 ;
159 [label="gini = 0.0\nsamples = 1\nvalue = [0, 0, 0 ..., 0, 0, 0]"] ;
158 -> 159 ;
160 [label="gini = 0.0\nsamples = 12\nvalue = [0, 19, 0 ..., 0, 0, 0]"] ;
158 -> 160 ;
161 [label="X[3] <= 3.5\ngini = 0.642\nsamples = 5\nvalue = [0, 0, 0 ..., 0, 0, 2]"] ;
157 -> 161 ;
162 [label="gini = 0.0\nsamples = 3\nvalue = [0, 0, 0 ..., 0, 0, 0]"] ;
161 -> 162 ;
163 [label="X[6] <= 7.0\ngini = 0.48\nsamples = 2\nvalue = [0, 0, 0 ..., 0, 0, 2]"] ;
161 -> 163 ;
164 [label="gini = 0.0\nsamples = 1\nvalue = [0, 0, 0 ..., 0, 0, 2]"] ;
163 -> 164 ;
165 [label="gini = 0.0\nsamples = 1\nvalue = [0, 0, 0 ..., 0, 0, 0]"] ;
163 -> 165 ;
166 [label="X[10] <= 8.5\ngini = 0.1132\nsamples = 252\nvalue = [0, 0, 0 ..., 0, 0, 0]"] ;
148 -> 166 ;
167 [label="X[6] <= 8.5\ngini = 0.0721\nsamples = 246\nvalue = [0, 0, 0 ..., 0, 0, 0]"] ;
166 -> 167 ;
168 [label="X[7] <= 2.5\ngini = 0.54\nsamples = 5\nvalue = [0, 0, 0 ..., 0, 0, 0]"] ;
167 -> 168 ;
169 [label="gini = 0.0\nsamples = 1\nvalue = [0, 0, 0 ..., 0, 0, 0]"] ;
168 -> 169 ;
170 [label="X[10] <= 6.5\ngini = 0.2449\nsamples = 4\nvalue = [0, 0, 0 ..., 0, 0, 0]"] ;
168 -> 170 ;
171 [label="gini = 0.0\nsamples = 3\nvalue = [0, 0, 0 ..., 0, 0, 0]"] ;
170 -> 171 ;
172 [label="gini = 0.0\nsamples = 1\nvalue = [0, 0, 0 ..., 0, 0, 0]"] ;
170 -> 172 ;
173 [label="X[7] <= 4.5\ngini = 0.0531\nsamples = 241\nvalue = [0, 0, 0 ..., 0, 0, 0]"] ;
167 -> 173 ;
174 [label="X[1] <= 8.0\ngini = 0.1429\nsamples = 84\nvalue = [0, 0, 0 ..., 0, 0, 0]"] ;
173 -> 174 ;
175 [label="X[11] <= 4.5\ngini = 0.0805\nsamples = 77\nvalue = [0, 0, 0 ..., 0, 0, 0]"] ;
174 -> 175 ;
176 [label="X[15] <= 5.5\ngini = 0.0531\nsamples = 70\nvalue = [0, 0, 0 ..., 0, 0, 0]"] ;
175 -> 176 ;
177 [label="gini = 0.0\nsamples = 1\nvalue = [0, 0, 0 ..., 0, 0, 0]"] ;
176 -> 177 ;
178 [label="X[6] <= 10.5\ngini = 0.036\nsamples = 69\nvalue = [0, 0, 0 ..., 0, 0, 0]"] ;
176 -> 178 ;
179 [label="gini = 0.0\nsamples = 60\nvalue = [0, 0, 0 ..., 0, 0, 0]"] ;
178 -> 179 ;
180 [label="X[0] <= 1.5\ngini = 0.2449\nsamples = 9\nvalue = [0, 0, 0 ..., 0, 0, 0]"] ;
178 -> 180 ;
181 [label="gini = 0.0\nsamples = 1\nvalue = [0, 0, 0 ..., 0, 0, 0]"] ;
180 -> 181 ;
182 [label="gini = 0.0\nsamples = 8\nvalue = [0, 0, 0 ..., 0, 0, 0]"] ;
180 -> 182 ;
183 [label="X[9] <= 9.5\ngini = 0.3457\nsamples = 7\nvalue = [0, 0, 0 ..., 0, 0, 0]"] ;
175 -> 183 ;
184 [label="gini = 0.0\nsamples = 3\nvalue = [0, 0, 0 ..., 0, 0, 0]"] ;
183 -> 184 ;
185 [label="X[12] <= 0.5\ngini = 0.5\nsamples = 4\nvalue = [0, 0, 0 ..., 0, 0, 0]"] ;
183 -> 185 ;
186 [label="gini = 0.0\nsamples = 2\nvalue = [0, 0, 0 ..., 0, 0, 0]"] ;
185 -> 186 ;
187 [label="gini = 0.0\nsamples = 2\nvalue = [0, 0, 0 ..., 0, 0, 0]"] ;
185 -> 187 ;
188 [label="X[6] <= 12.5\ngini = 0.5694\nsamples = 7\nvalue = [0, 0, 0 ..., 0, 0, 0]"] ;
174 -> 188 ;
189 [label="X[4] <= 3.0\ngini = 0.3457\nsamples = 5\nvalue = [0, 0, 0 ..., 0, 0, 0]"] ;
188 -> 189 ;
190 [label="gini = 0.0\nsamples = 1\nvalue = [0, 0, 0 ..., 0, 0, 0]"] ;
189 -> 190 ;
191 [label="gini = 0.0\nsamples = 4\nvalue = [0, 0, 0 ..., 0, 0, 0]"] ;
189 -> 191 ;
192 [label="gini = 0.0\nsamples = 2\nvalue = [0, 0, 0 ..., 0, 0, 0]"] ;
188 -> 192 ;
193 [label="gini = 0.0\nsamples = 157\nvalue = [0, 0, 0 ..., 0, 0, 0]"] ;
173 -> 193 ;
194 [label="gini = 0.0\nsamples = 6\nvalue = [0, 0, 0 ..., 0, 0, 0]"] ;
166 -> 194 ;
195 [label="X[10] <= 2.5\ngini = 0.9174\nsamples = 2063\nvalue = [545, 25, 57 ..., 190, 128, 70]"] ;
147 -> 195 ;
196 [label="X[7] <= 7.0\ngini = 0.1241\nsamples = 309\nvalue = [447, 0, 0 ..., 0, 0, 3]"] ;
195 -> 196 ;
197 [label="X[8] <= 3.5\ngini = 0.0829\nsamples = 301\nvalue = [447, 0, 0 ..., 0, 0, 3]"] ;
196 -> 197 ;
198 [label="gini = 0.0\nsamples = 279\nvalue = [424, 0, 0 ..., 0, 0, 0]"] ;
197 -> 198 ;
199 [label="X[7] <= 2.5\ngini = 0.6003\nsamples = 22\nvalue = [23, 0, 0 ..., 0, 0, 3]"] ;
197 -> 199 ;
200 [label="gini = 0.0\nsamples = 9\nvalue = [22, 0, 0 ..., 0, 0, 0]"] ;
199 -> 200 ;
201 [label="X[5] <= 9.5\ngini = 0.5215\nsamples = 13\nvalue = [1, 0, 0 ..., 0, 0, 3]"] ;
199 -> 201 ;
202 [label="gini = 0.0\nsamples = 9\nvalue = [0, 0, 0 ..., 0, 0, 0]"] ;
201 -> 202 ;
203 [label="X[4] <= 5.0\ngini = 0.6939\nsamples = 4\nvalue = [1, 0, 0 ..., 0, 0, 3]"] ;
201 -> 203 ;
204 [label="X[2] <= 7.0\ngini = 0.625\nsamples = 3\nvalue = [1, 0, 0 ..., 0, 0, 0]"] ;
203 -> 204 ;
205 [label="X[14] <= 3.5\ngini = 0.5\nsamples = 2\nvalue = [1, 0, 0 ..., 0, 0, 0]"] ;
204 -> 205 ;
206 [label="gini = 0.0\nsamples = 1\nvalue = [1, 0, 0 ..., 0, 0, 0]"] ;
205 -> 206 ;
207 [label="gini = 0.0\nsamples = 1\nvalue = [0, 0, 0 ..., 0, 0, 0]"] ;
205 -> 207 ;
208 [label="gini = 0.0\nsamples = 1\nvalue = [0, 0, 0 ..., 0, 0, 0]"] ;
204 -> 208 ;
209 [label="gini = 0.0\nsamples = 1\nvalue = [0, 0, 0 ..., 0, 0, 3]"] ;
203 -> 209 ;
210 [label="gini = 0.0\nsamples = 8\nvalue = [0, 0, 0 ..., 0, 0, 0]"] ;
196 -> 210 ;
211 [label="X[8] <= 3.5\ngini = 0.9254\nsamples = 1754\nvalue = [98, 25, 57 ..., 190, 128, 67]"] ;
195 -> 211 ;
212 [label="X[5] <= 4.5\ngini = 0.8935\nsamples = 861\nvalue = [54, 3, 24 ..., 6, 76, 32]"] ;
211 -> 212 ;
213 [label="X[9] <= 7.5\ngini = 0.1826\nsamples = 92\nvalue = [0, 0, 0 ..., 0, 3, 0]"] ;
212 -> 213 ;
214 [label="gini = 0.0\nsamples = 81\nvalue = [0, 0, 0 ..., 0, 0, 0]"] ;
213 -> 214 ;
215 [label="X[2] <= 5.5\ngini = 0.7891\nsamples = 11\nvalue = [0, 0, 0 ..., 0, 3, 0]"] ;
213 -> 215 ;
216 [label="X[12] <= 4.0\ngini = 0.642\nsamples = 5\nvalue = [0, 0, 0 ..., 0, 0, 0]"] ;
215 -> 216 ;
217 [label="X[5] <= 3.5\ngini = 0.48\nsamples = 3\nvalue = [0, 0, 0 ..., 0, 0, 0]"] ;
216 -> 217 ;
218 [label="gini = 0.0\nsamples = 1\nvalue = [0, 0, 0 ..., 0, 0, 0]"] ;
217 -> 218 ;
219 [label="gini = 0.0\nsamples = 2\nvalue = [0, 0, 0 ..., 0, 0, 0]"] ;
217 -> 219 ;
220 [label="gini = 0.0\nsamples = 2\nvalue = [0, 0, 0 ..., 0, 0, 0]"] ;
216 -> 220 ;
221 [label="X[14] <= 2.5\ngini = 0.4898\nsamples = 6\nvalue = [0, 0, 0 ..., 0, 3, 0]"] ;
215 -> 221 ;
222 [label="gini = 0.0\nsamples = 3\nvalue = [0, 0, 0 ..., 0, 0, 0]"] ;
221 -> 222 ;
223 [label="gini = 0.0\nsamples = 3\nvalue = [0, 0, 0 ..., 0, 3, 0]"] ;
221 -> 223 ;
224 [label="X[13] <= 7.5\ngini = 0.8854\nsamples = 769\nvalue = [54, 3, 24 ..., 6, 73, 32]"] ;
212 -> 224 ;
225 [label="X[7] <= 6.5\ngini = 0.6979\nsamples = 147\nvalue = [53, 0, 0 ..., 0, 0, 3]"] ;
224 -> 225 ;
226 [label="X[7] <= 4.5\ngini = 0.7765\nsamples = 83\nvalue = [53, 0, 0 ..., 0, 0, 3]"] ;
225 -> 226 ;
227 [label="X[5] <= 9.5\ngini = 0.5706\nsamples = 51\nvalue = [51, 0, 0 ..., 0, 0, 1]"] ;
226 -> 227 ;
228 [label="X[11] <= 10.0\ngini = 0.8209\nsamples = 25\nvalue = [9, 0, 0 ..., 0, 0, 1]"] ;
227 -> 228 ;
229 [label="X[4] <= 4.5\ngini = 0.8021\nsamples = 18\nvalue = [0, 0, 0 ..., 0, 0, 1]"] ;
228 -> 229 ;
230 [label="X[7] <= 3.5\ngini = 0.449\nsamples = 7\nvalue = [0, 0, 0 ..., 0, 0, 1]"] ;
229 -> 230 ;
231 [label="X[3] <= 8.0\ngini = 0.5\nsamples = 2\nvalue = [0, 0, 0 ..., 0, 0, 1]"] ;
230 -> 231 ;
232 [label="gini = 0.0\nsamples = 1\nvalue = [0, 0, 0 ..., 0, 0, 0]"] ;
231 -> 232 ;
233 [label="gini = 0.0\nsamples = 1\nvalue = [0, 0, 0 ..., 0, 0, 1]"] ;
231 -> 233 ;
234 [label="gini = 0.0\nsamples = 5\nvalue = [0, 0, 0 ..., 0, 0, 0]"] ;
230 -> 234 ;
235 [label="X[10] <= 4.5\ngini = 0.699\nsamples = 11\nvalue = [0, 0, 0 ..., 0, 0, 0]"] ;
229 -> 235 ;
236 [label="X[13] <= 6.5\ngini = 0.3457\nsamples = 6\nvalue = [0, 0, 0 ..., 0, 0, 0]"] ;
235 -> 236 ;
237 [label="gini = 0.0\nsamples = 4\nvalue = [0, 0, 0 ..., 0, 0, 0]"] ;
236 -> 237 ;
238 [label="X[5] <= 8.5\ngini = 0.4444\nsamples = 2\nvalue = [0, 0, 0 ..., 0, 0, 0]"] ;
236 -> 238 ;
239 [label="gini = 0.0\nsamples = 1\nvalue = [0, 0, 0 ..., 0, 0, 0]"] ;
238 -> 239 ;
240 [label="gini = 0.0\nsamples = 1\nvalue = [0, 0, 0 ..., 0, 0, 0]"] ;
238 -> 240 ;
241 [label="X[11] <= 8.0\ngini = 0.4688\nsamples = 5\nvalue = [0, 0, 0 ..., 0, 0, 0]"] ;
235 -> 241 ;
242 [label="gini = 0.0\nsamples = 4\nvalue = [0, 0, 0 ..., 0, 0, 0]"] ;
241 -> 242 ;
243 [label="gini = 0.0\nsamples = 1\nvalue = [0, 0, 0 ..., 0, 0, 0]"] ;
241 -> 243 ;
244 [label="gini = 0.0\nsamples = 7\nvalue = [9, 0, 0 ..., 0, 0, 0]"] ;
228 -> 244 ;
245 [label="X[15] <= 6.5\ngini = 0.1956\nsamples = 26\nvalue = [42, 0, 0 ..., 0, 0, 0]"] ;
227 -> 245 ;
246 [label="gini = 0.0\nsamples = 1\nvalue = [0, 0, 0 ..., 0, 0, 0]"] ;
245 -> 246 ;
247 [label="X[11] <= 7.5\ngini = 0.0868\nsamples = 25\nvalue = [42, 0, 0 ..., 0, 0, 0]"] ;
245 -> 247 ;
248 [label="gini = 0.0\nsamples = 1\nvalue = [0, 0, 0 ..., 0, 0, 0]"] ;
247 -> 248 ;
249 [label="gini = 0.0\nsamples = 24\nvalue = [42, 0, 0 ..., 0, 0, 0]"] ;
247 -> 249 ;
250 [label="X[9] <= 6.5\ngini = 0.7928\nsamples = 32\nvalue = [2, 0, 0 ..., 0, 0, 2]"] ;
226 -> 250 ;
251 [label="X[15] <= 8.5\ngini = 0.6173\nsamples = 16\nvalue = [0, 0, 0 ..., 0, 0, 0]"] ;
250 -> 251 ;
252 [label="X[13] <= 6.5\ngini = 0.4421\nsamples = 13\nvalue = [0, 0, 0 ..., 0, 0, 0]"] ;
251 -> 252 ;
253 [label="gini = 0.0\nsamples = 1\nvalue = [0, 0, 0 ..., 0, 0, 0]"] ;
252 -> 253 ;
254 [label="X[10] <= 4.5\ngini = 0.345\nsamples = 12\nvalue = [0, 0, 0 ..., 0, 0, 0]"] ;
252 -> 254 ;
255 [label="gini = 0.0\nsamples = 1\nvalue = [0, 0, 0 ..., 0, 0, 0]"] ;
254 -> 255 ;
256 [label="X[6] <= 7.5\ngini = 0.277\nsamples = 11\nvalue = [0, 0, 0 ..., 0, 0, 0]"] ;
254 -> 256 ;
257 [label="X[6] <= 5.0\ngini = 0.5\nsamples = 2\nvalue = [0, 0, 0 ..., 0, 0, 0]"] ;
256 -> 257 ;
258 [label="gini = 0.0\nsamples = 1\nvalue = [0, 0, 0 ..., 0, 0, 0]"] ;
257 -> 258 ;
259 [label="gini = 0.0\nsamples = 1\nvalue = [0, 0, 0 ..., 0, 0, 0]"] ;
257 -> 259 ;
260 [label="X[11] <= 9.5\ngini = 0.2076\nsamples = 9\nvalue = [0, 0, 0 ..., 0, 0, 0]"] ;
256 -> 260 ;
261 [label="X[12] <= 3.5\ngini = 0.48\nsamples = 3\nvalue = [0, 0, 0 ..., 0, 0, 0]"] ;
260 -> 261 ;
262 [label="gini = 0.0\nsamples = 1\nvalue = [0, 0, 0 ..., 0, 0, 0]"] ;
261 -> 262 ;
263 [label="X[7] <= 5.5\ngini = 0.4444\nsamples = 2\nvalue = [0, 0, 0 ..., 0, 0, 0]"] ;
261 -> 263 ;
264 [label="gini = 0.0\nsamples = 1\nvalue = [0, 0, 0 ..., 0, 0, 0]"] ;
263 -> 264 ;
265 [label="gini = 0.0\nsamples = 1\nvalue = [0, 0, 0 ..., 0, 0, 0]"] ;
263 -> 265 ;
266 [label="gini = 0.0\nsamples = 6\nvalue = [0, 0, 0 ..., 0, 0, 0]"] ;
260 -> 266 ;
267 [label="X[5] <= 6.5\ngini = 0.5\nsamples = 3\nvalue = [0, 0, 0 ..., 0, 0, 0]"] ;
251 -> 267 ;
268 [label="gini = 0.0\nsamples = 1\nvalue = [0, 0, 0 ..., 0, 0, 0]"] ;
267 -> 268 ;
269 [label="gini = 0.0\nsamples = 2\nvalue = [0, 0, 0 ..., 0, 0, 0]"] ;
267 -> 269 ;
270 [label="X[7] <= 5.5\ngini = 0.6919\nsamples = 16\nvalue = [2, 0, 0 ..., 0, 0, 2]"] ;
250 -> 270 ;
271 [label="X[13] <= 4.5\ngini = 0.8125\nsamples = 7\nvalue = [2, 0, 0 ..., 0, 0, 2]"] ;
270 -> 271 ;
272 [label="gini = 0.0\nsamples = 2\nvalue = [2, 0, 0 ..., 0, 0, 0]"] ;
271 -> 272 ;
273 [label="X[12] <= 3.5\ngini = 0.7778\nsamples = 5\nvalue = [0, 0, 0 ..., 0, 0, 2]"] ;
271 -> 273 ;
274 [label="gini = 0.0\nsamples = 1\nvalue = [0, 0, 0 ..., 0, 0, 2]"] ;
273 -> 274 ;
275 [label="X[13] <= 6.5\ngini = 0.75\nsamples = 4\nvalue = [0, 0, 0 ..., 0, 0, 0]"] ;
273 -> 275 ;
276 [label="X[5] <= 6.5\ngini = 0.5\nsamples = 2\nvalue = [0, 0, 0 ..., 0, 0, 0]"] ;
275 -> 276 ;
277 [label="gini = 0.0\nsamples = 1\nvalue = [0, 0, 0 ..., 0, 0, 0]"] ;
276 -> 277 ;
278 [label="gini = 0.0\nsamples = 1\nvalue = [0, 0, 0 ..., 0, 0, 0]"] ;
276 -> 278 ;
279 [label="X[10] <= 5.0\ngini = 0.5\nsamples = 2\nvalue = [0, 0, 0 ..., 0, 0, 0]"] ;
275 -> 279 ;
280 [label="gini = 0.0\nsamples = 1\nvalue = [0, 0, 0 ..., 0, 0, 0]"] ;
279 -> 280 ;
281 [label="gini = 0.0\nsamples = 1\nvalue = [0, 0, 0 ..., 0, 0, 0]"] ;
279 -> 281 ;
282 [label="X[3] <= 7.5\ngini = 0.3378\nsamples = 9\nvalue = [0, 0, 0 ..., 0, 0, 0]"] ;
270 -> 282 ;
283 [label="X[11] <= 8.5\ngini = 0.142\nsamples = 8\nvalue = [0, 0, 0 ..., 0, 0, 0]"] ;
282 -> 283 ;
284 [label="gini = 0.0\nsamples = 7\nvalue = [0, 0, 0 ..., 0, 0, 0]"] ;
283 -> 284 ;
285 [label="gini = 0.0\nsamples = 1\nvalue = [0, 0, 0 ..., 0, 0, 0]"] ;
283 -> 285 ;
286 [label="gini = 0.0\nsamples = 1\nvalue = [0, 0, 0 ..., 0, 0, 0]"] ;
282 -> 286 ;
287 [label="X[5] <= 6.5\ngini = 0.0712\nsamples = 64\nvalue = [0, 0, 0 ..., 0, 0, 0]"] ;
225 -> 287 ;
288 [label="gini = 0.0\nsamples = 53\nvalue = [0, 0, 0 ..., 0, 0, 0]"] ;
287 -> 288 ;
289 [label="X[6] <= 5.5\ngini = 0.322\nsamples = 11\nvalue = [0, 0, 0 ..., 0, 0, 0]"] ;
287 -> 289 ;
290 [label="gini = 0.0\nsamples = 2\nvalue = [0, 0, 0 ..., 0, 0, 0]"] ;
289 -> 290 ;
291 [label="X[11] <= 7.5\ngini = 0.1049\nsamples = 9\nvalue = [0, 0, 0 ..., 0, 0, 0]"] ;
289 -> 291 ;
292 [label="gini = 0.0\nsamples = 8\nvalue = [0, 0, 0 ..., 0, 0, 0]"] ;
291 -> 292 ;
293 [label="gini = 0.0\nsamples = 1\nvalue = [0, 0, 0 ..., 0, 0, 0]"] ;
291 -> 293 ;
294 [label="X[7] <= 4.5\ngini = 0.8512\nsamples = 622\nvalue = [1, 3, 24 ..., 6, 73, 29]"] ;
224 -> 294 ;
295 [label="X[13] <= 9.5\ngini = 0.896\nsamples = 249\nvalue = [0, 1, 22 ..., 0, 63, 16]"] ;
294 -> 295 ;
296 [label="X[11] <= 5.5\ngini = 0.8625\nsamples = 114\nvalue = [0, 0, 17 ..., 0, 5, 14]"] ;
295 -> 296 ;
297 [label="X[9] <= 7.5\ngini = 0.1125\nsamples = 22\nvalue = [0, 0, 0 ..., 0, 1, 0]"] ;
296 -> 297 ;
298 [label="gini = 0.0\nsamples = 1\nvalue = [0, 0, 0 ..., 0, 0, 0]"] ;
297 -> 298 ;
299 [label="X[13] <= 8.5\ngini = 0.0588\nsamples = 21\nvalue = [0, 0, 0 ..., 0, 1, 0]"] ;
297 -> 299 ;
300 [label="gini = 0.0\nsamples = 15\nvalue = [0, 0, 0 ..., 0, 0, 0]"] ;
299 -> 300 ;
301 [label="X[9] <= 10.0\ngini = 0.1975\nsamples = 6\nvalue = [0, 0, 0 ..., 0, 1, 0]"] ;
299 -> 301 ;
302 [label="gini = 0.0\nsamples = 1\nvalue = [0, 0, 0 ..., 0, 1, 0]"] ;
301 -> 302 ;
303 [label="gini = 0.0\nsamples = 5\nvalue = [0, 0, 0 ..., 0, 0, 0]"] ;
301 -> 303 ;
304 [label="X[6] <= 7.5\ngini = 0.8768\nsamples = 92\nvalue = [0, 0, 17 ..., 0, 4, 14]"] ;
296 -> 304 ;
305 [label="X[14] <= 9.5\ngini = 0.8018\nsamples = 52\nvalue = [0, 0, 13 ..., 0, 4, 6]"] ;
304 -> 305 ;
306 [label="X[11] <= 9.5\ngini = 0.7536\nsamples = 39\nvalue = [0, 0, 13 ..., 0, 4, 0]"] ;
305 -> 306 ;
307 [label="X[0] <= 3.5\ngini = 0.6578\nsamples = 29\nvalue = [0, 0, 0 ..., 0, 4, 0]"] ;
306 -> 307 ;
308 [label="X[9] <= 7.5\ngini = 0.8089\nsamples = 13\nvalue = [0, 0, 0 ..., 0, 1, 0]"] ;
307 -> 308 ;
309 [label="X[12] <= 3.0\ngini = 0.8148\nsamples = 8\nvalue = [0, 0, 0 ..., 0, 1, 0]"] ;
308 -> 309 ;
310 [label="gini = 0.0\nsamples = 2\nvalue = [0, 0, 0 ..., 0, 0, 0]"] ;
309 -> 310 ;
311 [label="X[14] <= 2.5\ngini = 0.8333\nsamples = 6\nvalue = [0, 0, 0 ..., 0, 1, 0]"] ;
309 -> 311 ;
312 [label="gini = 0.0\nsamples = 1\nvalue = [0, 0, 0 ..., 0, 0, 0]"] ;
311 -> 312 ;
313 [label="X[14] <= 3.5\ngini = 0.8\nsamples = 5\nvalue = [0, 0, 0 ..., 0, 1, 0]"] ;
311 -> 313 ;
314 [label="gini = 0.0\nsamples = 1\nvalue = [0, 0, 0 ..., 0, 0, 0]"] ;
313 -> 314 ;
315 [label="X[5] <= 7.0\ngini = 0.75\nsamples = 4\nvalue = [0, 0, 0 ..., 0, 1, 0]"] ;
313 -> 315 ;
316 [label="gini = 0.0\nsamples = 1\nvalue = [0, 0, 0 ..., 0, 0, 0]"] ;
315 -> 316 ;
317 [label="X[2] <= 3.5\ngini = 0.6667\nsamples = 3\nvalue = [0, 0, 0 ..., 0, 1, 0]"] ;
315 -> 317 ;
318 [label="gini = 0.0\nsamples = 1\nvalue = [0, 0, 0 ..., 0, 0, 0]"] ;
317 -> 318 ;
319 [label="X[5] <= 8.5\ngini = 0.5\nsamples = 2\nvalue = [0, 0, 0 ..., 0, 1, 0]"] ;
317 -> 319 ;
320 [label="gini = 0.0\nsamples = 1\nvalue = [0, 0, 0 ..., 0, 1, 0]"] ;
319 -> 320 ;
321 [label="gini = 0.0\nsamples = 1\nvalue = [0, 0, 0 ..., 0, 0, 0]"] ;
319 -> 321 ;
322 [label="X[1] <= 5.5\ngini = 0.4444\nsamples = 5\nvalue = [0, 0, 0 ..., 0, 0, 0]"] ;
308 -> 322 ;
323 [label="gini = 0.0\nsamples = 3\nvalue = [0, 0, 0 ..., 0, 0, 0]"] ;
322 -> 323 ;
324 [label="gini = 0.0\nsamples = 2\nvalue = [0, 0, 0 ..., 0, 0, 0]"] ;
322 -> 324 ;
325 [label="X[1] <= 8.0\ngini = 0.2933\nsamples = 16\nvalue = [0, 0, 0 ..., 0, 3, 0]"] ;
307 -> 325 ;
326 [label="X[14] <= 7.5\ngini = 0.5\nsamples = 2\nvalue = [0, 0, 0 ..., 0, 1, 0]"] ;
325 -> 326 ;
327 [label="gini = 0.0\nsamples = 1\nvalue = [0, 0, 0 ..., 0, 1, 0]"] ;
326 -> 327 ;
328 [label="gini = 0.0\nsamples = 1\nvalue = [0, 0, 0 ..., 0, 0, 0]"] ;
326 -> 328 ;
329 [label="X[10] <= 7.0\ngini = 0.1964\nsamples = 14\nvalue = [0, 0, 0 ..., 0, 2, 0]"] ;
325 -> 329 ;
330 [label="gini = 0.0\nsamples = 12\nvalue = [0, 0, 0 ..., 0, 0, 0]"] ;
329 -> 330 ;
331 [label="X[12] <= 4.5\ngini = 0.4444\nsamples = 2\nvalue = [0, 0, 0 ..., 0, 2, 0]"] ;
329 -> 331 ;
332 [label="gini = 0.0\nsamples = 1\nvalue = [0, 0, 0 ..., 0, 2, 0]"] ;
331 -> 332 ;
333 [label="gini = 0.0\nsamples = 1\nvalue = [0, 0, 0 ..., 0, 0, 0]"] ;
331 -> 333 ;
334 [label="X[10] <= 6.5\ngini = 0.3203\nsamples = 10\nvalue = [0, 0, 13 ..., 0, 0, 0]"] ;
306 -> 334 ;
335 [label="X[5] <= 8.5\ngini = 0.4444\nsamples = 2\nvalue = [0, 0, 0 ..., 0, 0, 0]"] ;
334 -> 335 ;
336 [label="gini = 0.0\nsamples = 1\nvalue = [0, 0, 0 ..., 0, 0, 0]"] ;
335 -> 336 ;
337 [label="gini = 0.0\nsamples = 1\nvalue = [0, 0, 0 ..., 0, 0, 0]"] ;
335 -> 337 ;
338 [label="gini = 0.0\nsamples = 8\nvalue = [0, 0, 13 ..., 0, 0, 0]"] ;
334 -> 338 ;
339 [label="X[9] <= 10.0\ngini = 0.3648\nsamples = 13\nvalue = [0, 0, 0 ..., 0, 0, 6]"] ;
305 -> 339 ;
340 [label="gini = 0.0\nsamples = 10\nvalue = [0, 0, 0 ..., 0, 0, 0]"] ;
339 -> 340 ;
341 [label="gini = 0.0\nsamples = 3\nvalue = [0, 0, 0 ..., 0, 0, 6]"] ;
339 -> 341 ;
342 [label="X[9] <= 7.5\ngini = 0.7978\nsamples = 40\nvalue = [0, 0, 4 ..., 0, 0, 8]"] ;
304 -> 342 ;
343 [label="X[3] <= 7.0\ngini = 0.3554\nsamples = 12\nvalue = [0, 0, 0 ..., 0, 0, 0]"] ;
342 -> 343 ;
344 [label="X[1] <= 3.5\ngini = 0.5207\nsamples = 8\nvalue = [0, 0, 0 ..., 0, 0, 0]"] ;
343 -> 344 ;
345 [label="gini = 0.0\nsamples = 5\nvalue = [0, 0, 0 ..., 0, 0, 0]"] ;
344 -> 345 ;
346 [label="X[13] <= 8.5\ngini = 0.32\nsamples = 3\nvalue = [0, 0, 0 ..., 0, 0, 0]"] ;
344 -> 346 ;
347 [label="gini = 0.0\nsamples = 1\nvalue = [0, 0, 0 ..., 0, 0, 0]"] ;
346 -> 347 ;
348 [label="gini = 0.0\nsamples = 2\nvalue = [0, 0, 0 ..., 0, 0, 0]"] ;
346 -> 348 ;
349 [label="gini = 0.0\nsamples = 4\nvalue = [0, 0, 0 ..., 0, 0, 0]"] ;
343 -> 349 ;
350 [label="X[14] <= 9.5\ngini = 0.8356\nsamples = 28\nvalue = [0, 0, 4 ..., 0, 0, 8]"] ;
342 -> 350 ;
351 [label="X[10] <= 5.5\ngini = 0.8\nsamples = 20\nvalue = [0, 0, 4 ..., 0, 0, 0]"] ;
350 -> 351 ;
352 [label="X[2] <= 4.5\ngini = 0.18\nsamples = 7\nvalue = [0, 0, 0 ..., 0, 0, 0]"] ;
351 -> 352 ;
353 [label="X[2] <= 3.5\ngini = 0.5\nsamples = 2\nvalue = [0, 0, 0 ..., 0, 0, 0]"] ;
352 -> 353 ;
354 [label="gini = 0.0\nsamples = 1\nvalue = [0, 0, 0 ..., 0, 0, 0]"] ;
353 -> 354 ;
355 [label="gini = 0.0\nsamples = 1\nvalue = [0, 0, 0 ..., 0, 0, 0]"] ;
353 -> 355 ;
356 [label="gini = 0.0\nsamples = 5\nvalue = [0, 0, 0 ..., 0, 0, 0]"] ;
352 -> 356 ;
357 [label="X[14] <= 6.0\ngini = 0.8089\nsamples = 13\nvalue = [0, 0, 4 ..., 0, 0, 0]"] ;
351 -> 357 ;
358 [label="X[6] <= 9.5\ngini = 0.716\nsamples = 8\nvalue = [0, 0, 0 ..., 0, 0, 0]"] ;
357 -> 358 ;
359 [label="X[1] <= 4.0\ngini = 0.6122\nsamples = 6\nvalue = [0, 0, 0 ..., 0, 0, 0]"] ;
358 -> 359 ;
360 [label="gini = 0.0\nsamples = 3\nvalue = [0, 0, 0 ..., 0, 0, 0]"] ;
359 -> 360 ;
361 [label="X[6] <= 8.5\ngini = 0.375\nsamples = 3\nvalue = [0, 0, 0 ..., 0, 0, 0]"] ;
359 -> 361 ;
362 [label="gini = 0.0\nsamples = 2\nvalue = [0, 0, 0 ..., 0, 0, 0]"] ;
361 -> 362 ;
363 [label="gini = 0.0\nsamples = 1\nvalue = [0, 0, 0 ..., 0, 0, 0]"] ;
361 -> 363 ;
364 [label="gini = 0.0\nsamples = 2\nvalue = [0, 0, 0 ..., 0, 0, 0]"] ;
358 -> 364 ;
365 [label="X[10] <= 7.0\ngini = 0.4444\nsamples = 5\nvalue = [0, 0, 4 ..., 0, 0, 0]"] ;
357 -> 365 ;
366 [label="gini = 0.0\nsamples = 1\nvalue = [0, 0, 0 ..., 0, 0, 0]"] ;
365 -> 366 ;
367 [label="gini = 0.0\nsamples = 4\nvalue = [0, 0, 4 ..., 0, 0, 0]"] ;
365 -> 367 ;
368 [label="X[10] <= 6.0\ngini = 0.1975\nsamples = 8\nvalue = [0, 0, 0 ..., 0, 0, 8]"] ;
350 -> 368 ;
369 [label="gini = 0.0\nsamples = 1\nvalue = [0, 0, 0 ..., 0, 0, 0]"] ;
368 -> 369 ;
370 [label="gini = 0.0\nsamples = 7\nvalue = [0, 0, 0 ..., 0, 0, 8]"] ;
368 -> 370 ;
371 [label="X[14] <= 3.5\ngini = 0.8197\nsamples = 135\nvalue = [0, 1, 5 ..., 0, 58, 2]"] ;
295 -> 371 ;
372 [label="X[6] <= 8.5\ngini = 0.4417\nsamples = 40\nvalue = [0, 0, 4 ..., 0, 2, 0]"] ;
371 -> 372 ;
373 [label="X[12] <= 4.0\ngini = 0.4082\nsamples = 10\nvalue = [0, 0, 4 ..., 0, 0, 0]"] ;
372 -> 373 ;
374 [label="gini = 0.0\nsamples = 8\nvalue = [0, 0, 0 ..., 0, 0, 0]"] ;
373 -> 374 ;
375 [label="gini = 0.0\nsamples = 2\nvalue = [0, 0, 4 ..., 0, 0, 0]"] ;
373 -> 375 ;
376 [label="X[3] <= 8.5\ngini = 0.1189\nsamples = 30\nvalue = [0, 0, 0 ..., 0, 2, 0]"] ;
372 -> 376 ;
377 [label="X[6] <= 9.5\ngini = 0.0815\nsamples = 29\nvalue = [0, 0, 0 ..., 0, 2, 0]"] ;
376 -> 377 ;
378 [label="X[14] <= 2.5\ngini = 0.4444\nsamples = 4\nvalue = [0, 0, 0 ..., 0, 2, 0]"] ;
377 -> 378 ;
379 [label="gini = 0.0\nsamples = 3\nvalue = [0, 0, 0 ..., 0, 0, 0]"] ;
378 -> 379 ;
380 [label="gini = 0.0\nsamples = 1\nvalue = [0, 0, 0 ..., 0, 2, 0]"] ;
378 -> 380 ;
381 [label="gini = 0.0\nsamples = 25\nvalue = [0, 0, 0 ..., 0, 0, 0]"] ;
377 -> 381 ;
382 [label="gini = 0.0\nsamples = 1\nvalue = [0, 0, 0 ..., 0, 0, 0]"] ;
376 -> 382 ;
383 [label="X[9] <= 7.5\ngini = 0.8029\nsamples = 95\nvalue = [0, 1, 1 ..., 0, 56, 2]"] ;
371 -> 383 ;
384 [label="X[15] <= 8.5\ngini = 0.616\nsamples = 54\nvalue = [0, 1, 0 ..., 0, 50, 0]"] ;
383 -> 384 ;
385 [label="X[12] <= 4.5\ngini = 0.4348\nsamples = 37\nvalue = [0, 1, 0 ..., 0, 45, 0]"] ;
384 -> 385 ;
386 [label="X[12] <= 2.5\ngini = 0.236\nsamples = 27\nvalue = [0, 0, 0 ..., 0, 39, 0]"] ;
385 -> 386 ;
387 [label="gini = 0.0\nsamples = 1\nvalue = [0, 0, 0 ..., 0, 0, 0]"] ;
386 -> 387 ;
388 [label="X[14] <= 4.5\ngini = 0.1349\nsamples = 26\nvalue = [0, 0, 0 ..., 0, 39, 0]"] ;
386 -> 388 ;
389 [label="gini = 0.0\nsamples = 1\nvalue = [0, 0, 0 ..., 0, 0, 0]"] ;
388 -> 389 ;
390 [label="X[15] <= 7.5\ngini = 0.0928\nsamples = 25\nvalue = [0, 0, 0 ..., 0, 39, 0]"] ;
388 -> 390 ;
391 [label="gini = 0.0\nsamples = 16\nvalue = [0, 0, 0 ..., 0, 28, 0]"] ;
390 -> 391 ;
392 [label="X[10] <= 9.0\ngini = 0.2604\nsamples = 9\nvalue = [0, 0, 0 ..., 0, 11, 0]"] ;
390 -> 392 ;
393 [label="gini = 0.0\nsamples = 7\nvalue = [0, 0, 0 ..., 0, 10, 0]"] ;
392 -> 393 ;
394 [label="X[3] <= 8.0\ngini = 0.4444\nsamples = 2\nvalue = [0, 0, 0 ..., 0, 1, 0]"] ;
392 -> 394 ;
395 [label="gini = 0.0\nsamples = 1\nvalue = [0, 0, 0 ..., 0, 0, 0]"] ;
394 -> 395 ;
396 [label="gini = 0.0\nsamples = 1\nvalue = [0, 0, 0 ..., 0, 1, 0]"] ;
394 -> 396 ;
397 [label="X[3] <= 8.0\ngini = 0.6797\nsamples = 10\nvalue = [0, 1, 0 ..., 0, 6, 0]"] ;
385 -> 397 ;
398 [label="X[1] <= 5.5\ngini = 0.6116\nsamples = 7\nvalue = [0, 1, 0 ..., 0, 1, 0]"] ;
397 -> 398 ;
399 [label="X[6] <= 6.5\ngini = 0.2449\nsamples = 4\nvalue = [0, 0, 0 ..., 0, 1, 0]"] ;
398 -> 399 ;
400 [label="gini = 0.0\nsamples = 1\nvalue = [0, 0, 0 ..., 0, 1, 0]"] ;
399 -> 400 ;
401 [label="gini = 0.0\nsamples = 3\nvalue = [0, 0, 0 ..., 0, 0, 0]"] ;
399 -> 401 ;
402 [label="X[6] <= 9.0\ngini = 0.375\nsamples = 3\nvalue = [0, 1, 0 ..., 0, 0, 0]"] ;
398 -> 402 ;
403 [label="gini = 0.0\nsamples = 1\nvalue = [0, 1, 0 ..., 0, 0, 0]"] ;
402 -> 403 ;
404 [label="gini = 0.0\nsamples = 2\nvalue = [0, 0, 0 ..., 0, 0, 0]"] ;
402 -> 404 ;
405 [label="gini = 0.0\nsamples = 3\nvalue = [0, 0, 0 ..., 0, 5, 0]"] ;
397 -> 405 ;
406 [label="X[6] <= 8.5\ngini = 0.7392\nsamples = 17\nvalue = [0, 0, 0 ..., 0, 5, 0]"] ;
384 -> 406 ;
407 [label="gini = 0.0\nsamples = 4\nvalue = [0, 0, 0 ..., 0, 0, 0]"] ;
406 -> 407 ;
408 [label="X[4] <= 4.5\ngini = 0.655\nsamples = 13\nvalue = [0, 0, 0 ..., 0, 5, 0]"] ;
406 -> 408 ;
409 [label="gini = 0.0\nsamples = 2\nvalue = [0, 0, 0 ..., 0, 0, 0]"] ;
408 -> 409 ;
410 [label="X[11] <= 10.0\ngini = 0.5536\nsamples = 11\nvalue = [0, 0, 0 ..., 0, 5, 0]"] ;
408 -> 410 ;
411 [label="X[10] <= 7.5\ngini = 0.4082\nsamples = 5\nvalue = [0, 0, 0 ..., 0, 5, 0]"] ;
410 -> 411 ;
412 [label="gini = 0.0\nsamples = 1\nvalue = [0, 0, 0 ..., 0, 0, 0]"] ;
411 -> 412 ;
413 [label="X[2] <= 6.5\ngini = 0.2778\nsamples = 4\nvalue = [0, 0, 0 ..., 0, 5, 0]"] ;
411 -> 413 ;
414 [label="gini = 0.0\nsamples = 1\nvalue = [0, 0, 0 ..., 0, 0, 0]"] ;
413 -> 414 ;
415 [label="gini = 0.0\nsamples = 3\nvalue = [0, 0, 0 ..., 0, 5, 0]"] ;
413 -> 415 ;
416 [label="gini = 0.0\nsamples = 6\nvalue = [0, 0, 0 ..., 0, 0, 0]"] ;
410 -> 416 ;
417 [label="X[6] <= 8.5\ngini = 0.8582\nsamples = 41\nvalue = [0, 0, 1 ..., 0, 6, 2]"] ;
383 -> 417 ;
418 [label="X[9] <= 9.5\ngini = 0.8431\nsamples = 16\nvalue = [0, 0, 1 ..., 0, 3, 2]"] ;
417 -> 418 ;
419 [label="X[10] <= 6.5\ngini = 0.6864\nsamples = 9\nvalue = [0, 0, 1 ..., 0, 0, 0]"] ;
418 -> 419 ;
420 [label="X[6] <= 7.5\ngini = 0.2778\nsamples = 4\nvalue = [0, 0, 0 ..., 0, 0, 0]"] ;
419 -> 420 ;
421 [label="gini = 0.0\nsamples = 3\nvalue = [0, 0, 0 ..., 0, 0, 0]"] ;
420 -> 421 ;
422 [label="gini = 0.0\nsamples = 1\nvalue = [0, 0, 0 ..., 0, 0, 0]"] ;
420 -> 422 ;
423 [label="X[2] <= 4.5\ngini = 0.449\nsamples = 5\nvalue = [0, 0, 1 ..., 0, 0, 0]"] ;
419 -> 423 ;
424 [label="gini = 0.0\nsamples = 1\nvalue = [0, 0, 0 ..., 0, 0, 0]"] ;
423 -> 424 ;
425 [label="X[11] <= 10.0\ngini = 0.2778\nsamples = 4\nvalue = [0, 0, 1 ..., 0, 0, 0]"] ;
423 -> 425 ;
426 [label="gini = 0.0\nsamples = 3\nvalue = [0, 0, 0 ..., 0, 0, 0]"] ;
425 -> 426 ;
427 [label="gini = 0.0\nsamples = 1\nvalue = [0, 0, 1 ..., 0, 0, 0]"] ;
425 -> 427 ;
428 [label="X[11] <= 9.5\ngini = 0.7\nsamples = 7\nvalue = [0, 0, 0 ..., 0, 3, 2]"] ;
418 -> 428 ;
429 [label="X[12] <= 2.5\ngini = 0.6111\nsamples = 4\nvalue = [0, 0, 0 ..., 0, 3, 2]"] ;
428 -> 429 ;
430 [label="X[11] <= 8.0\ngini = 0.4444\nsamples = 2\nvalue = [0, 0, 0 ..., 0, 0, 2]"] ;
429 -> 430 ;
431 [label="gini = 0.0\nsamples = 1\nvalue = [0, 0, 0 ..., 0, 0, 0]"] ;
430 -> 431 ;
432 [label="gini = 0.0\nsamples = 1\nvalue = [0, 0, 0 ..., 0, 0, 2]"] ;
430 -> 432 ;
433 [label="gini = 0.0\nsamples = 2\nvalue = [0, 0, 0 ..., 0, 3, 0]"] ;
429 -> 433 ;
434 [label="gini = 0.0\nsamples = 3\nvalue = [0, 0, 0 ..., 0, 0, 0]"] ;
428 -> 434 ;
435 [label="X[9] <= 8.5\ngini = 0.7472\nsamples = 25\nvalue = [0, 0, 0 ..., 0, 3, 0]"] ;
417 -> 435 ;
436 [label="X[12] <= 4.5\ngini = 0.6942\nsamples = 12\nvalue = [0, 0, 0 ..., 0, 0, 0]"] ;
435 -> 436 ;
437 [label="X[5] <= 7.5\ngini = 0.5625\nsamples = 7\nvalue = [0, 0, 0 ..., 0, 0, 0]"] ;
436 -> 437 ;
438 [label="X[1] <= 9.5\ngini = 0.6667\nsamples = 3\nvalue = [0, 0, 0 ..., 0, 0, 0]"] ;
437 -> 438 ;
439 [label="X[3] <= 8.0\ngini = 0.5\nsamples = 2\nvalue = [0, 0, 0 ..., 0, 0, 0]"] ;
438 -> 439 ;
440 [label="gini = 0.0\nsamples = 1\nvalue = [0, 0, 0 ..., 0, 0, 0]"] ;
439 -> 440 ;
441 [label="gini = 0.0\nsamples = 1\nvalue = [0, 0, 0 ..., 0, 0, 0]"] ;
439 -> 441 ;
442 [label="gini = 0.0\nsamples = 1\nvalue = [0, 0, 0 ..., 0, 0, 0]"] ;
438 -> 442 ;
443 [label="gini = 0.0\nsamples = 4\nvalue = [0, 0, 0 ..., 0, 0, 0]"] ;
437 -> 443 ;
444 [label="gini = 0.0\nsamples = 5\nvalue = [0, 0, 0 ..., 0, 0, 0]"] ;
436 -> 444 ;
445 [label="X[13] <= 10.5\ngini = 0.625\nsamples = 13\nvalue = [0, 0, 0 ..., 0, 3, 0]"] ;
435 -> 445 ;
446 [label="X[2] <= 6.5\ngini = 0.7273\nsamples = 8\nvalue = [0, 0, 0 ..., 0, 3, 0]"] ;
445 -> 446 ;
447 [label="X[11] <= 6.5\ngini = 0.6531\nsamples = 5\nvalue = [0, 0, 0 ..., 0, 0, 0]"] ;
446 -> 447 ;
448 [label="X[14] <= 6.5\ngini = 0.5\nsamples = 4\nvalue = [0, 0, 0 ..., 0, 0, 0]"] ;
447 -> 448 ;
449 [label="gini = 0.0\nsamples = 2\nvalue = [0, 0, 0 ..., 0, 0, 0]"] ;
448 -> 449 ;
450 [label="gini = 0.0\nsamples = 2\nvalue = [0, 0, 0 ..., 0, 0, 0]"] ;
448 -> 450 ;
451 [label="gini = 0.0\nsamples = 1\nvalue = [0, 0, 0 ..., 0, 0, 0]"] ;
447 -> 451 ;
452 [label="X[7] <= 2.5\ngini = 0.375\nsamples = 3\nvalue = [0, 0, 0 ..., 0, 3, 0]"] ;
446 -> 452 ;
453 [label="gini = 0.0\nsamples = 1\nvalue = [0, 0, 0 ..., 0, 2, 0]"] ;
452 -> 453 ;
454 [label="X[9] <= 9.5\ngini = 0.5\nsamples = 2\nvalue = [0, 0, 0 ..., 0, 1, 0]"] ;
452 -> 454 ;
455 [label="gini = 0.0\nsamples = 1\nvalue = [0, 0, 0 ..., 0, 0, 0]"] ;
454 -> 455 ;
456 [label="gini = 0.0\nsamples = 1\nvalue = [0, 0, 0 ..., 0, 1, 0]"] ;
454 -> 456 ;
457 [label="gini = 0.0\nsamples = 5\nvalue = [0, 0, 0 ..., 0, 0, 0]"] ;
445 -> 457 ;
458 [label="X[1] <= 6.5\ngini = 0.7225\nsamples = 373\nvalue = [1, 2, 2 ..., 6, 10, 13]"] ;
294 -> 458 ;
459 [label="X[14] <= 2.5\ngini = 0.5006\nsamples = 192\nvalue = [0, 2, 0 ..., 5, 6, 4]"] ;
458 -> 459 ;
460 [label="X[15] <= 9.5\ngini = 0.6352\nsamples = 28\nvalue = [0, 0, 0 ..., 0, 0, 0]"] ;
459 -> 460 ;
461 [label="X[13] <= 8.5\ngini = 0.4362\nsamples = 16\nvalue = [0, 0, 0 ..., 0, 0, 0]"] ;
460 -> 461 ;
462 [label="X[1] <= 1.5\ngini = 0.2355\nsamples = 12\nvalue = [0, 0, 0 ..., 0, 0, 0]"] ;
461 -> 462 ;
463 [label="gini = 0.0\nsamples = 2\nvalue = [0, 0, 0 ..., 0, 0, 0]"] ;
462 -> 463 ;
464 [label="gini = 0.0\nsamples = 10\nvalue = [0, 0, 0 ..., 0, 0, 0]"] ;
462 -> 464 ;
465 [label="X[1] <= 3.0\ngini = 0.32\nsamples = 4\nvalue = [0, 0, 0 ..., 0, 0, 0]"] ;
461 -> 465 ;
466 [label="gini = 0.0\nsamples = 3\nvalue = [0, 0, 0 ..., 0, 0, 0]"] ;
465 -> 466 ;
467 [label="gini = 0.0\nsamples = 1\nvalue = [0, 0, 0 ..., 0, 0, 0]"] ;
465 -> 467 ;
468 [label="gini = 0.0\nsamples = 12\nvalue = [0, 0, 0 ..., 0, 0, 0]"] ;
460 -> 468 ;
469 [label="X[4] <= 6.5\ngini = 0.364\nsamples = 164\nvalue = [0, 2, 0 ..., 5, 6, 4]"] ;
459 -> 469 ;
470 [label="X[12] <= 3.5\ngini = 0.3068\nsamples = 156\nvalue = [0, 1, 0 ..., 5, 5, 4]"] ;
469 -> 470 ;
471 [label="X[2] <= 1.5\ngini = 0.221\nsamples = 144\nvalue = [0, 1, 0 ..., 5, 0, 4]"] ;
470 -> 471 ;
472 [label="X[11] <= 8.5\ngini = 0.375\nsamples = 3\nvalue = [0, 0, 0 ..., 0, 0, 0]"] ;
471 -> 472 ;
473 [label="X[5] <= 7.5\ngini = 0.2449\nsamples = 2\nvalue = [0, 0, 0 ..., 0, 0, 0]"] ;
472 -> 473 ;
474 [label="gini = 0.0\nsamples = 1\nvalue = [0, 0, 0 ..., 0, 0, 0]"] ;
473 -> 474 ;
475 [label="gini = 0.0\nsamples = 1\nvalue = [0, 0, 0 ..., 0, 0, 0]"] ;
473 -> 475 ;
476 [label="gini = 0.0\nsamples = 1\nvalue = [0, 0, 0 ..., 0, 0, 0]"] ;
472 -> 476 ;
477 [label="X[3] <= 8.5\ngini = 0.1811\nsamples = 141\nvalue = [0, 1, 0 ..., 5, 0, 4]"] ;
471 -> 477 ;
478 [label="X[11] <= 8.5\ngini = 0.1507\nsamples = 139\nvalue = [0, 1, 0 ..., 5, 0, 0]"] ;
477 -> 478 ;
479 [label="X[9] <= 8.0\ngini = 0.7337\nsamples = 8\nvalue = [0, 1, 0 ..., 5, 0, 0]"] ;
478 -> 479 ;
480 [label="X[3] <= 5.0\ngini = 0.64\nsamples = 7\nvalue = [0, 1, 0 ..., 5, 0, 0]"] ;
479 -> 480 ;
481 [label="X[9] <= 6.5\ngini = 0.449\nsamples = 5\nvalue = [0, 1, 0 ..., 5, 0, 0]"] ;
480 -> 481 ;
482 [label="X[2] <= 3.0\ngini = 0.5\nsamples = 2\nvalue = [0, 1, 0 ..., 0, 0, 0]"] ;
481 -> 482 ;
483 [label="gini = 0.0\nsamples = 1\nvalue = [0, 0, 0 ..., 0, 0, 0]"] ;
482 -> 483 ;
484 [label="gini = 0.0\nsamples = 1\nvalue = [0, 1, 0 ..., 0, 0, 0]"] ;
482 -> 484 ;
485 [label="gini = 0.0\nsamples = 3\nvalue = [0, 0, 0 ..., 5, 0, 0]"] ;
481 -> 485 ;
486 [label="gini = 0.0\nsamples = 2\nvalue = [0, 0, 0 ..., 0, 0, 0]"] ;
480 -> 486 ;
487 [label="gini = 0.0\nsamples = 1\nvalue = [0, 0, 0 ..., 0, 0, 0]"] ;
479 -> 487 ;
488 [label="X[15] <= 10.5\ngini = 0.0487\nsamples = 131\nvalue = [0, 0, 0 ..., 0, 0, 0]"] ;
478 -> 488 ;
489 [label="X[1] <= 5.5\ngini = 0.0392\nsamples = 130\nvalue = [0, 0, 0 ..., 0, 0, 0]"] ;
488 -> 489 ;
490 [label="gini = 0.0\nsamples = 106\nvalue = [0, 0, 0 ..., 0, 0, 0]"] ;
489 -> 490 ;
491 [label="X[14] <= 6.5\ngini = 0.185\nsamples = 24\nvalue = [0, 0, 0 ..., 0, 0, 0]"] ;
489 -> 491 ;
492 [label="X[0] <= 3.5\ngini = 0.0997\nsamples = 22\nvalue = [0, 0, 0 ..., 0, 0, 0]"] ;
491 -> 492 ;
493 [label="X[13] <= 8.5\ngini = 0.32\nsamples = 5\nvalue = [0, 0, 0 ..., 0, 0, 0]"] ;
492 -> 493 ;
494 [label="X[6] <= 8.5\ngini = 0.5\nsamples = 2\nvalue = [0, 0, 0 ..., 0, 0, 0]"] ;
493 -> 494 ;
495 [label="gini = 0.0\nsamples = 1\nvalue = [0, 0, 0 ..., 0, 0, 0]"] ;
494 -> 495 ;
496 [label="gini = 0.0\nsamples = 1\nvalue = [0, 0, 0 ..., 0, 0, 0]"] ;
494 -> 496 ;
497 [label="gini = 0.0\nsamples = 3\nvalue = [0, 0, 0 ..., 0, 0, 0]"] ;
493 -> 497 ;
498 [label="gini = 0.0\nsamples = 17\nvalue = [0, 0, 0 ..., 0, 0, 0]"] ;
492 -> 498 ;
499 [label="gini = 0.0\nsamples = 2\nvalue = [0, 0, 0 ..., 0, 0, 0]"] ;
491 -> 499 ;
500 [label="gini = 0.0\nsamples = 1\nvalue = [0, 0, 0 ..., 0, 0, 0]"] ;
488 -> 500 ;
501 [label="gini = 0.0\nsamples = 2\nvalue = [0, 0, 0 ..., 0, 0, 4]"] ;
477 -> 501 ;
502 [label="X[15] <= 5.5\ngini = 0.8\nsamples = 12\nvalue = [0, 0, 0 ..., 0, 5, 0]"] ;
470 -> 502 ;
503 [label="gini = 0.0\nsamples = 3\nvalue = [0, 0, 0 ..., 0, 4, 0]"] ;
502 -> 503 ;
504 [label="X[11] <= 7.5\ngini = 0.8264\nsamples = 9\nvalue = [0, 0, 0 ..., 0, 1, 0]"] ;
502 -> 504 ;
505 [label="X[8] <= 1.0\ngini = 0.4444\nsamples = 2\nvalue = [0, 0, 0 ..., 0, 0, 0]"] ;
504 -> 505 ;
506 [label="gini = 0.0\nsamples = 1\nvalue = [0, 0, 0 ..., 0, 0, 0]"] ;
505 -> 506 ;
507 [label="gini = 0.0\nsamples = 1\nvalue = [0, 0, 0 ..., 0, 0, 0]"] ;
505 -> 507 ;
508 [label="X[14] <= 5.0\ngini = 0.75\nsamples = 7\nvalue = [0, 0, 0 ..., 0, 1, 0]"] ;
504 -> 508 ;
509 [label="gini = 0.0\nsamples = 2\nvalue = [0, 0, 0 ..., 0, 0, 0]"] ;
508 -> 509 ;
510 [label="X[3] <= 5.0\ngini = 0.72\nsamples = 5\nvalue = [0, 0, 0 ..., 0, 1, 0]"] ;
508 -> 510 ;
511 [label="X[11] <= 9.5\ngini = 0.4444\nsamples = 3\nvalue = [0, 0, 0 ..., 0, 0, 0]"] ;
510 -> 511 ;
512 [label="gini = 0.0\nsamples = 2\nvalue = [0, 0, 0 ..., 0, 0, 0]"] ;
511 -> 512 ;
513 [label="gini = 0.0\nsamples = 1\nvalue = [0, 0, 0 ..., 0, 0, 0]"] ;
511 -> 513 ;
514 [label="X[2] <= 4.5\ngini = 0.5\nsamples = 2\nvalue = [0, 0, 0 ..., 0, 1, 0]"] ;
510 -> 514 ;
515 [label="gini = 0.0\nsamples = 1\nvalue = [0, 0, 0 ..., 0, 1, 0]"] ;
514 -> 515 ;
516 [label="gini = 0.0\nsamples = 1\nvalue = [0, 0, 0 ..., 0, 0, 0]"] ;
514 -> 516 ;
517 [label="X[5] <= 8.5\ngini = 0.314\nsamples = 8\nvalue = [0, 1, 0 ..., 0, 1, 0]"] ;
469 -> 517 ;
518 [label="X[14] <= 8.0\ngini = 0.18\nsamples = 7\nvalue = [0, 1, 0 ..., 0, 0, 0]"] ;
517 -> 518 ;
519 [label="gini = 0.0\nsamples = 6\nvalue = [0, 0, 0 ..., 0, 0, 0]"] ;
518 -> 519 ;
520 [label="gini = 0.0\nsamples = 1\nvalue = [0, 1, 0 ..., 0, 0, 0]"] ;
518 -> 520 ;
521 [label="gini = 0.0\nsamples = 1\nvalue = [0, 0, 0 ..., 0, 1, 0]"] ;
517 -> 521 ;
522 [label="X[13] <= 9.5\ngini = 0.8442\nsamples = 181\nvalue = [1, 0, 2 ..., 1, 4, 9]"] ;
458 -> 522 ;
523 [label="X[3] <= 8.5\ngini = 0.8187\nsamples = 121\nvalue = [1, 0, 2 ..., 1, 0, 9]"] ;
522 -> 523 ;
524 [label="X[9] <= 8.5\ngini = 0.8636\nsamples = 77\nvalue = [0, 0, 2 ..., 1, 0, 7]"] ;
523 -> 524 ;
525 [label="X[14] <= 9.5\ngini = 0.8416\nsamples = 50\nvalue = [0, 0, 2 ..., 1, 0, 7]"] ;
524 -> 525 ;
526 [label="X[6] <= 7.5\ngini = 0.8118\nsamples = 43\nvalue = [0, 0, 2 ..., 1, 0, 7]"] ;
525 -> 526 ;
527 [label="X[12] <= 3.5\ngini = 0.7061\nsamples = 29\nvalue = [0, 0, 2 ..., 1, 0, 0]"] ;
526 -> 527 ;
528 [label="X[15] <= 10.5\ngini = 0.72\nsamples = 4\nvalue = [0, 0, 0 ..., 1, 0, 0]"] ;
527 -> 528 ;
529 [label="X[3] <= 6.0\ngini = 0.6667\nsamples = 3\nvalue = [0, 0, 0 ..., 1, 0, 0]"] ;
528 -> 529 ;
530 [label="gini = 0.0\nsamples = 1\nvalue = [0, 0, 0 ..., 1, 0, 0]"] ;
529 -> 530 ;
531 [label="X[15] <= 9.5\ngini = 0.5\nsamples = 2\nvalue = [0, 0, 0 ..., 0, 0, 0]"] ;
529 -> 531 ;
532 [label="gini = 0.0\nsamples = 1\nvalue = [0, 0, 0 ..., 0, 0, 0]"] ;
531 -> 532 ;
533 [label="gini = 0.0\nsamples = 1\nvalue = [0, 0, 0 ..., 0, 0, 0]"] ;
531 -> 533 ;
534 [label="gini = 0.0\nsamples = 1\nvalue = [0, 0, 0 ..., 0, 0, 0]"] ;
528 -> 534 ;
535 [label="X[8] <= 2.5\ngini = 0.6194\nsamples = 25\nvalue = [0, 0, 2 ..., 0, 0, 0]"] ;
527 -> 535 ;
536 [label="X[11] <= 9.5\ngini = 0.34\nsamples = 8\nvalue = [0, 0, 0 ..., 0, 0, 0]"] ;
535 -> 536 ;
537 [label="X[11] <= 6.0\ngini = 0.625\nsamples = 3\nvalue = [0, 0, 0 ..., 0, 0, 0]"] ;
536 -> 537 ;
538 [label="gini = 0.0\nsamples = 1\nvalue = [0, 0, 0 ..., 0, 0, 0]"] ;
537 -> 538 ;
539 [label="X[6] <= 6.5\ngini = 0.5\nsamples = 2\nvalue = [0, 0, 0 ..., 0, 0, 0]"] ;
537 -> 539 ;
540 [label="gini = 0.0\nsamples = 1\nvalue = [0, 0, 0 ..., 0, 0, 0]"] ;
539 -> 540 ;
541 [label="gini = 0.0\nsamples = 1\nvalue = [0, 0, 0 ..., 0, 0, 0]"] ;
539 -> 541 ;
542 [label="gini = 0.0\nsamples = 5\nvalue = [0, 0, 0 ..., 0, 0, 0]"] ;
536 -> 542 ;
543 [label="X[1] <= 14.5\ngini = 0.6007\nsamples = 17\nvalue = [0, 0, 2 ..., 0, 0, 0]"] ;
535 -> 543 ;
544 [label="X[14] <= 7.5\ngini = 0.5709\nsamples = 16\nvalue = [0, 0, 1 ..., 0, 0, 0]"] ;
543 -> 544 ;
545 [label="X[0] <= 4.5\ngini = 0.4852\nsamples = 10\nvalue = [0, 0, 1 ..., 0, 0, 0]"] ;
544 -> 545 ;
546 [label="X[14] <= 6.0\ngini = 0.7222\nsamples = 6\nvalue = [0, 0, 1 ..., 0, 0, 0]"] ;
545 -> 546 ;
547 [label="X[11] <= 9.5\ngini = 0.5\nsamples = 2\nvalue = [0, 0, 1 ..., 0, 0, 0]"] ;
546 -> 547 ;
548 [label="gini = 0.0\nsamples = 1\nvalue = [0, 0, 0 ..., 0, 0, 0]"] ;
547 -> 548 ;
549 [label="gini = 0.0\nsamples = 1\nvalue = [0, 0, 1 ..., 0, 0, 0]"] ;
547 -> 549 ;
550 [label="X[11] <= 10.5\ngini = 0.5\nsamples = 4\nvalue = [0, 0, 0 ..., 0, 0, 0]"] ;
546 -> 550 ;
551 [label="X[15] <= 8.0\ngini = 0.4444\nsamples = 3\nvalue = [0, 0, 0 ..., 0, 0, 0]"] ;
550 -> 551 ;
552 [label="gini = 0.0\nsamples = 1\nvalue = [0, 0, 0 ..., 0, 0, 0]"] ;
551 -> 552 ;
553 [label="gini = 0.0\nsamples = 2\nvalue = [0, 0, 0 ..., 0, 0, 0]"] ;
551 -> 553 ;
554 [label="gini = 0.0\nsamples = 1\nvalue = [0, 0, 0 ..., 0, 0, 0]"] ;
550 -> 554 ;
555 [label="gini = 0.0\nsamples = 4\nvalue = [0, 0, 0 ..., 0, 0, 0]"] ;
545 -> 555 ;
556 [label="gini = 0.0\nsamples = 6\nvalue = [0, 0, 0 ..., 0, 0, 0]"] ;
544 -> 556 ;
557 [label="gini = 0.0\nsamples = 1\nvalue = [0, 0, 1 ..., 0, 0, 0]"] ;
543 -> 557 ;
558 [label="X[15] <= 5.5\ngini = 0.765\nsamples = 14\nvalue = [0, 0, 0 ..., 0, 0, 7]"] ;
526 -> 558 ;
559 [label="gini = 0.0\nsamples = 3\nvalue = [0, 0, 0 ..., 0, 0, 7]"] ;
558 -> 559 ;
560 [label="X[1] <= 9.5\ngini = 0.7337\nsamples = 11\nvalue = [0, 0, 0 ..., 0, 0, 0]"] ;
558 -> 560 ;
561 [label="X[14] <= 6.0\ngini = 0.6875\nsamples = 7\nvalue = [0, 0, 0 ..., 0, 0, 0]"] ;
560 -> 561 ;
562 [label="X[9] <= 7.5\ngini = 0.375\nsamples = 3\nvalue = [0, 0, 0 ..., 0, 0, 0]"] ;
561 -> 562 ;
563 [label="gini = 0.0\nsamples = 2\nvalue = [0, 0, 0 ..., 0, 0, 0]"] ;
562 -> 563 ;
564 [label="gini = 0.0\nsamples = 1\nvalue = [0, 0, 0 ..., 0, 0, 0]"] ;
562 -> 564 ;
565 [label="X[0] <= 4.5\ngini = 0.375\nsamples = 4\nvalue = [0, 0, 0 ..., 0, 0, 0]"] ;
561 -> 565 ;
566 [label="gini = 0.0\nsamples = 1\nvalue = [0, 0, 0 ..., 0, 0, 0]"] ;
565 -> 566 ;
567 [label="gini = 0.0\nsamples = 3\nvalue = [0, 0, 0 ..., 0, 0, 0]"] ;
565 -> 567 ;
568 [label="gini = 0.0\nsamples = 4\nvalue = [0, 0, 0 ..., 0, 0, 0]"] ;
560 -> 568 ;
569 [label="gini = 0.0\nsamples = 7\nvalue = [0, 0, 0 ..., 0, 0, 0]"] ;
525 -> 569 ;
570 [label="X[11] <= 6.5\ngini = 0.5667\nsamples = 27\nvalue = [0, 0, 0 ..., 0, 0, 0]"] ;
524 -> 570 ;
571 [label="gini = 0.0\nsamples = 8\nvalue = [0, 0, 0 ..., 0, 0, 0]"] ;
570 -> 571 ;
572 [label="X[9] <= 11.5\ngini = 0.3138\nsamples = 19\nvalue = [0, 0, 0 ..., 0, 0, 0]"] ;
570 -> 572 ;
573 [label="X[7] <= 5.5\ngini = 0.2101\nsamples = 18\nvalue = [0, 0, 0 ..., 0, 0, 0]"] ;
572 -> 573 ;
574 [label="X[14] <= 10.0\ngini = 0.4444\nsamples = 3\nvalue = [0, 0, 0 ..., 0, 0, 0]"] ;
573 -> 574 ;
575 [label="gini = 0.0\nsamples = 2\nvalue = [0, 0, 0 ..., 0, 0, 0]"] ;
574 -> 575 ;
576 [label="gini = 0.0\nsamples = 1\nvalue = [0, 0, 0 ..., 0, 0, 0]"] ;
574 -> 576 ;
577 [label="gini = 0.0\nsamples = 15\nvalue = [0, 0, 0 ..., 0, 0, 0]"] ;
573 -> 577 ;
578 [label="gini = 0.0\nsamples = 1\nvalue = [0, 0, 0 ..., 0, 0, 0]"] ;
572 -> 578 ;
579 [label="X[9] <= 9.5\ngini = 0.1196\nsamples = 44\nvalue = [1, 0, 0 ..., 0, 0, 2]"] ;
523 -> 579 ;
580 [label="X[11] <= 8.5\ngini = 0.0322\nsamples = 41\nvalue = [1, 0, 0 ..., 0, 0, 0]"] ;
579 -> 580 ;
581 [label="gini = 0.0\nsamples = 1\nvalue = [1, 0, 0 ..., 0, 0, 0]"] ;
580 -> 581 ;
582 [label="gini = 0.0\nsamples = 40\nvalue = [0, 0, 0 ..., 0, 0, 0]"] ;
580 -> 582 ;
583 [label="X[2] <= 5.5\ngini = 0.4444\nsamples = 3\nvalue = [0, 0, 0 ..., 0, 0, 2]"] ;
579 -> 583 ;
584 [label="gini = 0.0\nsamples = 2\nvalue = [0, 0, 0 ..., 0, 0, 2]"] ;
583 -> 584 ;
585 [label="gini = 0.0\nsamples = 1\nvalue = [0, 0, 0 ..., 0, 0, 0]"] ;
583 -> 585 ;
586 [label="X[15] <= 10.5\ngini = 0.6731\nsamples = 60\nvalue = [0, 0, 0 ..., 0, 4, 0]"] ;
522 -> 586 ;
587 [label="X[10] <= 6.5\ngini = 0.6181\nsamples = 55\nvalue = [0, 0, 0 ..., 0, 4, 0]"] ;
586 -> 587 ;
588 [label="X[6] <= 7.0\ngini = 0.3019\nsamples = 34\nvalue = [0, 0, 0 ..., 0, 0, 0]"] ;
587 -> 588 ;
589 [label="X[15] <= 6.0\ngini = 0.4444\nsamples = 4\nvalue = [0, 0, 0 ..., 0, 0, 0]"] ;
588 -> 589 ;
590 [label="gini = 0.0\nsamples = 1\nvalue = [0, 0, 0 ..., 0, 0, 0]"] ;
589 -> 590 ;
591 [label="gini = 0.0\nsamples = 3\nvalue = [0, 0, 0 ..., 0, 0, 0]"] ;
589 -> 591 ;
592 [label="X[11] <= 8.0\ngini = 0.1213\nsamples = 30\nvalue = [0, 0, 0 ..., 0, 0, 0]"] ;
588 -> 592 ;
593 [label="X[11] <= 5.5\ngini = 0.0435\nsamples = 29\nvalue = [0, 0, 0 ..., 0, 0, 0]"] ;
592 -> 593 ;
594 [label="gini = 0.0\nsamples = 25\nvalue = [0, 0, 0 ..., 0, 0, 0]"] ;
593 -> 594 ;
595 [label="X[14] <= 8.0\ngini = 0.32\nsamples = 4\nvalue = [0, 0, 0 ..., 0, 0, 0]"] ;
593 -> 595 ;
596 [label="gini = 0.0\nsamples = 3\nvalue = [0, 0, 0 ..., 0, 0, 0]"] ;
595 -> 596 ;
597 [label="gini = 0.0\nsamples = 1\nvalue = [0, 0, 0 ..., 0, 0, 0]"] ;
595 -> 597 ;
598 [label="gini = 0.0\nsamples = 1\nvalue = [0, 0, 0 ..., 0, 0, 0]"] ;
592 -> 598 ;
599 [label="X[4] <= 3.5\ngini = 0.8242\nsamples = 21\nvalue = [0, 0, 0 ..., 0, 4, 0]"] ;
587 -> 599 ;
600 [label="X[11] <= 6.5\ngini = 0.625\nsamples = 9\nvalue = [0, 0, 0 ..., 0, 0, 0]"] ;
599 -> 600 ;
601 [label="gini = 0.0\nsamples = 4\nvalue = [0, 0, 0 ..., 0, 0, 0]"] ;
600 -> 601 ;
602 [label="X[0] <= 5.5\ngini = 0.4082\nsamples = 5\nvalue = [0, 0, 0 ..., 0, 0, 0]"] ;
600 -> 602 ;
603 [label="gini = 0.0\nsamples = 1\nvalue = [0, 0, 0 ..., 0, 0, 0]"] ;
602 -> 603 ;
604 [label="X[7] <= 5.5\ngini = 0.2778\nsamples = 4\nvalue = [0, 0, 0 ..., 0, 0, 0]"] ;
602 -> 604 ;
605 [label="gini = 0.0\nsamples = 3\nvalue = [0, 0, 0 ..., 0, 0, 0]"] ;
604 -> 605 ;
606 [label="gini = 0.0\nsamples = 1\nvalue = [0, 0, 0 ..., 0, 0, 0]"] ;
604 -> 606 ;
607 [label="X[0] <= 4.5\ngini = 0.71\nsamples = 12\nvalue = [0, 0, 0 ..., 0, 4, 0]"] ;
599 -> 607 ;
608 [label="X[4] <= 4.5\ngini = 0.3457\nsamples = 4\nvalue = [0, 0, 0 ..., 0, 0, 0]"] ;
607 -> 608 ;
609 [label="gini = 0.0\nsamples = 1\nvalue = [0, 0, 0 ..., 0, 0, 0]"] ;
608 -> 609 ;
610 [label="X[7] <= 5.5\ngini = 0.5\nsamples = 3\nvalue = [0, 0, 0 ..., 0, 0, 0]"] ;
608 -> 610 ;
611 [label="gini = 0.0\nsamples = 1\nvalue = [0, 0, 0 ..., 0, 0, 0]"] ;
610 -> 611 ;
612 [label="gini = 0.0\nsamples = 2\nvalue = [0, 0, 0 ..., 0, 0, 0]"] ;
610 -> 612 ;
613 [label="X[5] <= 6.5\ngini = 0.6446\nsamples = 8\nvalue = [0, 0, 0 ..., 0, 4, 0]"] ;
607 -> 613 ;
614 [label="gini = 0.0\nsamples = 2\nvalue = [0, 0, 0 ..., 0, 4, 0]"] ;
613 -> 614 ;
615 [label="X[15] <= 5.0\ngini = 0.449\nsamples = 6\nvalue = [0, 0, 0 ..., 0, 0, 0]"] ;
613 -> 615 ;
616 [label="gini = 0.0\nsamples = 1\nvalue = [0, 0, 0 ..., 0, 0, 0]"] ;
615 -> 616 ;
617 [label="X[6] <= 7.5\ngini = 0.2778\nsamples = 5\nvalue = [0, 0, 0 ..., 0, 0, 0]"] ;
615 -> 617 ;
618 [label="gini = 0.0\nsamples = 1\nvalue = [0, 0, 0 ..., 0, 0, 0]"] ;
617 -> 618 ;
619 [label="gini = 0.0\nsamples = 4\nvalue = [0, 0, 0 ..., 0, 0, 0]"] ;
617 -> 619 ;
620 [label="X[1] <= 7.5\ngini = 0.5938\nsamples = 5\nvalue = [0, 0, 0 ..., 0, 0, 0]"] ;
586 -> 620 ;
621 [label="X[6] <= 8.0\ngini = 0.375\nsamples = 3\nvalue = [0, 0, 0 ..., 0, 0, 0]"] ;
620 -> 621 ;
622 [label="gini = 0.0\nsamples = 1\nvalue = [0, 0, 0 ..., 0, 0, 0]"] ;
621 -> 622 ;
623 [label="gini = 0.0\nsamples = 2\nvalue = [0, 0, 0 ..., 0, 0, 0]"] ;
621 -> 623 ;
624 [label="gini = 0.0\nsamples = 2\nvalue = [0, 0, 0 ..., 0, 0, 0]"] ;
620 -> 624 ;
625 [label="X[5] <= 6.5\ngini = 0.9159\nsamples = 893\nvalue = [44, 22, 33 ..., 184, 52, 35]"] ;
211 -> 625 ;
626 [label="X[10] <= 5.5\ngini = 0.8478\nsamples = 202\nvalue = [1, 1, 26 ..., 4, 15, 0]"] ;
625 -> 626 ;
627 [label="X[7] <= 6.5\ngini = 0.4091\nsamples = 82\nvalue = [0, 1, 0 ..., 0, 0, 0]"] ;
626 -> 627 ;
628 [label="X[12] <= 3.5\ngini = 0.7917\nsamples = 19\nvalue = [0, 0, 0 ..., 0, 0, 0]"] ;
627 -> 628 ;
629 [label="X[13] <= 9.0\ngini = 0.7901\nsamples = 6\nvalue = [0, 0, 0 ..., 0, 0, 0]"] ;
628 -> 629 ;
630 [label="X[14] <= 4.0\ngini = 0.7347\nsamples = 5\nvalue = [0, 0, 0 ..., 0, 0, 0]"] ;
629 -> 630 ;
631 [label="gini = 0.0\nsamples = 1\nvalue = [0, 0, 0 ..., 0, 0, 0]"] ;
630 -> 631 ;
632 [label="X[4] <= 3.5\ngini = 0.64\nsamples = 4\nvalue = [0, 0, 0 ..., 0, 0, 0]"] ;
630 -> 632 ;
633 [label="X[14] <= 6.0\ngini = 0.4444\nsamples = 2\nvalue = [0, 0, 0 ..., 0, 0, 0]"] ;
632 -> 633 ;
634 [label="gini = 0.0\nsamples = 1\nvalue = [0, 0, 0 ..., 0, 0, 0]"] ;
633 -> 634 ;
635 [label="gini = 0.0\nsamples = 1\nvalue = [0, 0, 0 ..., 0, 0, 0]"] ;
633 -> 635 ;
636 [label="gini = 0.0\nsamples = 2\nvalue = [0, 0, 0 ..., 0, 0, 0]"] ;
632 -> 636 ;
637 [label="gini = 0.0\nsamples = 1\nvalue = [0, 0, 0 ..., 0, 0, 0]"] ;
629 -> 637 ;
638 [label="X[1] <= 9.5\ngini = 0.56\nsamples = 13\nvalue = [0, 0, 0 ..., 0, 0, 0]"] ;
628 -> 638 ;
639 [label="X[15] <= 6.0\ngini = 0.18\nsamples = 9\nvalue = [0, 0, 0 ..., 0, 0, 0]"] ;
638 -> 639 ;
640 [label="gini = 0.0\nsamples = 1\nvalue = [0, 0, 0 ..., 0, 0, 0]"] ;
639 -> 640 ;
641 [label="gini = 0.0\nsamples = 8\nvalue = [0, 0, 0 ..., 0, 0, 0]"] ;
639 -> 641 ;
642 [label="X[2] <= 6.0\ngini = 0.32\nsamples = 4\nvalue = [0, 0, 0 ..., 0, 0, 0]"] ;
638 -> 642 ;
643 [label="gini = 0.0\nsamples = 2\nvalue = [0, 0, 0 ..., 0, 0, 0]"] ;
642 -> 643 ;
644 [label="X[6] <= 10.0\ngini = 0.5\nsamples = 2\nvalue = [0, 0, 0 ..., 0, 0, 0]"] ;
642 -> 644 ;
645 [label="gini = 0.0\nsamples = 1\nvalue = [0, 0, 0 ..., 0, 0, 0]"] ;
644 -> 645 ;
646 [label="gini = 0.0\nsamples = 1\nvalue = [0, 0, 0 ..., 0, 0, 0]"] ;
644 -> 646 ;
647 [label="X[12] <= 3.5\ngini = 0.174\nsamples = 63\nvalue = [0, 1, 0 ..., 0, 0, 0]"] ;
627 -> 647 ;
648 [label="X[15] <= 10.5\ngini = 0.1446\nsamples = 62\nvalue = [0, 1, 0 ..., 0, 0, 0]"] ;
647 -> 648 ;
649 [label="X[4] <= 4.5\ngini = 0.4467\nsamples = 16\nvalue = [0, 1, 0 ..., 0, 0, 0]"] ;
648 -> 649 ;
650 [label="X[12] <= 2.5\ngini = 0.0997\nsamples = 13\nvalue = [0, 1, 0 ..., 0, 0, 0]"] ;
649 -> 650 ;
651 [label="X[3] <= 4.5\ngini = 0.2188\nsamples = 6\nvalue = [0, 1, 0 ..., 0, 0, 0]"] ;
650 -> 651 ;
652 [label="X[13] <= 7.5\ngini = 0.375\nsamples = 2\nvalue = [0, 1, 0 ..., 0, 0, 0]"] ;
651 -> 652 ;
653 [label="gini = 0.0\nsamples = 1\nvalue = [0, 0, 0 ..., 0, 0, 0]"] ;
652 -> 653 ;
654 [label="gini = 0.0\nsamples = 1\nvalue = [0, 1, 0 ..., 0, 0, 0]"] ;
652 -> 654 ;
655 [label="gini = 0.0\nsamples = 4\nvalue = [0, 0, 0 ..., 0, 0, 0]"] ;
651 -> 655 ;
656 [label="gini = 0.0\nsamples = 7\nvalue = [0, 0, 0 ..., 0, 0, 0]"] ;
650 -> 656 ;
657 [label="gini = 0.0\nsamples = 3\nvalue = [0, 0, 0 ..., 0, 0, 0]"] ;
649 -> 657 ;
658 [label="gini = 0.0\nsamples = 46\nvalue = [0, 0, 0 ..., 0, 0, 0]"] ;
648 -> 658 ;
659 [label="gini = 0.0\nsamples = 1\nvalue = [0, 0, 0 ..., 0, 0, 0]"] ;
647 -> 659 ;
660 [label="X[11] <= 10.5\ngini = 0.8951\nsamples = 120\nvalue = [1, 0, 26 ..., 4, 15, 0]"] ;
626 -> 660 ;
661 [label="X[15] <= 5.5\ngini = 0.8924\nsamples = 105\nvalue = [1, 0, 9 ..., 4, 15, 0]"] ;
660 -> 661 ;
662 [label="X[6] <= 9.0\ngini = 0.568\nsamples = 13\nvalue = [0, 0, 0 ..., 0, 13, 0]"] ;
661 -> 662 ;
663 [label="gini = 0.0\nsamples = 7\nvalue = [0, 0, 0 ..., 0, 13, 0]"] ;
662 -> 663 ;
664 [label="X[13] <= 11.0\ngini = 0.2722\nsamples = 6\nvalue = [0, 0, 0 ..., 0, 0, 0]"] ;
662 -> 664 ;
665 [label="X[2] <= 7.5\ngini = 0.1528\nsamples = 5\nvalue = [0, 0, 0 ..., 0, 0, 0]"] ;
664 -> 665 ;
666 [label="gini = 0.0\nsamples = 4\nvalue = [0, 0, 0 ..., 0, 0, 0]"] ;
665 -> 666 ;
667 [label="gini = 0.0\nsamples = 1\nvalue = [0, 0, 0 ..., 0, 0, 0]"] ;
665 -> 667 ;
668 [label="gini = 0.0\nsamples = 1\nvalue = [0, 0, 0 ..., 0, 0, 0]"] ;
664 -> 668 ;
669 [label="X[1] <= 4.5\ngini = 0.8838\nsamples = 92\nvalue = [1, 0, 9 ..., 4, 2, 0]"] ;
661 -> 669 ;
670 [label="X[15] <= 8.0\ngini = 0.18\nsamples = 8\nvalue = [0, 0, 0 ..., 0, 0, 0]"] ;
669 -> 670 ;
671 [label="gini = 0.0\nsamples = 1\nvalue = [0, 0, 0 ..., 0, 0, 0]"] ;
670 -> 671 ;
672 [label="gini = 0.0\nsamples = 7\nvalue = [0, 0, 0 ..., 0, 0, 0]"] ;
670 -> 672 ;
673 [label="X[6] <= 8.5\ngini = 0.8793\nsamples = 84\nvalue = [1, 0, 9 ..., 4, 2, 0]"] ;
669 -> 673 ;
674 [label="X[13] <= 10.5\ngini = 0.865\nsamples = 49\nvalue = [1, 0, 9 ..., 4, 2, 0]"] ;
673 -> 674 ;
675 [label="X[14] <= 5.5\ngini = 0.8531\nsamples = 46\nvalue = [1, 0, 9 ..., 4, 2, 0]"] ;
674 -> 675 ;
676 [label="X[1] <= 11.5\ngini = 0.7238\nsamples = 26\nvalue = [1, 0, 2 ..., 0, 2, 0]"] ;
675 -> 676 ;
677 [label="X[2] <= 6.5\ngini = 0.832\nsamples = 19\nvalue = [1, 0, 2 ..., 0, 2, 0]"] ;
676 -> 677 ;
678 [label="X[0] <= 4.5\ngini = 0.7654\nsamples = 15\nvalue = [1, 0, 2 ..., 0, 0, 0]"] ;
677 -> 678 ;
679 [label="X[9] <= 9.5\ngini = 0.6942\nsamples = 10\nvalue = [1, 0, 1 ..., 0, 0, 0]"] ;
678 -> 679 ;
680 [label="X[10] <= 6.5\ngini = 0.642\nsamples = 9\nvalue = [1, 0, 1 ..., 0, 0, 0]"] ;
679 -> 680 ;
681 [label="X[7] <= 6.0\ngini = 0.72\nsamples = 5\nvalue = [0, 0, 1 ..., 0, 0, 0]"] ;
680 -> 681 ;
682 [label="X[9] <= 6.5\ngini = 0.4444\nsamples = 3\nvalue = [0, 0, 1 ..., 0, 0, 0]"] ;
681 -> 682 ;
683 [label="gini = 0.0\nsamples = 2\nvalue = [0, 0, 0 ..., 0, 0, 0]"] ;
682 -> 683 ;
684 [label="gini = 0.0\nsamples = 1\nvalue = [0, 0, 1 ..., 0, 0, 0]"] ;
682 -> 684 ;
685 [label="X[11] <= 9.0\ngini = 0.5\nsamples = 2\nvalue = [0, 0, 0 ..., 0, 0, 0]"] ;
681 -> 685 ;
686 [label="gini = 0.0\nsamples = 1\nvalue = [0, 0, 0 ..., 0, 0, 0]"] ;
685 -> 686 ;
687 [label="gini = 0.0\nsamples = 1\nvalue = [0, 0, 0 ..., 0, 0, 0]"] ;
685 -> 687 ;
688 [label="X[12] <= 4.0\ngini = 0.375\nsamples = 4\nvalue = [1, 0, 0 ..., 0, 0, 0]"] ;
680 -> 688 ;
689 [label="gini = 0.0\nsamples = 3\nvalue = [0, 0, 0 ..., 0, 0, 0]"] ;
688 -> 689 ;
690 [label="gini = 0.0\nsamples = 1\nvalue = [1, 0, 0 ..., 0, 0, 0]"] ;
688 -> 690 ;
691 [label="gini = 0.0\nsamples = 1\nvalue = [0, 0, 0 ..., 0, 0, 0]"] ;
679 -> 691 ;
692 [label="X[7] <= 5.5\ngini = 0.6122\nsamples = 5\nvalue = [0, 0, 1 ..., 0, 0, 0]"] ;
678 -> 692 ;
693 [label="X[5] <= 5.5\ngini = 0.375\nsamples = 3\nvalue = [0, 0, 1 ..., 0, 0, 0]"] ;
692 -> 693 ;
694 [label="gini = 0.0\nsamples = 1\nvalue = [0, 0, 1 ..., 0, 0, 0]"] ;
693 -> 694 ;
695 [label="gini = 0.0\nsamples = 2\nvalue = [0, 0, 0 ..., 0, 0, 0]"] ;
693 -> 695 ;
696 [label="gini = 0.0\nsamples = 2\nvalue = [0, 0, 0 ..., 0, 0, 0]"] ;
692 -> 696 ;
697 [label="X[11] <= 8.0\ngini = 0.4082\nsamples = 4\nvalue = [0, 0, 0 ..., 0, 2, 0]"] ;
677 -> 697 ;
698 [label="gini = 0.0\nsamples = 1\nvalue = [0, 0, 0 ..., 0, 2, 0]"] ;
697 -> 698 ;
699 [label="gini = 0.0\nsamples = 3\nvalue = [0, 0, 0 ..., 0, 0, 0]"] ;
697 -> 699 ;
700 [label="gini = 0.0\nsamples = 7\nvalue = [0, 0, 0 ..., 0, 0, 0]"] ;
676 -> 700 ;
701 [label="X[13] <= 7.5\ngini = 0.7178\nsamples = 20\nvalue = [0, 0, 7 ..., 4, 0, 0]"] ;
675 -> 701 ;
702 [label="X[2] <= 4.5\ngini = 0.48\nsamples = 4\nvalue = [0, 0, 0 ..., 2, 0, 0]"] ;
701 -> 702 ;
703 [label="gini = 0.0\nsamples = 1\nvalue = [0, 0, 0 ..., 2, 0, 0]"] ;
702 -> 703 ;
704 [label="gini = 0.0\nsamples = 3\nvalue = [0, 0, 0 ..., 0, 0, 0]"] ;
702 -> 704 ;
705 [label="X[10] <= 7.5\ngini = 0.6368\nsamples = 16\nvalue = [0, 0, 7 ..., 2, 0, 0]"] ;
701 -> 705 ;
706 [label="X[11] <= 9.5\ngini = 0.576\nsamples = 14\nvalue = [0, 0, 3 ..., 2, 0, 0]"] ;
705 -> 706 ;
707 [label="X[15] <= 8.5\ngini = 0.3281\nsamples = 11\nvalue = [0, 0, 0 ..., 1, 0, 0]"] ;
706 -> 707 ;
708 [label="gini = 0.0\nsamples = 1\nvalue = [0, 0, 0 ..., 1, 0, 0]"] ;
707 -> 708 ;
709 [label="X[9] <= 6.5\ngini = 0.24\nsamples = 10\nvalue = [0, 0, 0 ..., 0, 0, 0]"] ;
707 -> 709 ;
710 [label="gini = 0.0\nsamples = 1\nvalue = [0, 0, 0 ..., 0, 0, 0]"] ;
709 -> 710 ;
711 [label="X[6] <= 7.5\ngini = 0.1327\nsamples = 9\nvalue = [0, 0, 0 ..., 0, 0, 0]"] ;
709 -> 711 ;
712 [label="gini = 0.0\nsamples = 7\nvalue = [0, 0, 0 ..., 0, 0, 0]"] ;
711 -> 712 ;
713 [label="X[13] <= 9.5\ngini = 0.5\nsamples = 2\nvalue = [0, 0, 0 ..., 0, 0, 0]"] ;
711 -> 713 ;
714 [label="gini = 0.0\nsamples = 1\nvalue = [0, 0, 0 ..., 0, 0, 0]"] ;
713 -> 714 ;
715 [label="gini = 0.0\nsamples = 1\nvalue = [0, 0, 0 ..., 0, 0, 0]"] ;
713 -> 715 ;
716 [label="X[1] <= 8.0\ngini = 0.56\nsamples = 3\nvalue = [0, 0, 3 ..., 1, 0, 0]"] ;
706 -> 716 ;
717 [label="X[12] <= 3.5\ngini = 0.5\nsamples = 2\nvalue = [0, 0, 0 ..., 1, 0, 0]"] ;
716 -> 717 ;
718 [label="gini = 0.0\nsamples = 1\nvalue = [0, 0, 0 ..., 1, 0, 0]"] ;
717 -> 718 ;
719 [label="gini = 0.0\nsamples = 1\nvalue = [0, 0, 0 ..., 0, 0, 0]"] ;
717 -> 719 ;
720 [label="gini = 0.0\nsamples = 1\nvalue = [0, 0, 3 ..., 0, 0, 0]"] ;
716 -> 720 ;
721 [label="gini = 0.0\nsamples = 2\nvalue = [0, 0, 4 ..., 0, 0, 0]"] ;
705 -> 721 ;
722 [label="gini = 0.0\nsamples = 3\nvalue = [0, 0, 0 ..., 0, 0, 0]"] ;
674 -> 722 ;
723 [label="X[14] <= 5.5\ngini = 0.796\nsamples = 35\nvalue = [0, 0, 0 ..., 0, 0, 0]"] ;
673 -> 723 ;
724 [label="X[13] <= 8.5\ngini = 0.7257\nsamples = 19\nvalue = [0, 0, 0 ..., 0, 0, 0]"] ;
723 -> 724 ;
725 [label="X[1] <= 7.5\ngini = 0.2778\nsamples = 3\nvalue = [0, 0, 0 ..., 0, 0, 0]"] ;
724 -> 725 ;
726 [label="gini = 0.0\nsamples = 1\nvalue = [0, 0, 0 ..., 0, 0, 0]"] ;
725 -> 726 ;
727 [label="gini = 0.0\nsamples = 2\nvalue = [0, 0, 0 ..., 0, 0, 0]"] ;
725 -> 727 ;
728 [label="X[6] <= 9.5\ngini = 0.6111\nsamples = 16\nvalue = [0, 0, 0 ..., 0, 0, 0]"] ;
724 -> 728 ;
729 [label="X[14] <= 3.5\ngini = 0.6111\nsamples = 5\nvalue = [0, 0, 0 ..., 0, 0, 0]"] ;
728 -> 729 ;
730 [label="X[11] <= 6.0\ngini = 0.4444\nsamples = 3\nvalue = [0, 0, 0 ..., 0, 0, 0]"] ;
729 -> 730 ;
731 [label="gini = 0.0\nsamples = 2\nvalue = [0, 0, 0 ..., 0, 0, 0]"] ;
730 -> 731 ;
732 [label="gini = 0.0\nsamples = 1\nvalue = [0, 0, 0 ..., 0, 0, 0]"] ;
730 -> 732 ;
733 [label="gini = 0.0\nsamples = 2\nvalue = [0, 0, 0 ..., 0, 0, 0]"] ;
729 -> 733 ;
734 [label="X[2] <= 7.5\ngini = 0.2778\nsamples = 11\nvalue = [0, 0, 0 ..., 0, 0, 0]"] ;
728 -> 734 ;
735 [label="X[14] <= 3.5\ngini = 0.1653\nsamples = 10\nvalue = [0, 0, 0 ..., 0, 0, 0]"] ;
734 -> 735 ;
736 [label="X[10] <= 7.5\ngini = 0.5\nsamples = 2\nvalue = [0, 0, 0 ..., 0, 0, 0]"] ;
735 -> 736 ;
737 [label="gini = 0.0\nsamples = 1\nvalue = [0, 0, 0 ..., 0, 0, 0]"] ;
736 -> 737 ;
738 [label="gini = 0.0\nsamples = 1\nvalue = [0, 0, 0 ..., 0, 0, 0]"] ;
736 -> 738 ;
739 [label="gini = 0.0\nsamples = 8\nvalue = [0, 0, 0 ..., 0, 0, 0]"] ;
735 -> 739 ;
740 [label="gini = 0.0\nsamples = 1\nvalue = [0, 0, 0 ..., 0, 0, 0]"] ;
734 -> 740 ;
741 [label="X[5] <= 5.5\ngini = 0.5972\nsamples = 16\nvalue = [0, 0, 0 ..., 0, 0, 0]"] ;
723 -> 741 ;
742 [label="X[3] <= 7.5\ngini = 0.6111\nsamples = 4\nvalue = [0, 0, 0 ..., 0, 0, 0]"] ;
741 -> 742 ;
743 [label="gini = 0.0\nsamples = 2\nvalue = [0, 0, 0 ..., 0, 0, 0]"] ;
742 -> 743 ;
744 [label="X[11] <= 8.5\ngini = 0.4444\nsamples = 2\nvalue = [0, 0, 0 ..., 0, 0, 0]"] ;
742 -> 744 ;
745 [label="gini = 0.0\nsamples = 1\nvalue = [0, 0, 0 ..., 0, 0, 0]"] ;
744 -> 745 ;
746 [label="gini = 0.0\nsamples = 1\nvalue = [0, 0, 0 ..., 0, 0, 0]"] ;
744 -> 746 ;
747 [label="X[4] <= 3.5\ngini = 0.3642\nsamples = 12\nvalue = [0, 0, 0 ..., 0, 0, 0]"] ;
741 -> 747 ;
748 [label="gini = 0.0\nsamples = 1\nvalue = [0, 0, 0 ..., 0, 0, 0]"] ;
747 -> 748 ;
749 [label="X[11] <= 8.5\ngini = 0.2266\nsamples = 11\nvalue = [0, 0, 0 ..., 0, 0, 0]"] ;
747 -> 749 ;
750 [label="gini = 0.0\nsamples = 9\nvalue = [0, 0, 0 ..., 0, 0, 0]"] ;
749 -> 750 ;
751 [label="X[4] <= 6.5\ngini = 0.5\nsamples = 2\nvalue = [0, 0, 0 ..., 0, 0, 0]"] ;
749 -> 751 ;
752 [label="gini = 0.0\nsamples = 1\nvalue = [0, 0, 0 ..., 0, 0, 0]"] ;
751 -> 752 ;
753 [label="gini = 0.0\nsamples = 1\nvalue = [0, 0, 0 ..., 0, 0, 0]"] ;
751 -> 753 ;
754 [label="X[7] <= 4.5\ngini = 0.3311\nsamples = 15\nvalue = [0, 0, 17 ..., 0, 0, 0]"] ;
660 -> 754 ;
755 [label="X[6] <= 8.5\ngini = 0.1049\nsamples = 12\nvalue = [0, 0, 17 ..., 0, 0, 0]"] ;
754 -> 755 ;
756 [label="gini = 0.0\nsamples = 11\nvalue = [0, 0, 17 ..., 0, 0, 0]"] ;
755 -> 756 ;
757 [label="gini = 0.0\nsamples = 1\nvalue = [0, 0, 0 ..., 0, 0, 0]"] ;
755 -> 757 ;
758 [label="X[6] <= 6.5\ngini = 0.4444\nsamples = 3\nvalue = [0, 0, 0 ..., 0, 0, 0]"] ;
754 -> 758 ;
759 [label="gini = 0.0\nsamples = 2\nvalue = [0, 0, 0 ..., 0, 0, 0]"] ;
758 -> 759 ;
760 [label="gini = 0.0\nsamples = 1\nvalue = [0, 0, 0 ..., 0, 0, 0]"] ;
758 -> 760 ;
761 [label="X[15] <= 6.5\ngini = 0.8984\nsamples = 691\nvalue = [43, 21, 7 ..., 180, 37, 35]"] ;
625 -> 761 ;
762 [label="X[3] <= 3.5\ngini = 0.8892\nsamples = 122\nvalue = [41, 4, 0 ..., 0, 35, 17]"] ;
761 -> 762 ;
763 [label="gini = 0.0\nsamples = 8\nvalue = [0, 0, 0 ..., 0, 0, 0]"] ;
762 -> 763 ;
764 [label="X[10] <= 6.5\ngini = 0.8846\nsamples = 114\nvalue = [41, 4, 0 ..., 0, 35, 17]"] ;
762 -> 764 ;
765 [label="X[11] <= 7.5\ngini = 0.8792\nsamples = 74\nvalue = [28, 4, 0 ..., 0, 0, 17]"] ;
764 -> 765 ;
766 [label="X[11] <= 4.5\ngini = 0.8444\nsamples = 48\nvalue = [1, 4, 0 ..., 0, 0, 15]"] ;
765 -> 766 ;
767 [label="gini = 0.0\nsamples = 6\nvalue = [0, 0, 0 ..., 0, 0, 0]"] ;
766 -> 767 ;
768 [label="X[5] <= 8.5\ngini = 0.8164\nsamples = 42\nvalue = [1, 4, 0 ..., 0, 0, 15]"] ;
766 -> 768 ;
769 [label="X[9] <= 8.0\ngini = 0.7041\nsamples = 11\nvalue = [1, 4, 0 ..., 0, 0, 0]"] ;
768 -> 769 ;
770 [label="X[7] <= 5.5\ngini = 0.6562\nsamples = 7\nvalue = [1, 4, 0 ..., 0, 0, 0]"] ;
769 -> 770 ;
771 [label="X[12] <= 4.0\ngini = 0.625\nsamples = 4\nvalue = [1, 0, 0 ..., 0, 0, 0]"] ;
770 -> 771 ;
772 [label="X[2] <= 5.0\ngini = 0.5\nsamples = 2\nvalue = [1, 0, 0 ..., 0, 0, 0]"] ;
771 -> 772 ;
773 [label="gini = 0.0\nsamples = 1\nvalue = [0, 0, 0 ..., 0, 0, 0]"] ;
772 -> 773 ;
774 [label="gini = 0.0\nsamples = 1\nvalue = [1, 0, 0 ..., 0, 0, 0]"] ;
772 -> 774 ;
775 [label="gini = 0.0\nsamples = 2\nvalue = [0, 0, 0 ..., 0, 0, 0]"] ;
771 -> 775 ;
776 [label="gini = 0.0\nsamples = 3\nvalue = [0, 4, 0 ..., 0, 0, 0]"] ;
770 -> 776 ;
777 [label="gini = 0.0\nsamples = 4\nvalue = [0, 0, 0 ..., 0, 0, 0]"] ;
769 -> 777 ;
778 [label="X[14] <= 6.5\ngini = 0.7312\nsamples = 31\nvalue = [0, 0, 0 ..., 0, 0, 15]"] ;
768 -> 778 ;
779 [label="X[14] <= 5.5\ngini = 0.4768\nsamples = 15\nvalue = [0, 0, 0 ..., 0, 0, 0]"] ;
778 -> 779 ;
780 [label="X[5] <= 9.5\ngini = 0.54\nsamples = 7\nvalue = [0, 0, 0 ..., 0, 0, 0]"] ;
779 -> 780 ;
781 [label="X[11] <= 5.5\ngini = 0.375\nsamples = 5\nvalue = [0, 0, 0 ..., 0, 0, 0]"] ;
780 -> 781 ;
782 [label="gini = 0.0\nsamples = 3\nvalue = [0, 0, 0 ..., 0, 0, 0]"] ;
781 -> 782 ;
783 [label="gini = 0.0\nsamples = 2\nvalue = [0, 0, 0 ..., 0, 0, 0]"] ;
781 -> 783 ;
784 [label="X[3] <= 4.5\ngini = 0.5\nsamples = 2\nvalue = [0, 0, 0 ..., 0, 0, 0]"] ;
780 -> 784 ;
785 [label="gini = 0.0\nsamples = 1\nvalue = [0, 0, 0 ..., 0, 0, 0]"] ;
784 -> 785 ;
786 [label="gini = 0.0\nsamples = 1\nvalue = [0, 0, 0 ..., 0, 0, 0]"] ;
784 -> 786 ;
787 [label="X[1] <= 6.5\ngini = 0.1244\nsamples = 8\nvalue = [0, 0, 0 ..., 0, 0, 0]"] ;
779 -> 787 ;
788 [label="gini = 0.0\nsamples = 1\nvalue = [0, 0, 0 ..., 0, 0, 0]"] ;
787 -> 788 ;
789 [label="gini = 0.0\nsamples = 7\nvalue = [0, 0, 0 ..., 0, 0, 0]"] ;
787 -> 789 ;
790 [label="X[4] <= 6.5\ngini = 0.48\nsamples = 16\nvalue = [0, 0, 0 ..., 0, 0, 15]"] ;
778 -> 790 ;
791 [label="X[7] <= 4.5\ngini = 0.2311\nsamples = 11\nvalue = [0, 0, 0 ..., 0, 0, 13]"] ;
790 -> 791 ;
792 [label="X[4] <= 5.0\ngini = 0.4444\nsamples = 3\nvalue = [0, 0, 0 ..., 0, 0, 1]"] ;
791 -> 792 ;
793 [label="gini = 0.0\nsamples = 1\nvalue = [0, 0, 0 ..., 0, 0, 1]"] ;
792 -> 793 ;
794 [label="gini = 0.0\nsamples = 2\nvalue = [0, 0, 0 ..., 0, 0, 0]"] ;
792 -> 794 ;
795 [label="gini = 0.0\nsamples = 8\nvalue = [0, 0, 0 ..., 0, 0, 12]"] ;
791 -> 795 ;
796 [label="X[10] <= 5.5\ngini = 0.32\nsamples = 5\nvalue = [0, 0, 0 ..., 0, 0, 2]"] ;
790 -> 796 ;
797 [label="gini = 0.0\nsamples = 1\nvalue = [0, 0, 0 ..., 0, 0, 2]"] ;
796 -> 797 ;
798 [label="gini = 0.0\nsamples = 4\nvalue = [0, 0, 0 ..., 0, 0, 0]"] ;
796 -> 798 ;
799 [label="X[13] <= 8.5\ngini = 0.6528\nsamples = 26\nvalue = [27, 0, 0 ..., 0, 0, 2]"] ;
765 -> 799 ;
800 [label="X[14] <= 5.5\ngini = 0.4588\nsamples = 19\nvalue = [25, 0, 0 ..., 0, 0, 0]"] ;
799 -> 800 ;
801 [label="gini = 0.0\nsamples = 4\nvalue = [0, 0, 0 ..., 0, 0, 0]"] ;
800 -> 801 ;
802 [label="X[1] <= 5.5\ngini = 0.2911\nsamples = 15\nvalue = [25, 0, 0 ..., 0, 0, 0]"] ;
800 -> 802 ;
803 [label="gini = 0.0\nsamples = 1\nvalue = [0, 0, 0 ..., 0, 0, 0]"] ;
802 -> 803 ;
804 [label="X[3] <= 10.0\ngini = 0.1913\nsamples = 14\nvalue = [25, 0, 0 ..., 0, 0, 0]"] ;
802 -> 804 ;
805 [label="gini = 0.0\nsamples = 13\nvalue = [25, 0, 0 ..., 0, 0, 0]"] ;
804 -> 805 ;
806 [label="gini = 0.0\nsamples = 1\nvalue = [0, 0, 0 ..., 0, 0, 0]"] ;
804 -> 806 ;
807 [label="X[3] <= 8.5\ngini = 0.6933\nsamples = 7\nvalue = [2, 0, 0 ..., 0, 0, 2]"] ;
799 -> 807 ;
808 [label="X[10] <= 5.5\ngini = 0.5926\nsamples = 5\nvalue = [2, 0, 0 ..., 0, 0, 2]"] ;
807 -> 808 ;
809 [label="gini = 0.0\nsamples = 1\nvalue = [0, 0, 0 ..., 0, 0, 2]"] ;
808 -> 809 ;
810 [label="X[4] <= 5.5\ngini = 0.4082\nsamples = 4\nvalue = [2, 0, 0 ..., 0, 0, 0]"] ;
808 -> 810 ;
811 [label="X[4] <= 4.5\ngini = 0.2778\nsamples = 3\nvalue = [1, 0, 0 ..., 0, 0, 0]"] ;
810 -> 811 ;
812 [label="gini = 0.0\nsamples = 1\nvalue = [0, 0, 0 ..., 0, 0, 0]"] ;
811 -> 812 ;
813 [label="X[9] <= 6.5\ngini = 0.32\nsamples = 2\nvalue = [1, 0, 0 ..., 0, 0, 0]"] ;
811 -> 813 ;
814 [label="gini = 0.0\nsamples = 1\nvalue = [0, 0, 0 ..., 0, 0, 0]"] ;
813 -> 814 ;
815 [label="gini = 0.0\nsamples = 1\nvalue = [1, 0, 0 ..., 0, 0, 0]"] ;
813 -> 815 ;
816 [label="gini = 0.0\nsamples = 1\nvalue = [1, 0, 0 ..., 0, 0, 0]"] ;
810 -> 816 ;
817 [label="gini = 0.0\nsamples = 2\nvalue = [0, 0, 0 ..., 0, 0, 0]"] ;
807 -> 817 ;
818 [label="X[1] <= 3.0\ngini = 0.6804\nsamples = 40\nvalue = [13, 0, 0 ..., 0, 35, 0]"] ;
764 -> 818 ;
819 [label="gini = 0.0\nsamples = 2\nvalue = [0, 0, 0 ..., 0, 0, 0]"] ;
818 -> 819 ;
820 [label="X[13] <= 8.5\ngini = 0.616\nsamples = 38\nvalue = [13, 0, 0 ..., 0, 35, 0]"] ;
818 -> 820 ;
821 [label="X[7] <= 3.5\ngini = 0.6735\nsamples = 10\nvalue = [7, 0, 0 ..., 0, 3, 0]"] ;
820 -> 821 ;
822 [label="X[12] <= 3.5\ngini = 0.2188\nsamples = 6\nvalue = [7, 0, 0 ..., 0, 0, 0]"] ;
821 -> 822 ;
823 [label="gini = 0.0\nsamples = 1\nvalue = [0, 0, 0 ..., 0, 0, 0]"] ;
822 -> 823 ;
824 [label="gini = 0.0\nsamples = 5\nvalue = [7, 0, 0 ..., 0, 0, 0]"] ;
822 -> 824 ;
825 [label="X[5] <= 8.5\ngini = 0.6111\nsamples = 4\nvalue = [0, 0, 0 ..., 0, 3, 0]"] ;
821 -> 825 ;
826 [label="X[1] <= 6.0\ngini = 0.4444\nsamples = 2\nvalue = [0, 0, 0 ..., 0, 0, 0]"] ;
825 -> 826 ;
827 [label="gini = 0.0\nsamples = 1\nvalue = [0, 0, 0 ..., 0, 0, 0]"] ;
826 -> 827 ;
828 [label="gini = 0.0\nsamples = 1\nvalue = [0, 0, 0 ..., 0, 0, 0]"] ;
826 -> 828 ;
829 [label="gini = 0.0\nsamples = 2\nvalue = [0, 0, 0 ..., 0, 3, 0]"] ;
825 -> 829 ;
830 [label="X[1] <= 10.5\ngini = 0.507\nsamples = 28\nvalue = [6, 0, 0 ..., 0, 32, 0]"] ;
820 -> 830 ;
831 [label="X[13] <= 9.5\ngini = 0.4438\nsamples = 24\nvalue = [6, 0, 0 ..., 0, 29, 0]"] ;
830 -> 831 ;
832 [label="X[0] <= 5.5\ngini = 0.7041\nsamples = 9\nvalue = [3, 0, 0 ..., 0, 6, 0]"] ;
831 -> 832 ;
833 [label="X[14] <= 5.5\ngini = 0.716\nsamples = 7\nvalue = [3, 0, 0 ..., 0, 1, 0]"] ;
832 -> 833 ;
834 [label="gini = 0.0\nsamples = 3\nvalue = [3, 0, 0 ..., 0, 0, 0]"] ;
833 -> 834 ;
835 [label="X[4] <= 6.0\ngini = 0.6111\nsamples = 4\nvalue = [0, 0, 0 ..., 0, 1, 0]"] ;
833 -> 835 ;
836 [label="X[7] <= 4.5\ngini = 0.4444\nsamples = 2\nvalue = [0, 0, 0 ..., 0, 1, 0]"] ;
835 -> 836 ;
837 [label="gini = 0.0\nsamples = 1\nvalue = [0, 0, 0 ..., 0, 0, 0]"] ;
836 -> 837 ;
838 [label="gini = 0.0\nsamples = 1\nvalue = [0, 0, 0 ..., 0, 1, 0]"] ;
836 -> 838 ;
839 [label="gini = 0.0\nsamples = 2\nvalue = [0, 0, 0 ..., 0, 0, 0]"] ;
835 -> 839 ;
840 [label="gini = 0.0\nsamples = 2\nvalue = [0, 0, 0 ..., 0, 5, 0]"] ;
832 -> 840 ;
841 [label="X[15] <= 5.5\ngini = 0.2041\nsamples = 15\nvalue = [3, 0, 0 ..., 0, 23, 0]"] ;
831 -> 841 ;
842 [label="X[6] <= 8.5\ngini = 0.0799\nsamples = 13\nvalue = [1, 0, 0 ..., 0, 23, 0]"] ;
841 -> 842 ;
843 [label="X[9] <= 7.5\ngini = 0.2449\nsamples = 5\nvalue = [1, 0, 0 ..., 0, 6, 0]"] ;
842 -> 843 ;
844 [label="gini = 0.0\nsamples = 1\nvalue = [1, 0, 0 ..., 0, 0, 0]"] ;
843 -> 844 ;
845 [label="gini = 0.0\nsamples = 4\nvalue = [0, 0, 0 ..., 0, 6, 0]"] ;
843 -> 845 ;
846 [label="gini = 0.0\nsamples = 8\nvalue = [0, 0, 0 ..., 0, 17, 0]"] ;
842 -> 846 ;
847 [label="gini = 0.0\nsamples = 2\nvalue = [2, 0, 0 ..., 0, 0, 0]"] ;
841 -> 847 ;
848 [label="X[10] <= 8.5\ngini = 0.4898\nsamples = 4\nvalue = [0, 0, 0 ..., 0, 3, 0]"] ;
830 -> 848 ;
849 [label="gini = 0.0\nsamples = 2\nvalue = [0, 0, 0 ..., 0, 3, 0]"] ;
848 -> 849 ;
850 [label="gini = 0.0\nsamples = 2\nvalue = [0, 0, 0 ..., 0, 0, 0]"] ;
848 -> 850 ;
851 [label="X[13] <= 8.5\ngini = 0.8629\nsamples = 569\nvalue = [2, 17, 7 ..., 180, 2, 18]"] ;
761 -> 851 ;
852 [label="X[14] <= 3.5\ngini = 0.779\nsamples = 423\nvalue = [0, 15, 2 ..., 180, 0, 12]"] ;
851 -> 852 ;
853 [label="X[6] <= 5.5\ngini = 0.3724\nsamples = 149\nvalue = [0, 3, 0 ..., 2, 0, 0]"] ;
852 -> 853 ;
854 [label="X[15] <= 7.5\ngini = 0.3457\nsamples = 6\nvalue = [0, 0, 0 ..., 0, 0, 0]"] ;
853 -> 854 ;
855 [label="gini = 0.0\nsamples = 1\nvalue = [0, 0, 0 ..., 0, 0, 0]"] ;
854 -> 855 ;
856 [label="gini = 0.0\nsamples = 5\nvalue = [0, 0, 0 ..., 0, 0, 0]"] ;
854 -> 856 ;
857 [label="X[9] <= 6.5\ngini = 0.327\nsamples = 143\nvalue = [0, 3, 0 ..., 2, 0, 0]"] ;
853 -> 857 ;
858 [label="X[3] <= 3.0\ngini = 0.2382\nsamples = 15\nvalue = [0, 0, 0 ..., 0, 0, 0]"] ;
857 -> 858 ;
859 [label="gini = 0.0\nsamples = 12\nvalue = [0, 0, 0 ..., 0, 0, 0]"] ;
858 -> 859 ;
860 [label="X[1] <= 6.5\ngini = 0.6667\nsamples = 3\nvalue = [0, 0, 0 ..., 0, 0, 0]"] ;
858 -> 860 ;
861 [label="gini = 0.0\nsamples = 1\nvalue = [0, 0, 0 ..., 0, 0, 0]"] ;
860 -> 861 ;
862 [label="X[10] <= 4.5\ngini = 0.5\nsamples = 2\nvalue = [0, 0, 0 ..., 0, 0, 0]"] ;
860 -> 862 ;
863 [label="gini = 0.0\nsamples = 1\nvalue = [0, 0, 0 ..., 0, 0, 0]"] ;
862 -> 863 ;
864 [label="gini = 0.0\nsamples = 1\nvalue = [0, 0, 0 ..., 0, 0, 0]"] ;
862 -> 864 ;
865 [label="X[9] <= 11.0\ngini = 0.1811\nsamples = 128\nvalue = [0, 3, 0 ..., 2, 0, 0]"] ;
857 -> 865 ;
866 [label="X[10] <= 4.5\ngini = 0.1558\nsamples = 126\nvalue = [0, 3, 0 ..., 2, 0, 0]"] ;
865 -> 866 ;
867 [label="X[1] <= 4.5\ngini = 0.6272\nsamples = 10\nvalue = [0, 0, 0 ..., 0, 0, 0]"] ;
866 -> 867 ;
868 [label="X[4] <= 1.5\ngini = 0.2778\nsamples = 5\nvalue = [0, 0, 0 ..., 0, 0, 0]"] ;
867 -> 868 ;
869 [label="gini = 0.0\nsamples = 1\nvalue = [0, 0, 0 ..., 0, 0, 0]"] ;
868 -> 869 ;
870 [label="gini = 0.0\nsamples = 4\nvalue = [0, 0, 0 ..., 0, 0, 0]"] ;
868 -> 870 ;
871 [label="X[7] <= 4.5\ngini = 0.2449\nsamples = 5\nvalue = [0, 0, 0 ..., 0, 0, 0]"] ;
867 -> 871 ;
872 [label="gini = 0.0\nsamples = 1\nvalue = [0, 0, 0 ..., 0, 0, 0]"] ;
871 -> 872 ;
873 [label="gini = 0.0\nsamples = 4\nvalue = [0, 0, 0 ..., 0, 0, 0]"] ;
871 -> 873 ;
874 [label="X[15] <= 9.5\ngini = 0.0959\nsamples = 116\nvalue = [0, 3, 0 ..., 2, 0, 0]"] ;
866 -> 874 ;
875 [label="X[7] <= 5.0\ngini = 0.0655\nsamples = 114\nvalue = [0, 3, 0 ..., 2, 0, 0]"] ;
874 -> 875 ;
876 [label="X[1] <= 1.5\ngini = 0.48\nsamples = 4\nvalue = [0, 3, 0 ..., 2, 0, 0]"] ;
875 -> 876 ;
877 [label="gini = 0.0\nsamples = 2\nvalue = [0, 0, 0 ..., 2, 0, 0]"] ;
876 -> 877 ;
878 [label="gini = 0.0\nsamples = 2\nvalue = [0, 3, 0 ..., 0, 0, 0]"] ;
876 -> 878 ;
879 [label="X[4] <= 3.5\ngini = 0.0114\nsamples = 110\nvalue = [0, 0, 0 ..., 0, 0, 0]"] ;
875 -> 879 ;
880 [label="gini = 0.0\nsamples = 76\nvalue = [0, 0, 0 ..., 0, 0, 0]"] ;
879 -> 880 ;
881 [label="X[11] <= 4.5\ngini = 0.037\nsamples = 34\nvalue = [0, 0, 0 ..., 0, 0, 0]"] ;
879 -> 881 ;
882 [label="gini = 0.0\nsamples = 1\nvalue = [0, 0, 0 ..., 0, 0, 0]"] ;
881 -> 882 ;
883 [label="gini = 0.0\nsamples = 33\nvalue = [0, 0, 0 ..., 0, 0, 0]"] ;
881 -> 883 ;
884 [label="X[13] <= 7.5\ngini = 0.4444\nsamples = 2\nvalue = [0, 0, 0 ..., 0, 0, 0]"] ;
874 -> 884 ;
885 [label="gini = 0.0\nsamples = 1\nvalue = [0, 0, 0 ..., 0, 0, 0]"] ;
884 -> 885 ;
886 [label="gini = 0.0\nsamples = 1\nvalue = [0, 0, 0 ..., 0, 0, 0]"] ;
884 -> 886 ;
887 [label="X[9] <= 12.5\ngini = 0.4444\nsamples = 2\nvalue = [0, 0, 0 ..., 0, 0, 0]"] ;
865 -> 887 ;
888 [label="gini = 0.0\nsamples = 1\nvalue = [0, 0, 0 ..., 0, 0, 0]"] ;
887 -> 888 ;
889 [label="gini = 0.0\nsamples = 1\nvalue = [0, 0, 0 ..., 0, 0, 0]"] ;
887 -> 889 ;
890 [label="X[6] <= 6.5\ngini = 0.7753\nsamples = 274\nvalue = [0, 12, 2 ..., 178, 0, 12]"] ;
852 -> 890 ;
891 [label="X[7] <= 6.5\ngini = 0.8589\nsamples = 86\nvalue = [0, 0, 0 ..., 0, 0, 7]"] ;
890 -> 891 ;
892 [label="X[12] <= 3.5\ngini = 0.8855\nsamples = 57\nvalue = [0, 0, 0 ..., 0, 0, 7]"] ;
891 -> 892 ;
893 [label="X[11] <= 10.5\ngini = 0.8233\nsamples = 38\nvalue = [0, 0, 0 ..., 0, 0, 7]"] ;
892 -> 893 ;
894 [label="X[11] <= 5.5\ngini = 0.8296\nsamples = 31\nvalue = [0, 0, 0 ..., 0, 0, 7]"] ;
893 -> 894 ;
895 [label="X[9] <= 10.0\ngini = 0.4082\nsamples = 5\nvalue = [0, 0, 0 ..., 0, 0, 0]"] ;
894 -> 895 ;
896 [label="gini = 0.0\nsamples = 3\nvalue = [0, 0, 0 ..., 0, 0, 0]"] ;
895 -> 896 ;
897 [label="gini = 0.0\nsamples = 2\nvalue = [0, 0, 0 ..., 0, 0, 0]"] ;
895 -> 897 ;
898 [label="X[1] <= 11.5\ngini = 0.8227\nsamples = 26\nvalue = [0, 0, 0 ..., 0, 0, 7]"] ;
894 -> 898 ;
899 [label="X[10] <= 6.5\ngini = 0.7852\nsamples = 22\nvalue = [0, 0, 0 ..., 0, 0, 7]"] ;
898 -> 899 ;
900 [label="X[5] <= 9.5\ngini = 0.7215\nsamples = 18\nvalue = [0, 0, 0 ..., 0, 0, 7]"] ;
899 -> 900 ;
901 [label="X[13] <= 7.5\ngini = 0.5817\nsamples = 12\nvalue = [0, 0, 0 ..., 0, 0, 0]"] ;
900 -> 901 ;
902 [label="X[4] <= 4.5\ngini = 0.3911\nsamples = 9\nvalue = [0, 0, 0 ..., 0, 0, 0]"] ;
901 -> 902 ;
903 [label="X[0] <= 3.5\ngini = 0.1528\nsamples = 7\nvalue = [0, 0, 0 ..., 0, 0, 0]"] ;
902 -> 903 ;
904 [label="gini = 0.0\nsamples = 1\nvalue = [0, 0, 0 ..., 0, 0, 0]"] ;
903 -> 904 ;
905 [label="gini = 0.0\nsamples = 6\nvalue = [0, 0, 0 ..., 0, 0, 0]"] ;
903 -> 905 ;
906 [label="gini = 0.0\nsamples = 2\nvalue = [0, 0, 0 ..., 0, 0, 0]"] ;
902 -> 906 ;
907 [label="X[4] <= 4.5\ngini = 0.625\nsamples = 3\nvalue = [0, 0, 0 ..., 0, 0, 0]"] ;
901 -> 907 ;
908 [label="X[4] <= 3.0\ngini = 0.5\nsamples = 2\nvalue = [0, 0, 0 ..., 0, 0, 0]"] ;
907 -> 908 ;
909 [label="gini = 0.0\nsamples = 1\nvalue = [0, 0, 0 ..., 0, 0, 0]"] ;
908 -> 909 ;
910 [label="gini = 0.0\nsamples = 1\nvalue = [0, 0, 0 ..., 0, 0, 0]"] ;
908 -> 910 ;
911 [label="gini = 0.0\nsamples = 1\nvalue = [0, 0, 0 ..., 0, 0, 0]"] ;
907 -> 911 ;
912 [label="X[2] <= 3.5\ngini = 0.2188\nsamples = 6\nvalue = [0, 0, 0 ..., 0, 0, 7]"] ;
900 -> 912 ;
913 [label="gini = 0.0\nsamples = 1\nvalue = [0, 0, 0 ..., 0, 0, 0]"] ;
912 -> 913 ;
914 [label="gini = 0.0\nsamples = 5\nvalue = [0, 0, 0 ..., 0, 0, 7]"] ;
912 -> 914 ;
915 [label="X[7] <= 4.0\ngini = 0.32\nsamples = 4\nvalue = [0, 0, 0 ..., 0, 0, 0]"] ;
899 -> 915 ;
916 [label="gini = 0.0\nsamples = 1\nvalue = [0, 0, 0 ..., 0, 0, 0]"] ;
915 -> 916 ;
917 [label="gini = 0.0\nsamples = 3\nvalue = [0, 0, 0 ..., 0, 0, 0]"] ;
915 -> 917 ;
918 [label="gini = 0.0\nsamples = 4\nvalue = [0, 0, 0 ..., 0, 0, 0]"] ;
898 -> 918 ;
919 [label="gini = 0.0\nsamples = 7\nvalue = [0, 0, 0 ..., 0, 0, 0]"] ;
893 -> 919 ;
920 [label="X[11] <= 7.5\ngini = 0.8086\nsamples = 19\nvalue = [0, 0, 0 ..., 0, 0, 0]"] ;
892 -> 920 ;
921 [label="X[1] <= 9.5\ngini = 0.4938\nsamples = 4\nvalue = [0, 0, 0 ..., 0, 0, 0]"] ;
920 -> 921 ;
922 [label="gini = 0.0\nsamples = 1\nvalue = [0, 0, 0 ..., 0, 0, 0]"] ;
921 -> 922 ;
923 [label="gini = 0.0\nsamples = 3\nvalue = [0, 0, 0 ..., 0, 0, 0]"] ;
921 -> 923 ;
924 [label="X[11] <= 8.5\ngini = 0.7\nsamples = 15\nvalue = [0, 0, 0 ..., 0, 0, 0]"] ;
920 -> 924 ;
925 [label="X[6] <= 4.5\ngini = 0.3704\nsamples = 7\nvalue = [0, 0, 0 ..., 0, 0, 0]"] ;
924 -> 925 ;
926 [label="X[1] <= 9.0\ngini = 0.5\nsamples = 2\nvalue = [0, 0, 0 ..., 0, 0, 0]"] ;
925 -> 926 ;
927 [label="gini = 0.0\nsamples = 1\nvalue = [0, 0, 0 ..., 0, 0, 0]"] ;
926 -> 927 ;
928 [label="gini = 0.0\nsamples = 1\nvalue = [0, 0, 0 ..., 0, 0, 0]"] ;
926 -> 928 ;
929 [label="gini = 0.0\nsamples = 5\nvalue = [0, 0, 0 ..., 0, 0, 0]"] ;
925 -> 929 ;
930 [label="X[14] <= 8.0\ngini = 0.5455\nsamples = 8\nvalue = [0, 0, 0 ..., 0, 0, 0]"] ;
924 -> 930 ;
931 [label="X[9] <= 9.5\ngini = 0.625\nsamples = 4\nvalue = [0, 0, 0 ..., 0, 0, 0]"] ;
930 -> 931 ;
932 [label="X[13] <= 6.0\ngini = 0.5\nsamples = 2\nvalue = [0, 0, 0 ..., 0, 0, 0]"] ;
931 -> 932 ;
933 [label="gini = 0.0\nsamples = 1\nvalue = [0, 0, 0 ..., 0, 0, 0]"] ;
932 -> 933 ;
934 [label="gini = 0.0\nsamples = 1\nvalue = [0, 0, 0 ..., 0, 0, 0]"] ;
932 -> 934 ;
935 [label="gini = 0.0\nsamples = 2\nvalue = [0, 0, 0 ..., 0, 0, 0]"] ;
931 -> 935 ;
936 [label="gini = 0.0\nsamples = 4\nvalue = [0, 0, 0 ..., 0, 0, 0]"] ;
930 -> 936 ;
937 [label="X[14] <= 4.5\ngini = 0.5211\nsamples = 29\nvalue = [0, 0, 0 ..., 0, 0, 0]"] ;
891 -> 937 ;
938 [label="X[4] <= 6.5\ngini = 0.4297\nsamples = 10\nvalue = [0, 0, 0 ..., 0, 0, 0]"] ;
937 -> 938 ;
939 [label="X[11] <= 9.0\ngini = 0.3367\nsamples = 9\nvalue = [0, 0, 0 ..., 0, 0, 0]"] ;
938 -> 939 ;
940 [label="X[12] <= 3.5\ngini = 0.4444\nsamples = 6\nvalue = [0, 0, 0 ..., 0, 0, 0]"] ;
939 -> 940 ;
941 [label="gini = 0.0\nsamples = 3\nvalue = [0, 0, 0 ..., 0, 0, 0]"] ;
940 -> 941 ;
942 [label="gini = 0.0\nsamples = 3\nvalue = [0, 0, 0 ..., 0, 0, 0]"] ;
940 -> 942 ;
943 [label="gini = 0.0\nsamples = 3\nvalue = [0, 0, 0 ..., 0, 0, 0]"] ;
939 -> 943 ;
944 [label="gini = 0.0\nsamples = 1\nvalue = [0, 0, 0 ..., 0, 0, 0]"] ;
938 -> 944 ;
945 [label="X[9] <= 6.5\ngini = 0.2816\nsamples = 19\nvalue = [0, 0, 0 ..., 0, 0, 0]"] ;
937 -> 945 ;
946 [label="gini = 0.0\nsamples = 13\nvalue = [0, 0, 0 ..., 0, 0, 0]"] ;
945 -> 946 ;
947 [label="X[5] <= 7.5\ngini = 0.625\nsamples = 6\nvalue = [0, 0, 0 ..., 0, 0, 0]"] ;
945 -> 947 ;
948 [label="gini = 0.0\nsamples = 1\nvalue = [0, 0, 0 ..., 0, 0, 0]"] ;
947 -> 948 ;
949 [label="X[15] <= 9.5\ngini = 0.4444\nsamples = 5\nvalue = [0, 0, 0 ..., 0, 0, 0]"] ;
947 -> 949 ;
950 [label="gini = 0.0\nsamples = 4\nvalue = [0, 0, 0 ..., 0, 0, 0]"] ;
949 -> 950 ;
951 [label="gini = 0.0\nsamples = 1\nvalue = [0, 0, 0 ..., 0, 0, 0]"] ;
949 -> 951 ;
952 [label="X[12] <= 3.5\ngini = 0.5932\nsamples = 188\nvalue = [0, 12, 2 ..., 178, 0, 5]"] ;
890 -> 952 ;
953 [label="X[15] <= 8.5\ngini = 0.4232\nsamples = 157\nvalue = [0, 7, 2 ..., 178, 0, 5]"] ;
952 -> 953 ;
954 [label="X[14] <= 4.5\ngini = 0.1734\nsamples = 129\nvalue = [0, 5, 0 ..., 178, 0, 5]"] ;
953 -> 954 ;
955 [label="X[6] <= 7.5\ngini = 0.0224\nsamples = 118\nvalue = [0, 1, 0 ..., 175, 0, 0]"] ;
954 -> 955 ;
956 [label="X[4] <= 4.5\ngini = 0.0113\nsamples = 117\nvalue = [0, 0, 0 ..., 175, 0, 0]"] ;
955 -> 956 ;
957 [label="gini = 0.0\nsamples = 116\nvalue = [0, 0, 0 ..., 175, 0, 0]"] ;
956 -> 957 ;
958 [label="gini = 0.0\nsamples = 1\nvalue = [0, 0, 0 ..., 0, 0, 0]"] ;
956 -> 958 ;
959 [label="gini = 0.0\nsamples = 1\nvalue = [0, 1, 0 ..., 0, 0, 0]"] ;
955 -> 959 ;
960 [label="X[6] <= 7.5\ngini = 0.8033\nsamples = 11\nvalue = [0, 4, 0 ..., 3, 0, 5]"] ;
954 -> 960 ;
961 [label="X[11] <= 8.0\ngini = 0.4898\nsamples = 4\nvalue = [0, 3, 0 ..., 0, 0, 0]"] ;
960 -> 961 ;
962 [label="gini = 0.0\nsamples = 1\nvalue = [0, 3, 0 ..., 0, 0, 0]"] ;
961 -> 962 ;
963 [label="gini = 0.0\nsamples = 3\nvalue = [0, 0, 0 ..., 0, 0, 0]"] ;
961 -> 963 ;
964 [label="X[0] <= 4.5\ngini = 0.7222\nsamples = 7\nvalue = [0, 1, 0 ..., 3, 0, 5]"] ;
960 -> 964 ;
965 [label="X[1] <= 4.0\ngini = 0.6939\nsamples = 5\nvalue = [0, 1, 0 ..., 3, 0, 0]"] ;
964 -> 965 ;
966 [label="gini = 0.0\nsamples = 2\nvalue = [0, 0, 0 ..., 0, 0, 0]"] ;
965 -> 966 ;
967 [label="X[5] <= 7.5\ngini = 0.56\nsamples = 3\nvalue = [0, 1, 0 ..., 3, 0, 0]"] ;
965 -> 967 ;
968 [label="X[0] <= 3.5\ngini = 0.375\nsamples = 2\nvalue = [0, 1, 0 ..., 3, 0, 0]"] ;
967 -> 968 ;
969 [label="gini = 0.0\nsamples = 1\nvalue = [0, 1, 0 ..., 0, 0, 0]"] ;
968 -> 969 ;
970 [label="gini = 0.0\nsamples = 1\nvalue = [0, 0, 0 ..., 3, 0, 0]"] ;
968 -> 970 ;
971 [label="gini = 0.0\nsamples = 1\nvalue = [0, 0, 0 ..., 0, 0, 0]"] ;
967 -> 971 ;
972 [label="gini = 0.0\nsamples = 2\nvalue = [0, 0, 0 ..., 0, 0, 5]"] ;
964 -> 972 ;
973 [label="X[10] <= 5.5\ngini = 0.8462\nsamples = 28\nvalue = [0, 2, 2 ..., 0, 0, 0]"] ;
953 -> 973 ;
974 [label="X[5] <= 8.5\ngini = 0.7336\nsamples = 14\nvalue = [0, 0, 0 ..., 0, 0, 0]"] ;
973 -> 974 ;
975 [label="X[11] <= 8.5\ngini = 0.5785\nsamples = 10\nvalue = [0, 0, 0 ..., 0, 0, 0]"] ;
974 -> 975 ;
976 [label="X[14] <= 5.5\ngini = 0.2778\nsamples = 6\nvalue = [0, 0, 0 ..., 0, 0, 0]"] ;
975 -> 976 ;
977 [label="gini = 0.0\nsamples = 5\nvalue = [0, 0, 0 ..., 0, 0, 0]"] ;
976 -> 977 ;
978 [label="gini = 0.0\nsamples = 1\nvalue = [0, 0, 0 ..., 0, 0, 0]"] ;
976 -> 978 ;
979 [label="gini = 0.0\nsamples = 4\nvalue = [0, 0, 0 ..., 0, 0, 0]"] ;
975 -> 979 ;
980 [label="X[7] <= 3.5\ngini = 0.2778\nsamples = 4\nvalue = [0, 0, 0 ..., 0, 0, 0]"] ;
974 -> 980 ;
981 [label="gini = 0.0\nsamples = 1\nvalue = [0, 0, 0 ..., 0, 0, 0]"] ;
980 -> 981 ;
982 [label="gini = 0.0\nsamples = 3\nvalue = [0, 0, 0 ..., 0, 0, 0]"] ;
980 -> 982 ;
983 [label="X[9] <= 6.5\ngini = 0.6805\nsamples = 14\nvalue = [0, 2, 2 ..., 0, 0, 0]"] ;
973 -> 983 ;
984 [label="X[5] <= 7.5\ngini = 0.2604\nsamples = 9\nvalue = [0, 2, 0 ..., 0, 0, 0]"] ;
983 -> 984 ;
985 [label="gini = 0.0\nsamples = 1\nvalue = [0, 2, 0 ..., 0, 0, 0]"] ;
984 -> 985 ;
986 [label="gini = 0.0\nsamples = 8\nvalue = [0, 0, 0 ..., 0, 0, 0]"] ;
984 -> 986 ;
987 [label="X[11] <= 8.0\ngini = 0.56\nsamples = 5\nvalue = [0, 0, 2 ..., 0, 0, 0]"] ;
983 -> 987 ;
988 [label="gini = 0.0\nsamples = 2\nvalue = [0, 0, 0 ..., 0, 0, 0]"] ;
987 -> 988 ;
989 [label="X[6] <= 8.5\ngini = 0.5\nsamples = 3\nvalue = [0, 0, 2 ..., 0, 0, 0]"] ;
987 -> 989 ;
990 [label="gini = 0.0\nsamples = 2\nvalue = [0, 0, 0 ..., 0, 0, 0]"] ;
989 -> 990 ;
991 [label="gini = 0.0\nsamples = 1\nvalue = [0, 0, 2 ..., 0, 0, 0]"] ;
989 -> 991 ;
992 [label="X[13] <= 6.5\ngini = 0.8238\nsamples = 31\nvalue = [0, 5, 0 ..., 0, 0, 0]"] ;
952 -> 992 ;
993 [label="X[9] <= 6.5\ngini = 0.46\nsamples = 7\nvalue = [0, 0, 0 ..., 0, 0, 0]"] ;
992 -> 993 ;
994 [label="X[13] <= 5.5\ngini = 0.4444\nsamples = 2\nvalue = [0, 0, 0 ..., 0, 0, 0]"] ;
993 -> 994 ;
995 [label="gini = 0.0\nsamples = 1\nvalue = [0, 0, 0 ..., 0, 0, 0]"] ;
994 -> 995 ;
996 [label="gini = 0.0\nsamples = 1\nvalue = [0, 0, 0 ..., 0, 0, 0]"] ;
994 -> 996 ;
997 [label="gini = 0.0\nsamples = 5\nvalue = [0, 0, 0 ..., 0, 0, 0]"] ;
993 -> 997 ;
998 [label="X[14] <= 5.5\ngini = 0.7719\nsamples = 24\nvalue = [0, 5, 0 ..., 0, 0, 0]"] ;
992 -> 998 ;
999 [label="X[1] <= 9.5\ngini = 0.1244\nsamples = 10\nvalue = [0, 0, 0 ..., 0, 0, 0]"] ;
998 -> 999 ;
1000 [label="X[10] <= 6.5\ngini = 0.2188\nsamples = 5\nvalue = [0, 0, 0 ..., 0, 0, 0]"] ;
999 -> 1000 ;
1001 [label="gini = 0.0\nsamples = 3\nvalue = [0, 0, 0 ..., 0, 0, 0]"] ;
1000 -> 1001 ;
1002 [label="X[9] <= 7.5\ngini = 0.4444\nsamples = 2\nvalue = [0, 0, 0 ..., 0, 0, 0]"] ;
1000 -> 1002 ;
1003 [label="gini = 0.0\nsamples = 1\nvalue = [0, 0, 0 ..., 0, 0, 0]"] ;
1002 -> 1003 ;
1004 [label="gini = 0.0\nsamples = 1\nvalue = [0, 0, 0 ..., 0, 0, 0]"] ;
1002 -> 1004 ;
1005 [label="gini = 0.0\nsamples = 5\nvalue = [0, 0, 0 ..., 0, 0, 0]"] ;
999 -> 1005 ;
1006 [label="X[6] <= 9.5\ngini = 0.7396\nsamples = 14\nvalue = [0, 5, 0 ..., 0, 0, 0]"] ;
998 -> 1006 ;
1007 [label="X[5] <= 9.0\ngini = 0.6939\nsamples = 13\nvalue = [0, 5, 0 ..., 0, 0, 0]"] ;
1006 -> 1007 ;
1008 [label="X[2] <= 4.5\ngini = 0.6371\nsamples = 12\nvalue = [0, 5, 0 ..., 0, 0, 0]"] ;
1007 -> 1008 ;
1009 [label="gini = 0.0\nsamples = 1\nvalue = [0, 2, 0 ..., 0, 0, 0]"] ;
1008 -> 1009 ;
1010 [label="X[14] <= 6.5\ngini = 0.6021\nsamples = 11\nvalue = [0, 3, 0 ..., 0, 0, 0]"] ;
1008 -> 1010 ;
1011 [label="X[12] <= 4.5\ngini = 0.2188\nsamples = 4\nvalue = [0, 1, 0 ..., 0, 0, 0]"] ;
1010 -> 1011 ;
1012 [label="gini = 0.0\nsamples = 1\nvalue = [0, 1, 0 ..., 0, 0, 0]"] ;
1011 -> 1012 ;
1013 [label="gini = 0.0\nsamples = 3\nvalue = [0, 0, 0 ..., 0, 0, 0]"] ;
1011 -> 1013 ;
1014 [label="X[5] <= 7.5\ngini = 0.7654\nsamples = 7\nvalue = [0, 2, 0 ..., 0, 0, 0]"] ;
1010 -> 1014 ;
1015 [label="X[0] <= 4.5\ngini = 0.7222\nsamples = 5\nvalue = [0, 2, 0 ..., 0, 0, 0]"] ;
1014 -> 1015 ;
1016 [label="X[1] <= 9.0\ngini = 0.625\nsamples = 4\nvalue = [0, 0, 0 ..., 0, 0, 0]"] ;
1015 -> 1016 ;
1017 [label="X[3] <= 5.0\ngini = 0.4444\nsamples = 3\nvalue = [0, 0, 0 ..., 0, 0, 0]"] ;
1016 -> 1017 ;
1018 [label="X[11] <= 8.5\ngini = 0.5\nsamples = 2\nvalue = [0, 0, 0 ..., 0, 0, 0]"] ;
1017 -> 1018 ;
1019 [label="gini = 0.0\nsamples = 1\nvalue = [0, 0, 0 ..., 0, 0, 0]"] ;
1018 -> 1019 ;
1020 [label="gini = 0.0\nsamples = 1\nvalue = [0, 0, 0 ..., 0, 0, 0]"] ;
1018 -> 1020 ;
1021 [label="gini = 0.0\nsamples = 1\nvalue = [0, 0, 0 ..., 0, 0, 0]"] ;
1017 -> 1021 ;
1022 [label="gini = 0.0\nsamples = 1\nvalue = [0, 0, 0 ..., 0, 0, 0]"] ;
1016 -> 1022 ;
1023 [label="gini = 0.0\nsamples = 1\nvalue = [0, 2, 0 ..., 0, 0, 0]"] ;
1015 -> 1023 ;
1024 [label="gini = 0.0\nsamples = 2\nvalue = [0, 0, 0 ..., 0, 0, 0]"] ;
1014 -> 1024 ;
1025 [label="gini = 0.0\nsamples = 1\nvalue = [0, 0, 0 ..., 0, 0, 0]"] ;
1007 -> 1025 ;
1026 [label="gini = 0.0\nsamples = 1\nvalue = [0, 0, 0 ..., 0, 0, 0]"] ;
1006 -> 1026 ;
1027 [label="X[6] <= 6.5\ngini = 0.8972\nsamples = 146\nvalue = [2, 2, 5 ..., 0, 2, 6]"] ;
851 -> 1027 ;
1028 [label="X[14] <= 3.5\ngini = 0.8594\nsamples = 50\nvalue = [0, 2, 3 ..., 0, 0, 6]"] ;
1027 -> 1028 ;
1029 [label="X[9] <= 10.5\ngini = 0.458\nsamples = 12\nvalue = [0, 0, 3 ..., 0, 0, 0]"] ;
1028 -> 1029 ;
1030 [label="X[15] <= 8.5\ngini = 0.6111\nsamples = 4\nvalue = [0, 0, 3 ..., 0, 0, 0]"] ;
1029 -> 1030 ;
1031 [label="X[1] <= 8.5\ngini = 0.375\nsamples = 3\nvalue = [0, 0, 3 ..., 0, 0, 0]"] ;
1030 -> 1031 ;
1032 [label="gini = 0.0\nsamples = 2\nvalue = [0, 0, 3 ..., 0, 0, 0]"] ;
1031 -> 1032 ;
1033 [label="gini = 0.0\nsamples = 1\nvalue = [0, 0, 0 ..., 0, 0, 0]"] ;
1031 -> 1033 ;
1034 [label="gini = 0.0\nsamples = 1\nvalue = [0, 0, 0 ..., 0, 0, 0]"] ;
1030 -> 1034 ;
1035 [label="gini = 0.0\nsamples = 8\nvalue = [0, 0, 0 ..., 0, 0, 0]"] ;
1029 -> 1035 ;
1036 [label="X[11] <= 10.0\ngini = 0.8294\nsamples = 38\nvalue = [0, 2, 0 ..., 0, 0, 6]"] ;
1028 -> 1036 ;
1037 [label="X[14] <= 6.5\ngini = 0.8746\nsamples = 29\nvalue = [0, 2, 0 ..., 0, 0, 6]"] ;
1036 -> 1037 ;
1038 [label="X[11] <= 8.5\ngini = 0.7515\nsamples = 17\nvalue = [0, 2, 0 ..., 0, 0, 0]"] ;
1037 -> 1038 ;
1039 [label="X[2] <= 4.5\ngini = 0.7857\nsamples = 9\nvalue = [0, 2, 0 ..., 0, 0, 0]"] ;
1038 -> 1039 ;
1040 [label="gini = 0.0\nsamples = 4\nvalue = [0, 0, 0 ..., 0, 0, 0]"] ;
1039 -> 1040 ;
1041 [label="X[12] <= 4.5\ngini = 0.7901\nsamples = 5\nvalue = [0, 2, 0 ..., 0, 0, 0]"] ;
1039 -> 1041 ;
1042 [label="X[14] <= 5.5\ngini = 0.7347\nsamples = 4\nvalue = [0, 2, 0 ..., 0, 0, 0]"] ;
1041 -> 1042 ;
1043 [label="X[7] <= 5.5\ngini = 0.64\nsamples = 3\nvalue = [0, 0, 0 ..., 0, 0, 0]"] ;
1042 -> 1043 ;
1044 [label="gini = 0.0\nsamples = 1\nvalue = [0, 0, 0 ..., 0, 0, 0]"] ;
1043 -> 1044 ;
1045 [label="X[10] <= 5.5\ngini = 0.4444\nsamples = 2\nvalue = [0, 0, 0 ..., 0, 0, 0]"] ;
1043 -> 1045 ;
1046 [label="gini = 0.0\nsamples = 1\nvalue = [0, 0, 0 ..., 0, 0, 0]"] ;
1045 -> 1046 ;
1047 [label="gini = 0.0\nsamples = 1\nvalue = [0, 0, 0 ..., 0, 0, 0]"] ;
1045 -> 1047 ;
1048 [label="gini = 0.0\nsamples = 1\nvalue = [0, 2, 0 ..., 0, 0, 0]"] ;
1042 -> 1048 ;
1049 [label="gini = 0.0\nsamples = 1\nvalue = [0, 0, 0 ..., 0, 0, 0]"] ;
1041 -> 1049 ;
1050 [label="X[4] <= 2.0\ngini = 0.2917\nsamples = 8\nvalue = [0, 0, 0 ..., 0, 0, 0]"] ;
1038 -> 1050 ;
1051 [label="gini = 0.0\nsamples = 1\nvalue = [0, 0, 0 ..., 0, 0, 0]"] ;
1050 -> 1051 ;
1052 [label="X[15] <= 10.0\ngini = 0.1653\nsamples = 7\nvalue = [0, 0, 0 ..., 0, 0, 0]"] ;
1050 -> 1052 ;
1053 [label="gini = 0.0\nsamples = 6\nvalue = [0, 0, 0 ..., 0, 0, 0]"] ;
1052 -> 1053 ;
1054 [label="gini = 0.0\nsamples = 1\nvalue = [0, 0, 0 ..., 0, 0, 0]"] ;
1052 -> 1054 ;
1055 [label="X[1] <= 7.5\ngini = 0.7619\nsamples = 12\nvalue = [0, 0, 0 ..., 0, 0, 6]"] ;
1037 -> 1055 ;
1056 [label="gini = 0.0\nsamples = 3\nvalue = [0, 0, 0 ..., 0, 0, 6]"] ;
1055 -> 1056 ;
1057 [label="X[12] <= 3.5\ngini = 0.6933\nsamples = 9\nvalue = [0, 0, 0 ..., 0, 0, 0]"] ;
1055 -> 1057 ;
1058 [label="X[0] <= 4.5\ngini = 0.4062\nsamples = 4\nvalue = [0, 0, 0 ..., 0, 0, 0]"] ;
1057 -> 1058 ;
1059 [label="gini = 0.0\nsamples = 2\nvalue = [0, 0, 0 ..., 0, 0, 0]"] ;
1058 -> 1059 ;
1060 [label="X[7] <= 4.0\ngini = 0.5\nsamples = 2\nvalue = [0, 0, 0 ..., 0, 0, 0]"] ;
1058 -> 1060 ;
1061 [label="gini = 0.0\nsamples = 1\nvalue = [0, 0, 0 ..., 0, 0, 0]"] ;
1060 -> 1061 ;
1062 [label="gini = 0.0\nsamples = 1\nvalue = [0, 0, 0 ..., 0, 0, 0]"] ;
1060 -> 1062 ;
1063 [label="X[15] <= 9.5\ngini = 0.449\nsamples = 5\nvalue = [0, 0, 0 ..., 0, 0, 0]"] ;
1057 -> 1063 ;
1064 [label="X[3] <= 7.0\ngini = 0.5\nsamples = 2\nvalue = [0, 0, 0 ..., 0, 0, 0]"] ;
1063 -> 1064 ;
1065 [label="gini = 0.0\nsamples = 1\nvalue = [0, 0, 0 ..., 0, 0, 0]"] ;
1064 -> 1065 ;
1066 [label="gini = 0.0\nsamples = 1\nvalue = [0, 0, 0 ..., 0, 0, 0]"] ;
1064 -> 1066 ;
1067 [label="gini = 0.0\nsamples = 3\nvalue = [0, 0, 0 ..., 0, 0, 0]"] ;
1063 -> 1067 ;
