digraph Tree {
node [shape=box, style="filled, rounded", color="black", fontname=helvetica] ;
edge [fontname=helvetica] ;
0 [label=<f6 &le; -3.491<br/>gini = 0.89<br/>samples = 50<br/>value = [2.0, 6.0, 3.0, 4.0, 8.0, 6.0, 6.0, 5.0, 5.0, 5.0]<br/>class = c4>, fillcolor="#39e5c50c"] ;
1 [label=<f2 &le; 2.107<br/>gini = 0.749<br/>samples = 23<br/>value = [0.0, 6.0, 0.0, 0.0, 0.0, 6.0, 6.0, 0.0, 5.0, 0.0]<br/>class = c1>, fillcolor="#e2e53900"] ;
0 -> 1 [labeldistance=2.5, labelangle=45, headlabel="True"] ;
2 [label=<f5 &le; -1.187<br/>gini = 0.664<br/>samples = 17<br/>value = [0.0, 6.0, 0.0, 0.0, 0.0, 0.0, 6.0, 0.0, 5.0, 0.0]<br/>class = c1>, fillcolor="#e2e53900"] ;
1 -> 2 ;
3 [label=<f1 &le; 4.069<br/>gini = 0.496<br/>samples = 11<br/>value = [0.0, 0.0, 0.0, 0.0, 0.0, 0.0, 6.0, 0.0, 5.0, 0.0]<br/>class = c6>, fillcolor="#3c39e52b"] ;
2 -> 3 ;
4 [label=<gini = 0.0<br/>samples = 5<br/>value = [0, 0, 0, 0, 0, 0, 0, 0, 5, 0]<br/>class = c8>, fillcolor="#e539c0ff"] ;
3 -> 4 ;
5 [label=<gini = 0.0<br/>samples = 6<br/>value = [0, 0, 0, 0, 0, 0, 6, 0, 0, 0]<br/>class = c6>, fillcolor="#3c39e5ff"] ;
3 -> 5 ;
6 [label=<gini = 0.0<br/>samples = 6<br/>value = [0, 6, 0, 0, 0, 0, 0, 0, 0, 0]<br/>class = c1>, fillcolor="#e2e539ff"] ;
2 -> 6 ;
7 [label=<gini = 0.0<br/>samples = 6<br/>value = [0, 0, 0, 0, 0, 6, 0, 0, 0, 0]<br/>class = c5>, fillcolor="#399de5ff"] ;
1 -> 7 ;
8 [label=<f0 &le; 0.577<br/>gini = 0.804<br/>samples = 27<br/>value = [2.0, 0.0, 3.0, 4.0, 8.0, 0.0, 0.0, 5.0, 0.0, 5.0]<br/>class = c4>, fillcolor="#39e5c523"] ;
0 -> 8 [labeldistance=2.5, labelangle=-45, headlabel="False"] ;
9 [label=<f1 &le; -9.48<br/>gini = 0.685<br/>samples = 18<br/>value = [2.0, 0.0, 3.0, 0.0, 8.0, 0.0, 0.0, 5.0, 0.0, 0.0]<br/>class = c4>, fillcolor="#39e5c53b"] ;
8 -> 9 ;
10 [label=<gini = 0.0<br/>samples = 1<br/>value = [0, 0, 1, 0, 0, 0, 0, 0, 0, 0]<br/>class = c2>, fillcolor="#7be539ff"] ;
9 -> 10 ;
11 [label=<f7 &le; -3.591<br/>gini = 0.664<br/>samples = 17<br/>value = [2.0, 0.0, 2.0, 0.0, 8.0, 0.0, 0.0, 5.0, 0.0, 0.0]<br/>class = c4>, fillcolor="#39e5c540"] ;
9 -> 11 ;
12 [label=<f1 &le; -1.249<br/>gini = 0.32<br/>samples = 10<br/>value = [2.0, 0.0, 0.0, 0.0, 8.0, 0.0, 0.0, 0.0, 0.0, 0.0]<br/>class = c4>, fillcolor="#39e5c5bf"] ;
11 -> 12 ;
13 [label=<gini = 0.0<br/>samples = 2<br/>value = [2, 0, 0, 0, 0, 0, 0, 0, 0, 0]<br/>class = c0>, fillcolor="#e58139ff"] ;
12 -> 13 ;
14 [label=<gini = 0.0<br/>samples = 8<br/>value = [0, 0, 0, 0, 8, 0, 0, 0, 0, 0]<br/>class = c4>, fillcolor="#39e5c5ff"] ;
12 -> 14 ;
15 [label=<gini = 0.408<br/>samples = 7<br/>value = [0, 0, 2, 0, 0, 0, 0, 5, 0, 0]<br/>class = c7>, fillcolor="#a339e599"] ;
11 -> 15 ;
16 [label=<f3 &le; 0.229<br/>gini = 0.494<br/>samples = 9<br/>value = [0.0, 0.0, 0.0, 4.0, 0.0, 0.0, 0.0, 0.0, 0.0, 5.0]<br/>class = c9>, fillcolor="#e5395833"] ;
8 -> 16 ;
17 [label=<gini = 0.0<br/>samples = 5<br/>value = [0, 0, 0, 0, 0, 0, 0, 0, 0, 5]<br/>class = c9>, fillcolor="#e53958ff"] ;
16 -> 17 ;
18 [label=<gini = 0.0<br/>samples = 4<br/>value = [0, 0, 0, 4, 0, 0, 0, 0, 0, 0]<br/>class = c3>, fillcolor="#39e55eff"] ;
16 -> 18 ;
}
