digraph Tree {
node [shape=box, style="filled, rounded", color="black", fontname=helvetica] ;
edge [fontname=helvetica] ;
0 [label=<f6 &le; -3.591<br/>gini = 0.879<br/>samples = 50<br/>value = [5.0, 4.0, 6.0, 5.0, 5.0, 9.0, 2.0, 1.0, 5.0, 8.0]<br/>class = c5>, fillcolor="#399de506"] ;
1 [label=<f2 &le; 2.54<br/>gini = 0.685<br/>samples = 20<br/>value = [0.0, 4.0, 0.0, 0.0, 0.0, 9.0, 2.0, 0.0, 5.0, 0.0]<br/>class = c5>, fillcolor="#399de544"] ;
0 -> 1 [labeldistance=2.5, labelangle=45, headlabel="True"] ;
2 [label=<f5 &le; -1.219<br/>gini = 0.628<br/>samples = 11<br/>value = [0.0, 4.0, 0.0, 0.0, 0.0, 0.0, 2.0, 0.0, 5.0, 0.0]<br/>class = c8>, fillcolor="#e539c024"] ;
1 -> 2 ;
3 [label=<f1 &le; -7.196<br/>gini = 0.408<br/>samples = 7<br/>value = [0.0, 0.0, 0.0, 0.0, 0.0, 0.0, 2.0, 0.0, 5.0, 0.0]<br/>class = c8>, fillcolor="#e539c099"] ;
2 -> 3 ;
5 [label=<gini = 0.0<br/>samples = 1<br/>value = [0, 0, 0, 0, 0, 0, 1, 0, 0, 0]<br/>class = c6>, fillcolor="#3c39e5ff"] ;
3 -> 5 ;
4 [label=<gini = 0.278<br/>samples = 6<br/>value = [0, 0, 0, 0, 0, 0, 1, 0, 5, 0]<br/>class = c8>, fillcolor="#e539c0cc"] ;
3 -> 4 ;
6 [label=<gini = 0.0<br/>samples = 4<br/>value = [0, 4, 0, 0, 0, 0, 0, 0, 0, 0]<br/>class = c1>, fillcolor="#e2e539ff"] ;
2 -> 6 ;
7 [label=<gini = 0.0<br/>samples = 9<br/>value = [0, 0, 0, 0, 0, 9, 0, 0, 0, 0]<br/>class = c5>, fillcolor="#399de5ff"] ;
1 -> 7 ;
8 [label=<f0 &le; 0.889<br/>gini = 0.804<br/>samples = 30<br/>value = [5.0, 0.0, 6.0, 5.0, 5.0, 0.0, 0.0, 1.0, 0.0, 8.0]<br/>class = c9>, fillcolor="#e5395815"] ;
0 -> 8 [labeldistance=2.5, labelangle=-45, headlabel="False"] ;
9 [label=<f1 &le; -5.252<br/>gini = 0.699<br/>samples = 17<br/>value = [5.0, 0.0, 6.0, 0.0, 5.0, 0.0, 0.0, 1.0, 0.0, 0.0]<br/>class = c2>, fillcolor="#7be53915"] ;
8 -> 9 ;
11 [label=<f7 &le; -9.64<br/>gini = 0.444<br/>samples = 3<br/>value = [1.0, 0.0, 0.0, 0.0, 2.0, 0.0, 0.0, 0.0, 0.0, 0.0]<br/>class = c4>, fillcolor="#39e5c580"] ;
9 -> 11 ;
15 [label=<gini = 0.0<br/>samples = 1<br/>value = [0, 0, 0, 0, 1, 0, 0, 0, 0, 0]<br/>class = c4>, fillcolor="#39e5c5ff"] ;
11 -> 15 ;
12 [label=<f1 &le; -6.562<br/>gini = 0.5<br/>samples = 2<br/>value = [1.0, 0.0, 0.0, 0.0, 1.0, 0.0, 0.0, 0.0, 0.0, 0.0]<br/>class = c0>, fillcolor="#e5813900"] ;
11 -> 12 ;
14 [label=<gini = 0.0<br/>samples = 1<br/>value = [0, 0, 0, 0, 1, 0, 0, 0, 0, 0]<br/>class = c4>, fillcolor="#39e5c5ff"] ;
12 -> 14 ;
13 [label=<gini = 0.0<br/>samples = 1<br/>value = [1, 0, 0, 0, 0, 0, 0, 0, 0, 0]<br/>class = c0>, fillcolor="#e58139ff"] ;
12 -> 13 ;
10 [label=<gini = 0.684<br/>samples = 14<br/>value = [4, 0, 6, 0, 3, 0, 0, 1, 0, 0]<br/>class = c2>, fillcolor="#7be53933"] ;
9 -> 10 ;
16 [label=<f3 &le; 0.127<br/>gini = 0.473<br/>samples = 13<br/>value = [0.0, 0.0, 0.0, 5.0, 0.0, 0.0, 0.0, 0.0, 0.0, 8.0]<br/>class = c9>, fillcolor="#e5395860"] ;
8 -> 16 ;
17 [label=<gini = 0.0<br/>samples = 8<br/>value = [0, 0, 0, 0, 0, 0, 0, 0, 0, 8]<br/>class = c9>, fillcolor="#e53958ff"] ;
16 -> 17 ;
18 [label=<gini = 0.0<br/>samples = 5<br/>value = [0, 0, 0, 5, 0, 0, 0, 0, 0, 0]<br/>class = c3>, fillcolor="#39e55eff"] ;
16 -> 18 ;
}
