digraph Tree {
node [shape=box, style="filled, rounded", color="black", fontname=helvetica] ;
edge [fontname=helvetica] ;
0 [label=<f6 &le; -3.319<br/>gini = 0.877<br/>samples = 50<br/>value = [9.0, 7.0, 7.0, 5.0, 3.0, 4.0, 2.0, 1.0, 5.0, 7.0]<br/>class = c0>, fillcolor="#e581390c"] ;
1 [label=<f2 &le; 1.824<br/>gini = 0.71<br/>samples = 18<br/>value = [0.0, 7.0, 0.0, 0.0, 0.0, 4.0, 2.0, 0.0, 5.0, 0.0]<br/>class = c1>, fillcolor="#e2e53927"] ;
0 -> 1 [labeldistance=2.5, labelangle=45, headlabel="True"] ;
2 [label=<f5 &le; -1.169<br/>gini = 0.602<br/>samples = 14<br/>value = [0.0, 7.0, 0.0, 0.0, 0.0, 0.0, 2.0, 0.0, 5.0, 0.0]<br/>class = c1>, fillcolor="#e2e53939"] ;
1 -> 2 ;
3 [label=<f1 &le; 4.919<br/>gini = 0.408<br/>samples = 7<br/>value = [0.0, 0.0, 0.0, 0.0, 0.0, 0.0, 2.0, 0.0, 5.0, 0.0]<br/>class = c8>, fillcolor="#e539c099"] ;
2 -> 3 ;
4 [label=<gini = 0.0<br/>samples = 5<br/>value = [0, 0, 0, 0, 0, 0, 0, 0, 5, 0]<br/>class = c8>, fillcolor="#e539c0ff"] ;
3 -> 4 ;
5 [label=<gini = 0.0<br/>samples = 2<br/>value = [0, 0, 0, 0, 0, 0, 2, 0, 0, 0]<br/>class = c6>, fillcolor="#3c39e5ff"] ;
3 -> 5 ;
6 [label=<gini = 0.0<br/>samples = 7<br/>value = [0, 7, 0, 0, 0, 0, 0, 0, 0, 0]<br/>class = c1>, fillcolor="#e2e539ff"] ;
2 -> 6 ;
7 [label=<gini = 0.0<br/>samples = 4<br/>value = [0, 0, 0, 0, 0, 4, 0, 0, 0, 0]<br/>class = c5>, fillcolor="#399de5ff"] ;
1 -> 7 ;
8 [label=<f0 &le; 8.816<br/>gini = 0.791<br/>samples = 32<br/>value = [9.0, 0.0, 7.0, 5.0, 3.0, 0.0, 0.0, 1.0, 0.0, 7.0]<br/>class = c0>, fillcolor="#e5813914"] ;
0 -> 8 [labeldistance=2.5, labelangle=-45, headlabel="False"] ;
9 [label=<f1 &le; -6.583<br/>gini = 0.787<br/>samples = 30<br/>value = [9.0, 0.0, 7.0, 4.0, 3.0, 0.0, 0.0, 1.0, 0.0, 6.0]<br/>class = c0>, fillcolor="#e5813916"] ;
8 -> 9 ;
10 [label=<gini = 0.0<br/>samples = 7<br/>value = [0, 0, 7, 0, 0, 0, 0, 0, 0, 0]<br/>class = c2>, fillcolor="#7be539ff"] ;
9 -> 10 ;
11 [label=<f7 &le; -1.749<br/>gini = 0.73<br/>samples = 23<br/>value = [9.0, 0.0, 0.0, 4.0, 3.0, 0.0, 0.0, 1.0, 0.0, 6.0]<br/>class = c0>, fillcolor="#e581392d"] ;
9 -> 11 ;
12 [label=<f1 &le; -0.874<br/>gini = 0.375<br/>samples = 12<br/>value = [9.0, 0.0, 0.0, 0.0, 3.0, 0.0, 0.0, 0.0, 0.0, 0.0]<br/>class = c0>, fillcolor="#e58139aa"] ;
11 -> 12 ;
13 [label=<gini = 0.0<br/>samples = 9<br/>value = [9, 0, 0, 0, 0, 0, 0, 0, 0, 0]<br/>class = c0>, fillcolor="#e58139ff"] ;
12 -> 13 ;
14 [label=<gini = 0.0<br/>samples = 3<br/>value = [0, 0, 0, 0, 3, 0, 0, 0, 0, 0]<br/>class = c4>, fillcolor="#39e5c5ff"] ;
12 -> 14 ;
15 [label=<gini = 0.562<br/>samples = 11<br/>value = [0, 0, 0, 4, 0, 0, 0, 1, 0, 6]<br/>class = c9>, fillcolor="#e5395849"] ;
11 -> 15 ;
16 [label=<f3 &le; 0.12<br/>gini = 0.5<br/>samples = 2<br/>value = [0.0, 0.0, 0.0, 1.0, 0.0, 0.0, 0.0, 0.0, 0.0, 1.0]<br/>class = c3>, fillcolor="#39e55e00"] ;
8 -> 16 ;
17 [label=<gini = 0.0<br/>samples = 1<br/>value = [0, 0, 0, 0, 0, 0, 0, 0, 0, 1]<br/>class = c9>, fillcolor="#e53958ff"] ;
16 -> 17 ;
18 [label=<gini = 0.0<br/>samples = 1<br/>value = [0, 0, 0, 1, 0, 0, 0, 0, 0, 0]<br/>class = c3>, fillcolor="#39e55eff"] ;
16 -> 18 ;
}
