digraph Tree {
node [shape=box, style="filled, rounded", color="black", fontname=helvetica] ;
edge [fontname=helvetica] ;
0 [label=<f6 &le; -3.661<br/>gini = 0.886<br/>samples = 50<br/>value = [7.0, 6.0, 3.0, 6.0, 4.0, 5.0, 3.0, 9.0, 4.0, 3.0]<br/>class = c7>, fillcolor="#a339e50c"] ;
1 [label=<f2 &le; 2.173<br/>gini = 0.735<br/>samples = 18<br/>value = [0.0, 6.0, 0.0, 0.0, 0.0, 5.0, 3.0, 0.0, 4.0, 0.0]<br/>class = c1>, fillcolor="#e2e53914"] ;
0 -> 1 [labeldistance=2.5, labelangle=45, headlabel="True"] ;
2 [label=<f5 &le; -1.884<br/>gini = 0.639<br/>samples = 13<br/>value = [0.0, 6.0, 0.0, 0.0, 0.0, 0.0, 3.0, 0.0, 4.0, 0.0]<br/>class = c1>, fillcolor="#e2e53939"] ;
1 -> 2 ;
3 [label=<f1 &le; 4.95<br/>gini = 0.49<br/>samples = 7<br/>value = [0.0, 0.0, 0.0, 0.0, 0.0, 0.0, 3.0, 0.0, 4.0, 0.0]<br/>class = c8>, fillcolor="#e539c040"] ;
2 -> 3 ;
4 [label=<gini = 0.0<br/>samples = 4<br/>value = [0, 0, 0, 0, 0, 0, 0, 0, 4, 0]<br/>class = c8>, fillcolor="#e539c0ff"] ;
3 -> 4 ;
5 [label=<gini = 0.0<br/>samples = 3<br/>value = [0, 0, 0, 0, 0, 0, 3, 0, 0, 0]<br/>class = c6>, fillcolor="#3c39e5ff"] ;
3 -> 5 ;
6 [label=<gini = 0.0<br/>samples = 6<br/>value = [0, 6, 0, 0, 0, 0, 0, 0, 0, 0]<br/>class = c1>, fillcolor="#e2e539ff"] ;
2 -> 6 ;
7 [label=<gini = 0.0<br/>samples = 5<br/>value = [0, 0, 0, 0, 0, 5, 0, 0, 0, 0]<br/>class = c5>, fillcolor="#399de5ff"] ;
1 -> 7 ;
8 [label=<f0 &le; 0.899<br/>gini = 0.805<br/>samples = 32<br/>value = [7.0, 0.0, 3.0, 6.0, 4.0, 0.0, 0.0, 9.0, 0.0, 3.0]<br/>class = c7>, fillcolor="#a339e514"] ;
0 -> 8 [labeldistance=2.5, labelangle=-45, headlabel="False"] ;
9 [label=<f1 &le; -6.377<br/>gini = 0.707<br/>samples = 23<br/>value = [7.0, 0.0, 3.0, 0.0, 4.0, 0.0, 0.0, 9.0, 0.0, 0.0]<br/>class = c7>, fillcolor="#a339e520"] ;
8 -> 9 ;
10 [label=<gini = 0.0<br/>samples = 3<br/>value = [0, 0, 3, 0, 0, 0, 0, 0, 0, 0]<br/>class = c2>, fillcolor="#7be539ff"] ;
9 -> 10 ;
11 [label=<f7 &le; -1.046<br/>gini = 0.635<br/>samples = 20<br/>value = [7.0, 0.0, 0.0, 0.0, 4.0, 0.0, 0.0, 9.0, 0.0, 0.0]<br/>class = c7>, fillcolor="#a339e527"] ;
9 -> 11 ;
12 [label=<f1 &le; -1.06<br/>gini = 0.463<br/>samples = 11<br/>value = [7.0, 0.0, 0.0, 0.0, 4.0, 0.0, 0.0, 0.0, 0.0, 0.0]<br/>class = c0>, fillcolor="#e581396d"] ;
11 -> 12 ;
13 [label=<gini = 0.0<br/>samples = 7<br/>value = [7, 0, 0, 0, 0, 0, 0, 0, 0, 0]<br/>class = c0>, fillcolor="#e58139ff"] ;
12 -> 13 ;
14 [label=<gini = 0.0<br/>samples = 4<br/>value = [0, 0, 0, 0, 4, 0, 0, 0, 0, 0]<br/>class = c4>, fillcolor="#39e5c5ff"] ;
12 -> 14 ;
15 [label=<gini = 0.0<br/>samples = 9<br/>value = [0, 0, 0, 0, 0, 0, 0, 9, 0, 0]<br/>class = c7>, fillcolor="#a339e5ff"] ;
11 -> 15 ;
16 [label=<f3 &le; -0.192<br/>gini = 0.444<br/>samples = 9<br/>value = [0.0, 0.0, 0.0, 6.0, 0.0, 0.0, 0.0, 0.0, 0.0, 3.0]<br/>class = c3>, fillcolor="#39e55e80"] ;
8 -> 16 ;
17 [label=<gini = 0.0<br/>samples = 3<br/>value = [0, 0, 0, 0, 0, 0, 0, 0, 0, 3]<br/>class = c9>, fillcolor="#e53958ff"] ;
16 -> 17 ;
18 [label=<gini = 0.0<br/>samples = 6<br/>value = [0, 0, 0, 6, 0, 0, 0, 0, 0, 0]<br/>class = c3>, fillcolor="#39e55eff"] ;
16 -> 18 ;
}
