digraph Tree {
node [shape=box, style="filled, rounded", color="black", fontname=helvetica] ;
edge [fontname=helvetica] ;
0 [label=<f6 &le; -3.428<br/>gini = 0.872<br/>samples = 50<br/>value = [6.0, 9.0, 2.0, 8.0, 8.0, 4.0, 2.0, 1.0, 5.0, 5.0]<br/>class = c1>, fillcolor="#e2e53906"] ;
1 [label=<f2 &le; 2.561<br/>gini = 0.685<br/>samples = 20<br/>value = [0.0, 9.0, 0.0, 0.0, 0.0, 4.0, 2.0, 0.0, 5.0, 0.0]<br/>class = c1>, fillcolor="#e2e53944"] ;
0 -> 1 [labeldistance=2.5, labelangle=45, headlabel="True"] ;
2 [label=<f5 &le; -1.953<br/>gini = 0.57<br/>samples = 16<br/>value = [0.0, 9.0, 0.0, 0.0, 0.0, 0.0, 2.0, 0.0, 5.0, 0.0]<br/>class = c1>, fillcolor="#e2e5395d"] ;
1 -> 2 ;
3 [label=<f1 &le; 4.751<br/>gini = 0.408<br/>samples = 7<br/>value = [0.0, 0.0, 0.0, 0.0, 0.0, 0.0, 2.0, 0.0, 5.0, 0.0]<br/>class = c8>, fillcolor="#e539c099"] ;
2 -> 3 ;
4 [label=<gini = 0.0<br/>samples = 5<br/>value = [0, 0, 0, 0, 0, 0, 0, 0, 5, 0]<br/>class = c8>, fillcolor="#e539c0ff"] ;
3 -> 4 ;
5 [label=<gini = 0.0<br/>samples = 2<br/>value = [0, 0, 0, 0, 0, 0, 2, 0, 0, 0]<br/>class = c6>, fillcolor="#3c39e5ff"] ;
3 -> 5 ;
6 [label=<gini = 0.0<br/>samples = 9<br/>value = [0, 9, 0, 0, 0, 0, 0, 0, 0, 0]<br/>class = c1>, fillcolor="#e2e539ff"] ;
2 -> 6 ;
7 [label=<gini = 0.0<br/>samples = 4<br/>value = [0, 0, 0, 0, 0, 4, 0, 0, 0, 0]<br/>class = c5>, fillcolor="#399de5ff"] ;
1 -> 7 ;
8 [label=<f0 &le; 0.885<br/>gini = 0.784<br/>samples = 30<br/>value = [6.0, 0.0, 2.0, 8.0, 8.0, 0.0, 0.0, 1.0, 0.0, 5.0]<br/>class = c3>, fillcolor="#39e55e00"] ;
0 -> 8 [labeldistance=2.5, labelangle=-45, headlabel="False"] ;
9 [label=<f1 &le; -6.86<br/>gini = 0.637<br/>samples = 17<br/>value = [6.0, 0.0, 2.0, 0.0, 8.0, 0.0, 0.0, 1.0, 0.0, 0.0]<br/>class = c4>, fillcolor="#39e5c52e"] ;
8 -> 9 ;
10 [label=<gini = 0.0<br/>samples = 2<br/>value = [0, 0, 2, 0, 0, 0, 0, 0, 0, 0]<br/>class = c2>, fillcolor="#7be539ff"] ;
9 -> 10 ;
11 [label=<f7 &le; -10.567<br/>gini = 0.551<br/>samples = 15<br/>value = [6.0, 0.0, 0.0, 0.0, 8.0, 0.0, 0.0, 1.0, 0.0, 0.0]<br/>class = c4>, fillcolor="#39e5c539"] ;
9 -> 11 ;
15 [label=<gini = 0.0<br/>samples = 1<br/>value = [0, 0, 0, 0, 1, 0, 0, 0, 0, 0]<br/>class = c4>, fillcolor="#39e5c5ff"] ;
11 -> 15 ;
12 [label=<f1 &le; -1.195<br/>gini = 0.561<br/>samples = 14<br/>value = [6.0, 0.0, 0.0, 0.0, 7.0, 0.0, 0.0, 1.0, 0.0, 0.0]<br/>class = c4>, fillcolor="#39e5c520"] ;
11 -> 12 ;
13 [label=<gini = 0.0<br/>samples = 6<br/>value = [6, 0, 0, 0, 0, 0, 0, 0, 0, 0]<br/>class = c0>, fillcolor="#e58139ff"] ;
12 -> 13 ;
14 [label=<gini = 0.219<br/>samples = 8<br/>value = [0, 0, 0, 0, 7, 0, 0, 1, 0, 0]<br/>class = c4>, fillcolor="#39e5c5db"] ;
12 -> 14 ;
16 [label=<f3 &le; 0.176<br/>gini = 0.473<br/>samples = 13<br/>value = [0.0, 0.0, 0.0, 8.0, 0.0, 0.0, 0.0, 0.0, 0.0, 5.0]<br/>class = c3>, fillcolor="#39e55e60"] ;
8 -> 16 ;
17 [label=<gini = 0.0<br/>samples = 5<br/>value = [0, 0, 0, 0, 0, 0, 0, 0, 0, 5]<br/>class = c9>, fillcolor="#e53958ff"] ;
16 -> 17 ;
18 [label=<gini = 0.0<br/>samples = 8<br/>value = [0, 0, 0, 8, 0, 0, 0, 0, 0, 0]<br/>class = c3>, fillcolor="#39e55eff"] ;
16 -> 18 ;
}
