digraph Tree {
node [shape=box, style="filled, rounded", color="black", fontname=helvetica] ;
edge [fontname=helvetica] ;
0 [label=<f6 &le; -3.45<br/>gini = 0.711<br/>samples = 50<br/>value = [1.0, 3.0, 3.0, 5.0, 2.0, 6.0, 3.0, 0.0, 2.0, 25.0]<br/>class = c9>, fillcolor="#e539586e"] ;
1 [label=<f2 &le; 2.028<br/>gini = 0.704<br/>samples = 14<br/>value = [0.0, 3.0, 0.0, 0.0, 0.0, 6.0, 3.0, 0.0, 2.0, 0.0]<br/>class = c5>, fillcolor="#399de546"] ;
0 -> 1 [labeldistance=2.5, labelangle=45, headlabel="True"] ;
2 [label=<f5 &le; -1.028<br/>gini = 0.656<br/>samples = 8<br/>value = [0.0, 3.0, 0.0, 0.0, 0.0, 0.0, 3.0, 0.0, 2.0, 0.0]<br/>class = c1>, fillcolor="#e2e53900"] ;
1 -> 2 ;
3 [label=<f1 &le; 4.345<br/>gini = 0.48<br/>samples = 5<br/>value = [0.0, 0.0, 0.0, 0.0, 0.0, 0.0, 3.0, 0.0, 2.0, 0.0]<br/>class = c6>, fillcolor="#3c39e555"] ;
2 -> 3 ;
4 [label=<gini = 0.0<br/>samples = 2<br/>value = [0, 0, 0, 0, 0, 0, 0, 0, 2, 0]<br/>class = c8>, fillcolor="#e539c0ff"] ;
3 -> 4 ;
5 [label=<gini = 0.0<br/>samples = 3<br/>value = [0, 0, 0, 0, 0, 0, 3, 0, 0, 0]<br/>class = c6>, fillcolor="#3c39e5ff"] ;
3 -> 5 ;
6 [label=<gini = 0.0<br/>samples = 3<br/>value = [0, 3, 0, 0, 0, 0, 0, 0, 0, 0]<br/>class = c1>, fillcolor="#e2e539ff"] ;
2 -> 6 ;
7 [label=<gini = 0.0<br/>samples = 6<br/>value = [0, 0, 0, 0, 0, 6, 0, 0, 0, 0]<br/>class = c5>, fillcolor="#399de5ff"] ;
1 -> 7 ;
8 [label=<f0 &le; -0.112<br/>gini = 0.488<br/>samples = 36<br/>value = [1.0, 0.0, 3.0, 5.0, 2.0, 0.0, 0.0, 0.0, 0.0, 25.0]<br/>class = c9>, fillcolor="#e53958a5"] ;
0 -> 8 [labeldistance=2.5, labelangle=-45, headlabel="False"] ;
9 [label=<f1 &le; -7.05<br/>gini = 0.611<br/>samples = 6<br/>value = [1.0, 0.0, 3.0, 0.0, 2.0, 0.0, 0.0, 0.0, 0.0, 0.0]<br/>class = c2>, fillcolor="#7be53940"] ;
8 -> 9 ;
10 [label=<gini = 0.0<br/>samples = 3<br/>value = [0, 0, 3, 0, 0, 0, 0, 0, 0, 0]<br/>class = c2>, fillcolor="#7be539ff"] ;
9 -> 10 ;
11 [label=<f7 &le; -9.717<br/>gini = 0.444<br/>samples = 3<br/>value = [1.0, 0.0, 0.0, 0.0, 2.0, 0.0, 0.0, 0.0, 0.0, 0.0]<br/>class = c4>, fillcolor="#39e5c580"] ;
9 -> 11 ;
15 [label=<gini = 0.0<br/>samples = 1<br/>value = [0, 0, 0, 0, 1, 0, 0, 0, 0, 0]<br/>class = c4>, fillcolor="#39e5c5ff"] ;
11 -> 15 ;
12 [label=<f1 &le; -0.951<br/>gini = 0.5<br/>samples = 2<br/>value = [1.0, 0.0, 0.0, 0.0, 1.0, 0.0, 0.0, 0.0, 0.0, 0.0]<br/>class = c0>, fillcolor="#e5813900"] ;
11 -> 12 ;
13 [label=<gini = 0.0<br/>samples = 1<br/>value = [1, 0, 0, 0, 0, 0, 0, 0, 0, 0]<br/>class = c0>, fillcolor="#e58139ff"] ;
12 -> 13 ;
14 [label=<gini = 0.0<br/>samples = 1<br/>value = [0, 0, 0, 0, 1, 0, 0, 0, 0, 0]<br/>class = c4>, fillcolor="#39e5c5ff"] ;
12 -> 14 ;
16 [label=<f3 &le; 0.311<br/>gini = 0.278<br/>samples = 30<br/>value = [0.0, 0.0, 0.0, 5.0, 0.0, 0.0, 0.0, 0.0, 0.0, 25.0]<br/>class = c9>, fillcolor="#e53958cc"] ;
8 -> 16 ;
17 [label=<gini = 0.0<br/>samples = 25<br/>value = [0, 0, 0, 0, 0, 0, 0, 0, 0, 25]<br/>class = c9>, fillcolor="#e53958ff"] ;
16 -> 17 ;
18 [label=<gini = 0.0<br/>samples = 5<br/>value = [0, 0, 0, 5, 0, 0, 0, 0, 0, 0]<br/>class = c3>, fillcolor="#39e55eff"] ;
16 -> 18 ;
}
