digraph Tree {
node [shape=box, style="filled, rounded", color="black", fontname=helvetica] ;
edge [fontname=helvetica] ;
0 [label=<f6 &le; -3.148<br/>gini = 0.892<br/>samples = 50<br/>value = [5.0, 4.0, 5.0, 4.0, 5.0, 6.0, 7.0, 2.0, 5.0, 7.0]<br/>class = c6>, fillcolor="#3c39e500"] ;
1 [label=<f2 &le; 2.399<br/>gini = 0.74<br/>samples = 22<br/>value = [0.0, 4.0, 0.0, 0.0, 0.0, 6.0, 7.0, 0.0, 5.0, 0.0]<br/>class = c6>, fillcolor="#3c39e510"] ;
0 -> 1 [labeldistance=2.5, labelangle=45, headlabel="True"] ;
2 [label=<f5 &le; -0.58<br/>gini = 0.648<br/>samples = 16<br/>value = [0.0, 4.0, 0.0, 0.0, 0.0, 0.0, 7.0, 0.0, 5.0, 0.0]<br/>class = c6>, fillcolor="#3c39e52e"] ;
1 -> 2 ;
3 [label=<f1 &le; 4.43<br/>gini = 0.486<br/>samples = 12<br/>value = [0.0, 0.0, 0.0, 0.0, 0.0, 0.0, 7.0, 0.0, 5.0, 0.0]<br/>class = c6>, fillcolor="#3c39e549"] ;
2 -> 3 ;
4 [label=<gini = 0.0<br/>samples = 5<br/>value = [0, 0, 0, 0, 0, 0, 0, 0, 5, 0]<br/>class = c8>, fillcolor="#e539c0ff"] ;
3 -> 4 ;
5 [label=<gini = 0.0<br/>samples = 7<br/>value = [0, 0, 0, 0, 0, 0, 7, 0, 0, 0]<br/>class = c6>, fillcolor="#3c39e5ff"] ;
3 -> 5 ;
6 [label=<gini = 0.0<br/>samples = 4<br/>value = [0, 4, 0, 0, 0, 0, 0, 0, 0, 0]<br/>class = c1>, fillcolor="#e2e539ff"] ;
2 -> 6 ;
7 [label=<gini = 0.0<br/>samples = 6<br/>value = [0, 0, 0, 0, 0, 6, 0, 0, 0, 0]<br/>class = c5>, fillcolor="#399de5ff"] ;
1 -> 7 ;
8 [label=<f0 &le; 0.977<br/>gini = 0.816<br/>samples = 28<br/>value = [5.0, 0.0, 5.0, 4.0, 5.0, 0.0, 0.0, 2.0, 0.0, 7.0]<br/>class = c9>, fillcolor="#e5395816"] ;
0 -> 8 [labeldistance=2.5, labelangle=-45, headlabel="False"] ;
9 [label=<f1 &le; -6.299<br/>gini = 0.727<br/>samples = 17<br/>value = [5.0, 0.0, 5.0, 0.0, 5.0, 0.0, 0.0, 2.0, 0.0, 0.0]<br/>class = c0>, fillcolor="#e5813900"] ;
8 -> 9 ;
10 [label=<gini = 0.0<br/>samples = 5<br/>value = [0, 0, 5, 0, 0, 0, 0, 0, 0, 0]<br/>class = c2>, fillcolor="#7be539ff"] ;
9 -> 10 ;
11 [label=<f7 &le; -0.809<br/>gini = 0.625<br/>samples = 12<br/>value = [5.0, 0.0, 0.0, 0.0, 5.0, 0.0, 0.0, 2.0, 0.0, 0.0]<br/>class = c0>, fillcolor="#e5813900"] ;
9 -> 11 ;
12 [label=<f1 &le; -0.863<br/>gini = 0.5<br/>samples = 10<br/>value = [5.0, 0.0, 0.0, 0.0, 5.0, 0.0, 0.0, 0.0, 0.0, 0.0]<br/>class = c0>, fillcolor="#e5813900"] ;
11 -> 12 ;
13 [label=<gini = 0.0<br/>samples = 5<br/>value = [5, 0, 0, 0, 0, 0, 0, 0, 0, 0]<br/>class = c0>, fillcolor="#e58139ff"] ;
12 -> 13 ;
14 [label=<gini = 0.0<br/>samples = 5<br/>value = [0, 0, 0, 0, 5, 0, 0, 0, 0, 0]<br/>class = c4>, fillcolor="#39e5c5ff"] ;
12 -> 14 ;
15 [label=<gini = 0.0<br/>samples = 2<br/>value = [0, 0, 0, 0, 0, 0, 0, 2, 0, 0]<br/>class = c7>, fillcolor="#a339e5ff"] ;
11 -> 15 ;
16 [label=<f3 &le; 1.0<br/>gini = 0.463<br/>samples = 11<br/>value = [0.0, 0.0, 0.0, 4.0, 0.0, 0.0, 0.0, 0.0, 0.0, 7.0]<br/>class = c9>, fillcolor="#e539586d"] ;
8 -> 16 ;
17 [label=<gini = 0.346<br/>samples = 9<br/>value = [0, 0, 0, 2, 0, 0, 0, 0, 0, 7]<br/>class = c9>, fillcolor="#e53958b6"] ;
16 -> 17 ;
18 [label=<gini = 0.0<br/>samples = 2<br/>value = [0, 0, 0, 2, 0, 0, 0, 0, 0, 0]<br/>class = c3>, fillcolor="#39e55eff"] ;
16 -> 18 ;
}
