digraph Tree {
node [shape=box, style="filled, rounded", color="black", fontname=helvetica] ;
edge [fontname=helvetica] ;
0 [label=<f6 &le; -3.336<br/>gini = 0.881<br/>samples = 50<br/>value = [5.0, 5.0, 3.0, 1.0, 4.0, 9.0, 8.0, 5.0, 4.0, 6.0]<br/>class = c5>, fillcolor="#399de506"] ;
1 [label=<f2 &le; 1.967<br/>gini = 0.725<br/>samples = 26<br/>value = [0.0, 5.0, 0.0, 0.0, 0.0, 9.0, 8.0, 0.0, 4.0, 0.0]<br/>class = c5>, fillcolor="#399de50e"] ;
0 -> 1 [labeldistance=2.5, labelangle=45, headlabel="True"] ;
2 [label=<f5 &le; -1.331<br/>gini = 0.637<br/>samples = 17<br/>value = [0.0, 5.0, 0.0, 0.0, 0.0, 0.0, 8.0, 0.0, 4.0, 0.0]<br/>class = c6>, fillcolor="#3c39e540"] ;
1 -> 2 ;
3 [label=<f1 &le; 5.038<br/>gini = 0.444<br/>samples = 12<br/>value = [0.0, 0.0, 0.0, 0.0, 0.0, 0.0, 8.0, 0.0, 4.0, 0.0]<br/>class = c6>, fillcolor="#3c39e580"] ;
2 -> 3 ;
4 [label=<gini = 0.0<br/>samples = 4<br/>value = [0, 0, 0, 0, 0, 0, 0, 0, 4, 0]<br/>class = c8>, fillcolor="#e539c0ff"] ;
3 -> 4 ;
5 [label=<gini = 0.0<br/>samples = 8<br/>value = [0, 0, 0, 0, 0, 0, 8, 0, 0, 0]<br/>class = c6>, fillcolor="#3c39e5ff"] ;
3 -> 5 ;
6 [label=<gini = 0.0<br/>samples = 5<br/>value = [0, 5, 0, 0, 0, 0, 0, 0, 0, 0]<br/>class = c1>, fillcolor="#e2e539ff"] ;
2 -> 6 ;
7 [label=<gini = 0.0<br/>samples = 9<br/>value = [0, 0, 0, 0, 0, 9, 0, 0, 0, 0]<br/>class = c5>, fillcolor="#399de5ff"] ;
1 -> 7 ;
8 [label=<f0 &le; 0.487<br/>gini = 0.806<br/>samples = 24<br/>value = [5.0, 0.0, 3.0, 1.0, 4.0, 0.0, 0.0, 5.0, 0.0, 6.0]<br/>class = c9>, fillcolor="#e539580d"] ;
0 -> 8 [labeldistance=2.5, labelangle=-45, headlabel="False"] ;
9 [label=<f1 &le; -6.944<br/>gini = 0.74<br/>samples = 17<br/>value = [5.0, 0.0, 3.0, 0.0, 4.0, 0.0, 0.0, 5.0, 0.0, 0.0]<br/>class = c0>, fillcolor="#e5813900"] ;
8 -> 9 ;
10 [label=<gini = 0.0<br/>samples = 3<br/>value = [0, 0, 3, 0, 0, 0, 0, 0, 0, 0]<br/>class = c2>, fillcolor="#7be539ff"] ;
9 -> 10 ;
11 [label=<f7 &le; -1.177<br/>gini = 0.663<br/>samples = 14<br/>value = [5.0, 0.0, 0.0, 0.0, 4.0, 0.0, 0.0, 5.0, 0.0, 0.0]<br/>class = c0>, fillcolor="#e5813900"] ;
9 -> 11 ;
12 [label=<f1 &le; -1.089<br/>gini = 0.494<br/>samples = 9<br/>value = [5.0, 0.0, 0.0, 0.0, 4.0, 0.0, 0.0, 0.0, 0.0, 0.0]<br/>class = c0>, fillcolor="#e5813933"] ;
11 -> 12 ;
13 [label=<gini = 0.0<br/>samples = 5<br/>value = [5, 0, 0, 0, 0, 0, 0, 0, 0, 0]<br/>class = c0>, fillcolor="#e58139ff"] ;
12 -> 13 ;
14 [label=<gini = 0.0<br/>samples = 4<br/>value = [0, 0, 0, 0, 4, 0, 0, 0, 0, 0]<br/>class = c4>, fillcolor="#39e5c5ff"] ;
12 -> 14 ;
15 [label=<gini = 0.0<br/>samples = 5<br/>value = [0, 0, 0, 0, 0, 0, 0, 5, 0, 0]<br/>class = c7>, fillcolor="#a339e5ff"] ;
11 -> 15 ;
16 [label=<f3 &le; -2.323<br/>gini = 0.245<br/>samples = 7<br/>value = [0.0, 0.0, 0.0, 1.0, 0.0, 0.0, 0.0, 0.0, 0.0, 6.0]<br/>class = c9>, fillcolor="#e53958d5"] ;
8 -> 16 ;
18 [label=<gini = 0.0<br/>samples = 1<br/>value = [0, 0, 0, 0, 0, 0, 0, 0, 0, 1]<br/>class = c9>, fillcolor="#e53958ff"] ;
16 -> 18 ;
17 [label=<gini = 0.278<br/>samples = 6<br/>value = [0, 0, 0, 1, 0, 0, 0, 0, 0, 5]<br/>class = c9>, fillcolor="#e53958cc"] ;
16 -> 17 ;
}
