digraph Tree {
node [shape=box, style="filled, rounded", color="black", fontname=helvetica] ;
edge [fontname=helvetica] ;
0 [label=<f6 &le; -4.545<br/>gini = 0.874<br/>samples = 50<br/>value = [4.0, 0.0, 6.0, 8.0, 9.0, 7.0, 5.0, 4.0, 2.0, 5.0]<br/>class = c4>, fillcolor="#39e5c506"] ;
1 [label=<f2 &le; 2.119<br/>gini = 0.602<br/>samples = 14<br/>value = [0.0, 0.0, 0.0, 0.0, 0.0, 7.0, 5.0, 0.0, 2.0, 0.0]<br/>class = c5>, fillcolor="#399de539"] ;
0 -> 1 [labeldistance=2.5, labelangle=45, headlabel="True"] ;
2 [label=<f5 &le; -8.644<br/>gini = 0.408<br/>samples = 7<br/>value = [0.0, 0.0, 0.0, 0.0, 0.0, 0.0, 5.0, 0.0, 2.0, 0.0]<br/>class = c6>, fillcolor="#3c39e599"] ;
1 -> 2 ;
6 [label=<gini = 0.0<br/>samples = 1<br/>value = [0, 0, 0, 0, 0, 0, 1, 0, 0, 0]<br/>class = c6>, fillcolor="#3c39e5ff"] ;
2 -> 6 ;
3 [label=<f1 &le; 4.1<br/>gini = 0.444<br/>samples = 6<br/>value = [0.0, 0.0, 0.0, 0.0, 0.0, 0.0, 4.0, 0.0, 2.0, 0.0]<br/>class = c6>, fillcolor="#3c39e580"] ;
2 -> 3 ;
4 [label=<gini = 0.0<br/>samples = 2<br/>value = [0, 0, 0, 0, 0, 0, 0, 0, 2, 0]<br/>class = c8>, fillcolor="#e539c0ff"] ;
3 -> 4 ;
5 [label=<gini = 0.0<br/>samples = 4<br/>value = [0, 0, 0, 0, 0, 0, 4, 0, 0, 0]<br/>class = c6>, fillcolor="#3c39e5ff"] ;
3 -> 5 ;
7 [label=<gini = 0.0<br/>samples = 7<br/>value = [0, 0, 0, 0, 0, 7, 0, 0, 0, 0]<br/>class = c5>, fillcolor="#399de5ff"] ;
1 -> 7 ;
8 [label=<f0 &le; 0.695<br/>gini = 0.816<br/>samples = 36<br/>value = [4.0, 0.0, 6.0, 8.0, 9.0, 0.0, 0.0, 4.0, 0.0, 5.0]<br/>class = c4>, fillcolor="#39e5c509"] ;
0 -> 8 [labeldistance=2.5, labelangle=-45, headlabel="False"] ;
9 [label=<f1 &le; -6.89<br/>gini = 0.718<br/>samples = 23<br/>value = [4.0, 0.0, 6.0, 0.0, 9.0, 0.0, 0.0, 4.0, 0.0, 0.0]<br/>class = c4>, fillcolor="#39e5c52d"] ;
8 -> 9 ;
10 [label=<gini = 0.0<br/>samples = 6<br/>value = [0, 0, 6, 0, 0, 0, 0, 0, 0, 0]<br/>class = c2>, fillcolor="#7be539ff"] ;
9 -> 10 ;
11 [label=<f7 &le; -0.401<br/>gini = 0.609<br/>samples = 17<br/>value = [4.0, 0.0, 0.0, 0.0, 9.0, 0.0, 0.0, 4.0, 0.0, 0.0]<br/>class = c4>, fillcolor="#39e5c562"] ;
9 -> 11 ;
12 [label=<f1 &le; -1.402<br/>gini = 0.426<br/>samples = 13<br/>value = [4.0, 0.0, 0.0, 0.0, 9.0, 0.0, 0.0, 0.0, 0.0, 0.0]<br/>class = c4>, fillcolor="#39e5c58e"] ;
11 -> 12 ;
13 [label=<gini = 0.0<br/>samples = 4<br/>value = [4, 0, 0, 0, 0, 0, 0, 0, 0, 0]<br/>class = c0>, fillcolor="#e58139ff"] ;
12 -> 13 ;
14 [label=<gini = 0.0<br/>samples = 9<br/>value = [0, 0, 0, 0, 9, 0, 0, 0, 0, 0]<br/>class = c4>, fillcolor="#39e5c5ff"] ;
12 -> 14 ;
15 [label=<gini = 0.0<br/>samples = 4<br/>value = [0, 0, 0, 0, 0, 0, 0, 4, 0, 0]<br/>class = c7>, fillcolor="#a339e5ff"] ;
11 -> 15 ;
16 [label=<f3 &le; 0.101<br/>gini = 0.473<br/>samples = 13<br/>value = [0.0, 0.0, 0.0, 8.0, 0.0, 0.0, 0.0, 0.0, 0.0, 5.0]<br/>class = c3>, fillcolor="#39e55e60"] ;
8 -> 16 ;
17 [label=<gini = 0.0<br/>samples = 5<br/>value = [0, 0, 0, 0, 0, 0, 0, 0, 0, 5]<br/>class = c9>, fillcolor="#e53958ff"] ;
16 -> 17 ;
18 [label=<gini = 0.0<br/>samples = 8<br/>value = [0, 0, 0, 8, 0, 0, 0, 0, 0, 0]<br/>class = c3>, fillcolor="#39e55eff"] ;
16 -> 18 ;
}
