digraph Tree {
node [shape=box, style="filled, rounded", color="black", fontname=helvetica] ;
edge [fontname=helvetica] ;
0 [label=<f6 &le; -3.441<br/>gini = 0.876<br/>samples = 50<br/>value = [6.0, 3.0, 6.0, 2.0, 5.0, 0.0, 6.0, 6.0, 8.0, 8.0]<br/>class = c8>, fillcolor="#e539c000"] ;
1 [label=<f2 &le; -9.169<br/>gini = 0.623<br/>samples = 17<br/>value = [0.0, 3.0, 0.0, 0.0, 0.0, 0.0, 6.0, 0.0, 8.0, 0.0]<br/>class = c8>, fillcolor="#e539c02e"] ;
0 -> 1 [labeldistance=2.5, labelangle=45, headlabel="True"] ;
7 [label=<gini = 0.0<br/>samples = 1<br/>value = [0, 1, 0, 0, 0, 0, 0, 0, 0, 0]<br/>class = c1>, fillcolor="#e2e539ff"] ;
1 -> 7 ;
2 [label=<f5 &le; -1.527<br/>gini = 0.594<br/>samples = 16<br/>value = [0.0, 2.0, 0.0, 0.0, 0.0, 0.0, 6.0, 0.0, 8.0, 0.0]<br/>class = c8>, fillcolor="#e539c033"] ;
1 -> 2 ;
3 [label=<f1 &le; 4.818<br/>gini = 0.49<br/>samples = 14<br/>value = [0.0, 0.0, 0.0, 0.0, 0.0, 0.0, 6.0, 0.0, 8.0, 0.0]<br/>class = c8>, fillcolor="#e539c040"] ;
2 -> 3 ;
4 [label=<gini = 0.0<br/>samples = 8<br/>value = [0, 0, 0, 0, 0, 0, 0, 0, 8, 0]<br/>class = c8>, fillcolor="#e539c0ff"] ;
3 -> 4 ;
5 [label=<gini = 0.0<br/>samples = 6<br/>value = [0, 0, 0, 0, 0, 0, 6, 0, 0, 0]<br/>class = c6>, fillcolor="#3c39e5ff"] ;
3 -> 5 ;
6 [label=<gini = 0.0<br/>samples = 2<br/>value = [0, 2, 0, 0, 0, 0, 0, 0, 0, 0]<br/>class = c1>, fillcolor="#e2e539ff"] ;
2 -> 6 ;
8 [label=<f0 &le; 0.702<br/>gini = 0.815<br/>samples = 33<br/>value = [6.0, 0.0, 6.0, 2.0, 5.0, 0.0, 0.0, 6.0, 0.0, 8.0]<br/>class = c9>, fillcolor="#e5395813"] ;
0 -> 8 [labeldistance=2.5, labelangle=-45, headlabel="False"] ;
9 [label=<f1 &le; -5.926<br/>gini = 0.749<br/>samples = 23<br/>value = [6.0, 0.0, 6.0, 0.0, 5.0, 0.0, 0.0, 6.0, 0.0, 0.0]<br/>class = c0>, fillcolor="#e5813900"] ;
8 -> 9 ;
10 [label=<gini = 0.0<br/>samples = 6<br/>value = [0, 0, 6, 0, 0, 0, 0, 0, 0, 0]<br/>class = c2>, fillcolor="#7be539ff"] ;
9 -> 10 ;
11 [label=<f7 &le; 6.752<br/>gini = 0.664<br/>samples = 17<br/>value = [6.0, 0.0, 0.0, 0.0, 5.0, 0.0, 0.0, 6.0, 0.0, 0.0]<br/>class = c0>, fillcolor="#e5813900"] ;
9 -> 11 ;
15 [label=<gini = 0.643<br/>samples = 14<br/>value = [5, 0, 0, 0, 3, 0, 0, 6, 0, 0]<br/>class = c7>, fillcolor="#a339e51c"] ;
11 -> 15 ;
12 [label=<f1 &le; -1.389<br/>gini = 0.444<br/>samples = 3<br/>value = [1.0, 0.0, 0.0, 0.0, 2.0, 0.0, 0.0, 0.0, 0.0, 0.0]<br/>class = c4>, fillcolor="#39e5c580"] ;
11 -> 12 ;
13 [label=<gini = 0.0<br/>samples = 1<br/>value = [1, 0, 0, 0, 0, 0, 0, 0, 0, 0]<br/>class = c0>, fillcolor="#e58139ff"] ;
12 -> 13 ;
14 [label=<gini = 0.0<br/>samples = 2<br/>value = [0, 0, 0, 0, 2, 0, 0, 0, 0, 0]<br/>class = c4>, fillcolor="#39e5c5ff"] ;
12 -> 14 ;
16 [label=<f3 &le; 0.231<br/>gini = 0.32<br/>samples = 10<br/>value = [0.0, 0.0, 0.0, 2.0, 0.0, 0.0, 0.0, 0.0, 0.0, 8.0]<br/>class = c9>, fillcolor="#e53958bf"] ;
8 -> 16 ;
17 [label=<gini = 0.0<br/>samples = 8<br/>value = [0, 0, 0, 0, 0, 0, 0, 0, 0, 8]<br/>class = c9>, fillcolor="#e53958ff"] ;
16 -> 17 ;
18 [label=<gini = 0.0<br/>samples = 2<br/>value = [0, 0, 0, 2, 0, 0, 0, 0, 0, 0]<br/>class = c3>, fillcolor="#39e55eff"] ;
16 -> 18 ;
}
