digraph Tree {
node [shape=box, style="filled, rounded", color="black", fontname=helvetica] ;
edge [fontname=helvetica] ;
0 [label=<f6 &le; -3.383<br/>gini = 0.9<br/>samples = 50<br/>value = [1, 0, 1, 2, 5, 0, 3, 5, 29, 4]<br/>class = c8>, fillcolor="#e539c088"] ;
1 [label=<f1 &le; 4.785<br/>gini = 0.5<br/>samples = 32<br/>value = [0, 0, 0, 0, 0, 0, 3, 0, 29, 0]<br/>class = c8>, fillcolor="#e539c0e5"] ;
0 -> 1 [labeldistance=2.5, labelangle=45, headlabel="True"] ;
2 [label=<gini = 0.0<br/>samples = 29<br/>value = [0, 0, 0, 0, 0, 0, 0, 0, 29, 0]<br/>class = c8>, fillcolor="#e539c0ff"] ;
1 -> 2 ;
3 [label=<gini = 0.0<br/>samples = 3<br/>value = [0, 0, 0, 0, 0, 0, 3, 0, 0, 0]<br/>class = c6>, fillcolor="#3c39e5ff"] ;
1 -> 3 ;
4 [label=<f0 &le; 0.564<br/>gini = 0.833<br/>samples = 18<br/>value = [1, 0, 1, 2, 5, 0, 0, 5, 0, 4]<br/>class = c4>, fillcolor="#39e5c500"] ;
0 -> 4 [labeldistance=2.5, labelangle=-45, headlabel="False"] ;
5 [label=<f1 &le; -6.668<br/>gini = 0.75<br/>samples = 12<br/>value = [1, 0, 1, 0, 5, 0, 0, 5, 0, 0]<br/>class = c4>, fillcolor="#39e5c500"] ;
4 -> 5 ;
6 [label=<gini = 0.0<br/>samples = 1<br/>value = [0, 0, 1, 0, 0, 0, 0, 0, 0, 0]<br/>class = c2>, fillcolor="#7be539ff"] ;
5 -> 6 ;
7 [label=<f7 &le; -0.983<br/>gini = 0.666<br/>samples = 11<br/>value = [1, 0, 0, 0, 5, 0, 0, 5, 0, 0]<br/>class = c4>, fillcolor="#39e5c500"] ;
5 -> 7 ;
8 [label=<f1 &le; -0.889<br/>gini = 0.498<br/>samples = 6<br/>value = [1, 0, 0, 0, 5, 0, 0, 0, 0, 0]<br/>class = c4>, fillcolor="#39e5c5cc"] ;
7 -> 8 ;
9 [label=<gini = 0.0<br/>samples = 1<br/>value = [1, 0, 0, 0, 0, 0, 0, 0, 0, 0]<br/>class = c0>, fillcolor="#e58139ff"] ;
8 -> 9 ;
10 [label=<gini = 0.0<br/>samples = 5<br/>value = [0, 0, 0, 0, 5, 0, 0, 0, 0, 0]<br/>class = c4>, fillcolor="#39e5c5ff"] ;
8 -> 10 ;
11 [label=<gini = 0.0<br/>samples = 5<br/>value = [0, 0, 0, 0, 0, 0, 0, 5, 0, 0]<br/>class = c7>, fillcolor="#a339e5ff"] ;
7 -> 11 ;
12 [label=<f3 &le; 0.087<br/>gini = 0.5<br/>samples = 6<br/>value = [0, 0, 0, 2, 0, 0, 0, 0, 0, 4]<br/>class = c9>, fillcolor="#e539587f"] ;
4 -> 12 ;
13 [label=<gini = 0.0<br/>samples = 4<br/>value = [0, 0, 0, 0, 0, 0, 0, 0, 0, 4]<br/>class = c9>, fillcolor="#e53958ff"] ;
12 -> 13 ;
14 [label=<gini = 0.0<br/>samples = 2<br/>value = [0, 0, 0, 2, 0, 0, 0, 0, 0, 0]<br/>class = c3>, fillcolor="#39e55eff"] ;
12 -> 14 ;
}
