digraph Tree {
node [shape=box, style="filled, rounded", color="black", fontname=helvetica] ;
edge [fontname=helvetica] ;
0 [label=<f6 &le; -3.383<br/>gini = 0.9<br/>samples = 50<br/>value = [1, 27, 1, 4, 2, 4, 3, 1, 3, 4]<br/>class = c1>, fillcolor="#e2e53980"] ;
1 [label=<f2 &le; 1.905<br/>gini = 0.75<br/>samples = 37<br/>value = [0, 27, 0, 0, 0, 4, 3, 0, 3, 0]<br/>class = c1>, fillcolor="#e2e539b2"] ;
0 -> 1 [labeldistance=2.5, labelangle=45, headlabel="True"] ;
2 [label=<f5 &le; -0.958<br/>gini = 0.667<br/>samples = 33<br/>value = [0, 27, 0, 0, 0, 0, 3, 0, 3, 0]<br/>class = c1>, fillcolor="#e2e539cc"] ;
1 -> 2 ;
3 [label=<f1 &le; 4.785<br/>gini = 0.5<br/>samples = 6<br/>value = [0, 0, 0, 0, 0, 0, 3, 0, 3, 0]<br/>class = c6>, fillcolor="#3c39e500"] ;
2 -> 3 ;
4 [label=<gini = 0.0<br/>samples = 3<br/>value = [0, 0, 0, 0, 0, 0, 0, 0, 3, 0]<br/>class = c8>, fillcolor="#e539c0ff"] ;
3 -> 4 ;
5 [label=<gini = 0.0<br/>samples = 3<br/>value = [0, 0, 0, 0, 0, 0, 3, 0, 0, 0]<br/>class = c6>, fillcolor="#3c39e5ff"] ;
3 -> 5 ;
6 [label=<gini = 0.0<br/>samples = 27<br/>value = [0, 27, 0, 0, 0, 0, 0, 0, 0, 0]<br/>class = c1>, fillcolor="#e2e539ff"] ;
2 -> 6 ;
7 [label=<gini = 0.0<br/>samples = 4<br/>value = [0, 0, 0, 0, 0, 4, 0, 0, 0, 0]<br/>class = c5>, fillcolor="#399de5ff"] ;
1 -> 7 ;
8 [label=<f0 &le; 0.564<br/>gini = 0.833<br/>samples = 13<br/>value = [1, 0, 1, 4, 2, 0, 0, 1, 0, 4]<br/>class = c3>, fillcolor="#39e55e00"] ;
0 -> 8 [labeldistance=2.5, labelangle=-45, headlabel="False"] ;
9 [label=<f1 &le; -6.668<br/>gini = 0.75<br/>samples = 5<br/>value = [1, 0, 1, 0, 2, 0, 0, 1, 0, 0]<br/>class = c4>, fillcolor="#39e5c540"] ;
8 -> 9 ;
10 [label=<gini = 0.0<br/>samples = 1<br/>value = [0, 0, 1, 0, 0, 0, 0, 0, 0, 0]<br/>class = c2>, fillcolor="#7be539ff"] ;
9 -> 10 ;
11 [label=<f7 &le; -0.983<br/>gini = 0.666<br/>samples = 4<br/>value = [1, 0, 0, 0, 2, 0, 0, 1, 0, 0]<br/>class = c4>, fillcolor="#39e5c555"] ;
9 -> 11 ;
12 [label=<f1 &le; -0.889<br/>gini = 0.498<br/>samples = 3<br/>value = [1, 0, 0, 0, 2, 0, 0, 0, 0, 0]<br/>class = c4>, fillcolor="#39e5c57f"] ;
11 -> 12 ;
13 [label=<gini = 0.0<br/>samples = 1<br/>value = [1, 0, 0, 0, 0, 0, 0, 0, 0, 0]<br/>class = c0>, fillcolor="#e58139ff"] ;
12 -> 13 ;
14 [label=<gini = 0.0<br/>samples = 2<br/>value = [0, 0, 0, 0, 2, 0, 0, 0, 0, 0]<br/>class = c4>, fillcolor="#39e5c5ff"] ;
12 -> 14 ;
15 [label=<gini = 0.0<br/>samples = 1<br/>value = [0, 0, 0, 0, 0, 0, 0, 1, 0, 0]<br/>class = c7>, fillcolor="#a339e5ff"] ;
11 -> 15 ;
16 [label=<f3 &le; 0.087<br/>gini = 0.5<br/>samples = 8<br/>value = [0, 0, 0, 4, 0, 0, 0, 0, 0, 4]<br/>class = c3>, fillcolor="#39e55e00"] ;
8 -> 16 ;
17 [label=<gini = 0.0<br/>samples = 4<br/>value = [0, 0, 0, 0, 0, 0, 0, 0, 0, 4]<br/>class = c9>, fillcolor="#e53958ff"] ;
16 -> 17 ;
18 [label=<gini = 0.0<br/>samples = 4<br/>value = [0, 0, 0, 4, 0, 0, 0, 0, 0, 0]<br/>class = c3>, fillcolor="#39e55eff"] ;
16 -> 18 ;
}
