digraph Tree {
node [shape=box, style="filled, rounded", color="black", fontname=helvetica] ;
edge [fontname=helvetica] ;
0 [label=<f6 &le; -3.114<br/>gini = 0.9<br/>samples = 4000<br/>value = [429.0, 420.0, 401.0, 395.0, 385.0, 403.0, 393.0, 400.0, 374.0<br/>400.0]<br/>class = c0>, fillcolor="#e5813901"] ;
1 [label=<f2 &le; 1.802<br/>gini = 0.75<br/>samples = 1590<br/>value = [0.0, 420.0, 0.0, 0.0, 0.0, 403.0, 393.0, 0.0, 374.0, 0.0]<br/>class = c1>, fillcolor="#e2e53904"] ;
0 -> 1 [labeldistance=2.5, labelangle=45, headlabel="True"] ;
2 [label=<f5 &le; -1.284<br/>gini = 0.666<br/>samples = 1187<br/>value = [0.0, 420.0, 0.0, 0.0, 0.0, 0.0, 393.0, 0.0, 374.0, 0.0]<br/>class = c1>, fillcolor="#e2e53909"] ;
1 -> 2 ;
3 [label=<f1 &le; 4.667<br/>gini = 0.5<br/>samples = 767<br/>value = [0.0, 0.0, 0.0, 0.0, 0.0, 0.0, 393.0, 0.0, 374.0, 0.0]<br/>class = c6>, fillcolor="#3c39e50c"] ;
2 -> 3 ;
4 [label=<gini = 0.0<br/>samples = 374<br/>value = [0, 0, 0, 0, 0, 0, 0, 0, 374, 0]<br/>class = c8>, fillcolor="#e539c0ff"] ;
3 -> 4 ;
5 [label=<gini = 0.0<br/>samples = 393<br/>value = [0, 0, 0, 0, 0, 0, 393, 0, 0, 0]<br/>class = c6>, fillcolor="#3c39e5ff"] ;
3 -> 5 ;
6 [label=<gini = 0.0<br/>samples = 420<br/>value = [0, 420, 0, 0, 0, 0, 0, 0, 0, 0]<br/>class = c1>, fillcolor="#e2e539ff"] ;
2 -> 6 ;
7 [label=<gini = 0.0<br/>samples = 403<br/>value = [0, 0, 0, 0, 0, 403, 0, 0, 0, 0]<br/>class = c5>, fillcolor="#399de5ff"] ;
1 -> 7 ;
8 [label=<f0 &le; 1.032<br/>gini = 0.833<br/>samples = 2410<br/>value = [429.0, 0.0, 401.0, 395.0, 385.0, 0.0, 0.0, 400.0, 0.0, 400.0]<br/>class = c0>, fillcolor="#e5813904"] ;
0 -> 8 [labeldistance=2.5, labelangle=-45, headlabel="False"] ;
9 [label=<f1 &le; -6.57<br/>gini = 0.772<br/>samples = 1645<br/>value = [374.0, 0.0, 401.0, 3.0, 385.0, 0.0, 0.0, 400.0, 0.0, 82.0]<br/>class = c2>, fillcolor="#7be53900"] ;
8 -> 9 ;
10 [label=<gini = 0.0<br/>samples = 401<br/>value = [0, 0, 401, 0, 0, 0, 0, 0, 0, 0]<br/>class = c2>, fillcolor="#7be539ff"] ;
9 -> 10 ;
11 [label=<f7 &le; -1.543<br/>gini = 0.706<br/>samples = 1244<br/>value = [374.0, 0.0, 0.0, 3.0, 385.0, 0.0, 0.0, 400.0, 0.0, 82.0]<br/>class = c7>, fillcolor="#a339e504"] ;
9 -> 11 ;
12 [label=<f1 &le; -0.865<br/>gini = 0.5<br/>samples = 759<br/>value = [374.0, 0.0, 0.0, 0.0, 385.0, 0.0, 0.0, 0.0, 0.0, 0.0]<br/>class = c4>, fillcolor="#39e5c507"] ;
11 -> 12 ;
13 [label=<gini = 0.0<br/>samples = 374<br/>value = [374, 0, 0, 0, 0, 0, 0, 0, 0, 0]<br/>class = c0>, fillcolor="#e58139ff"] ;
12 -> 13 ;
14 [label=<gini = 0.0<br/>samples = 385<br/>value = [0, 0, 0, 0, 385, 0, 0, 0, 0, 0]<br/>class = c4>, fillcolor="#39e5c5ff"] ;
12 -> 14 ;
15 [label=<gini = 0.291<br/>samples = 485<br/>value = [0, 0, 0, 3, 0, 0, 0, 400, 0, 82]<br/>class = c7>, fillcolor="#a339e5c9"] ;
11 -> 15 ;
16 [label=<f3 &le; -0.025<br/>gini = 0.559<br/>samples = 765<br/>value = [55.0, 0.0, 0.0, 392.0, 0.0, 0.0, 0.0, 0.0, 0.0, 318.0]<br/>class = c3>, fillcolor="#39e55e2a"] ;
8 -> 16 ;
17 [label=<gini = 0.251<br/>samples = 373<br/>value = [55, 0, 0, 0, 0, 0, 0, 0, 0, 318]<br/>class = c9>, fillcolor="#e53958d3"] ;
16 -> 17 ;
18 [label=<gini = 0.0<br/>samples = 392<br/>value = [0, 0, 0, 392, 0, 0, 0, 0, 0, 0]<br/>class = c3>, fillcolor="#39e55eff"] ;
16 -> 18 ;
}
