digraph Tree {
node [shape=box, style="filled, rounded", color="black", fontname=helvetica] ;
edge [fontname=helvetica] ;
0 [label=<f6 &le; -3.646<br/>gini = 0.9<br/>samples = 4000<br/>value = [362.0, 388.0, 403.0, 422.0, 409.0, 420.0, 365.0, 388.0, 431.0<br/>412.0]<br/>class = c8>, fillcolor="#e539c001"] ;
1 [label=<f2 &le; 1.582<br/>gini = 0.749<br/>samples = 1604<br/>value = [0.0, 388.0, 0.0, 0.0, 0.0, 420.0, 365.0, 0.0, 431.0, 0.0]<br/>class = c8>, fillcolor="#e539c002"] ;
0 -> 1 [labeldistance=2.5, labelangle=45, headlabel="True"] ;
2 [label=<f5 &le; -1.159<br/>gini = 0.665<br/>samples = 1184<br/>value = [0.0, 388.0, 0.0, 0.0, 0.0, 0.0, 365.0, 0.0, 431.0, 0.0]<br/>class = c8>, fillcolor="#e539c00e"] ;
1 -> 2 ;
3 [label=<f1 &le; 4.665<br/>gini = 0.497<br/>samples = 796<br/>value = [0.0, 0.0, 0.0, 0.0, 0.0, 0.0, 365.0, 0.0, 431.0, 0.0]<br/>class = c8>, fillcolor="#e539c027"] ;
2 -> 3 ;
4 [label=<gini = 0.0<br/>samples = 431<br/>value = [0, 0, 0, 0, 0, 0, 0, 0, 431, 0]<br/>class = c8>, fillcolor="#e539c0ff"] ;
3 -> 4 ;
5 [label=<gini = 0.0<br/>samples = 365<br/>value = [0, 0, 0, 0, 0, 0, 365, 0, 0, 0]<br/>class = c6>, fillcolor="#3c39e5ff"] ;
3 -> 5 ;
6 [label=<gini = 0.0<br/>samples = 388<br/>value = [0, 388, 0, 0, 0, 0, 0, 0, 0, 0]<br/>class = c1>, fillcolor="#e2e539ff"] ;
2 -> 6 ;
7 [label=<gini = 0.0<br/>samples = 420<br/>value = [0, 0, 0, 0, 0, 420, 0, 0, 0, 0]<br/>class = c5>, fillcolor="#399de5ff"] ;
1 -> 7 ;
8 [label=<f0 &le; 0.533<br/>gini = 0.833<br/>samples = 2396<br/>value = [362.0, 0.0, 403.0, 422.0, 409.0, 0.0, 0.0, 388.0, 0.0, 412.0]<br/>class = c3>, fillcolor="#39e55e01"] ;
0 -> 8 [labeldistance=2.5, labelangle=-45, headlabel="False"] ;
9 [label=<f1 &le; -6.735<br/>gini = 0.749<br/>samples = 1562<br/>value = [362.0, 0.0, 403.0, 0.0, 409.0, 0.0, 0.0, 388.0, 0.0, 0.0]<br/>class = c4>, fillcolor="#39e5c501"] ;
8 -> 9 ;
10 [label=<gini = 0.0<br/>samples = 403<br/>value = [0, 0, 403, 0, 0, 0, 0, 0, 0, 0]<br/>class = c2>, fillcolor="#7be539ff"] ;
9 -> 10 ;
11 [label=<f7 &le; -0.891<br/>gini = 0.666<br/>samples = 1159<br/>value = [362.0, 0.0, 0.0, 0.0, 409.0, 0.0, 0.0, 388.0, 0.0, 0.0]<br/>class = c4>, fillcolor="#39e5c507"] ;
9 -> 11 ;
12 [label=<f1 &le; -1.21<br/>gini = 0.498<br/>samples = 771<br/>value = [362.0, 0.0, 0.0, 0.0, 409.0, 0.0, 0.0, 0.0, 0.0, 0.0]<br/>class = c4>, fillcolor="#39e5c51d"] ;
11 -> 12 ;
13 [label=<gini = 0.0<br/>samples = 362<br/>value = [362, 0, 0, 0, 0, 0, 0, 0, 0, 0]<br/>class = c0>, fillcolor="#e58139ff"] ;
12 -> 13 ;
14 [label=<gini = 0.0<br/>samples = 409<br/>value = [0, 0, 0, 0, 409, 0, 0, 0, 0, 0]<br/>class = c4>, fillcolor="#39e5c5ff"] ;
12 -> 14 ;
15 [label=<gini = 0.0<br/>samples = 388<br/>value = [0, 0, 0, 0, 0, 0, 0, 388, 0, 0]<br/>class = c7>, fillcolor="#a339e5ff"] ;
11 -> 15 ;
16 [label=<f3 &le; 0.064<br/>gini = 0.5<br/>samples = 834<br/>value = [0.0, 0.0, 0.0, 422.0, 0.0, 0.0, 0.0, 0.0, 0.0, 412.0]<br/>class = c3>, fillcolor="#39e55e06"] ;
8 -> 16 ;
17 [label=<gini = 0.0<br/>samples = 412<br/>value = [0, 0, 0, 0, 0, 0, 0, 0, 0, 412]<br/>class = c9>, fillcolor="#e53958ff"] ;
16 -> 17 ;
18 [label=<gini = 0.0<br/>samples = 422<br/>value = [0, 0, 0, 422, 0, 0, 0, 0, 0, 0]<br/>class = c3>, fillcolor="#39e55eff"] ;
16 -> 18 ;
}
