digraph Tree {
node [shape=box, style="filled, rounded", color="black", fontname=helvetica] ;
edge [fontname=helvetica] ;
0 [label=<f6 &le; -3.604<br/>gini = 0.9<br/>samples = 4000<br/>value = [404.0, 396.0, 400.0, 405.0, 407.0, 390.0, 382.0, 379.0, 427.0<br/>410.0]<br/>class = c8>, fillcolor="#e539c001"] ;
1 [label=<f2 &le; 2.238<br/>gini = 0.75<br/>samples = 1595<br/>value = [0.0, 396.0, 0.0, 0.0, 0.0, 390.0, 382.0, 0.0, 427.0, 0.0]<br/>class = c8>, fillcolor="#e539c007"] ;
0 -> 1 [labeldistance=2.5, labelangle=45, headlabel="True"] ;
2 [label=<f5 &le; -0.944<br/>gini = 0.666<br/>samples = 1205<br/>value = [0.0, 396.0, 0.0, 0.0, 0.0, 0.0, 382.0, 0.0, 427.0, 0.0]<br/>class = c8>, fillcolor="#e539c00a"] ;
1 -> 2 ;
3 [label=<f1 &le; 4.372<br/>gini = 0.498<br/>samples = 809<br/>value = [0.0, 0.0, 0.0, 0.0, 0.0, 0.0, 382.0, 0.0, 427.0, 0.0]<br/>class = c8>, fillcolor="#e539c01b"] ;
2 -> 3 ;
4 [label=<gini = 0.0<br/>samples = 427<br/>value = [0, 0, 0, 0, 0, 0, 0, 0, 427, 0]<br/>class = c8>, fillcolor="#e539c0ff"] ;
3 -> 4 ;
5 [label=<gini = 0.0<br/>samples = 382<br/>value = [0, 0, 0, 0, 0, 0, 382, 0, 0, 0]<br/>class = c6>, fillcolor="#3c39e5ff"] ;
3 -> 5 ;
6 [label=<gini = 0.0<br/>samples = 396<br/>value = [0, 396, 0, 0, 0, 0, 0, 0, 0, 0]<br/>class = c1>, fillcolor="#e2e539ff"] ;
2 -> 6 ;
7 [label=<gini = 0.0<br/>samples = 390<br/>value = [0, 0, 0, 0, 0, 390, 0, 0, 0, 0]<br/>class = c5>, fillcolor="#399de5ff"] ;
1 -> 7 ;
8 [label=<f0 &le; 0.687<br/>gini = 0.833<br/>samples = 2405<br/>value = [404.0, 0.0, 400.0, 405.0, 407.0, 0.0, 0.0, 379.0, 0.0, 410.0]<br/>class = c9>, fillcolor="#e5395800"] ;
0 -> 8 [labeldistance=2.5, labelangle=-45, headlabel="False"] ;
9 [label=<f1 &le; -6.586<br/>gini = 0.75<br/>samples = 1590<br/>value = [404.0, 0.0, 400.0, 0.0, 407.0, 0.0, 0.0, 379.0, 0.0, 0.0]<br/>class = c4>, fillcolor="#39e5c501"] ;
8 -> 9 ;
10 [label=<gini = 0.0<br/>samples = 400<br/>value = [0, 0, 400, 0, 0, 0, 0, 0, 0, 0]<br/>class = c2>, fillcolor="#7be539ff"] ;
9 -> 10 ;
11 [label=<f7 &le; -9.967<br/>gini = 0.666<br/>samples = 1190<br/>value = [404.0, 0.0, 0.0, 0.0, 407.0, 0.0, 0.0, 379.0, 0.0, 0.0]<br/>class = c4>, fillcolor="#39e5c501"] ;
9 -> 11 ;
15 [label=<gini = 0.0<br/>samples = 1<br/>value = [0, 0, 0, 0, 1, 0, 0, 0, 0, 0]<br/>class = c4>, fillcolor="#39e5c5ff"] ;
11 -> 15 ;
12 [label=<f1 &le; -0.992<br/>gini = 0.666<br/>samples = 1189<br/>value = [404.0, 0.0, 0.0, 0.0, 406.0, 0.0, 0.0, 379.0, 0.0, 0.0]<br/>class = c4>, fillcolor="#39e5c501"] ;
11 -> 12 ;
13 [label=<gini = 0.0<br/>samples = 404<br/>value = [404, 0, 0, 0, 0, 0, 0, 0, 0, 0]<br/>class = c0>, fillcolor="#e58139ff"] ;
12 -> 13 ;
14 [label=<gini = 0.499<br/>samples = 785<br/>value = [0, 0, 0, 0, 406, 0, 0, 379, 0, 0]<br/>class = c4>, fillcolor="#39e5c511"] ;
12 -> 14 ;
16 [label=<f3 &le; -0.069<br/>gini = 0.5<br/>samples = 815<br/>value = [0.0, 0.0, 0.0, 405.0, 0.0, 0.0, 0.0, 0.0, 0.0, 410.0]<br/>class = c9>, fillcolor="#e5395803"] ;
8 -> 16 ;
17 [label=<gini = 0.0<br/>samples = 410<br/>value = [0, 0, 0, 0, 0, 0, 0, 0, 0, 410]<br/>class = c9>, fillcolor="#e53958ff"] ;
16 -> 17 ;
18 [label=<gini = 0.0<br/>samples = 405<br/>value = [0, 0, 0, 405, 0, 0, 0, 0, 0, 0]<br/>class = c3>, fillcolor="#39e55eff"] ;
16 -> 18 ;
}
