digraph Tree {
node [shape=box, style="filled, rounded", color="black", fontname=helvetica] ;
edge [fontname=helvetica] ;
0 [label=<f6 &le; -3.477<br/>gini = 0.9<br/>samples = 4000<br/>value = [411.0, 417.0, 389.0, 406.0, 388.0, 433.0, 376.0, 379.0, 428.0<br/>373.0]<br/>class = c5>, fillcolor="#399de500"] ;
1 [label=<f2 &le; 1.878<br/>gini = 0.749<br/>samples = 1654<br/>value = [0.0, 417.0, 0.0, 0.0, 0.0, 433.0, 376.0, 0.0, 428.0, 0.0]<br/>class = c5>, fillcolor="#399de501"] ;
0 -> 1 [labeldistance=2.5, labelangle=45, headlabel="True"] ;
2 [label=<f5 &le; -1.539<br/>gini = 0.666<br/>samples = 1221<br/>value = [0.0, 417.0, 0.0, 0.0, 0.0, 0.0, 376.0, 0.0, 428.0, 0.0]<br/>class = c8>, fillcolor="#e539c003"] ;
1 -> 2 ;
3 [label=<f1 &le; 4.722<br/>gini = 0.498<br/>samples = 804<br/>value = [0.0, 0.0, 0.0, 0.0, 0.0, 0.0, 376.0, 0.0, 428.0, 0.0]<br/>class = c8>, fillcolor="#e539c01f"] ;
2 -> 3 ;
4 [label=<gini = 0.0<br/>samples = 428<br/>value = [0, 0, 0, 0, 0, 0, 0, 0, 428, 0]<br/>class = c8>, fillcolor="#e539c0ff"] ;
3 -> 4 ;
5 [label=<gini = 0.0<br/>samples = 376<br/>value = [0, 0, 0, 0, 0, 0, 376, 0, 0, 0]<br/>class = c6>, fillcolor="#3c39e5ff"] ;
3 -> 5 ;
6 [label=<gini = 0.0<br/>samples = 417<br/>value = [0, 417, 0, 0, 0, 0, 0, 0, 0, 0]<br/>class = c1>, fillcolor="#e2e539ff"] ;
2 -> 6 ;
7 [label=<gini = 0.0<br/>samples = 433<br/>value = [0, 0, 0, 0, 0, 433, 0, 0, 0, 0]<br/>class = c5>, fillcolor="#399de5ff"] ;
1 -> 7 ;
8 [label=<f0 &le; 0.856<br/>gini = 0.833<br/>samples = 2346<br/>value = [411.0, 0.0, 389.0, 406.0, 388.0, 0.0, 0.0, 379.0, 0.0, 373.0]<br/>class = c0>, fillcolor="#e5813901"] ;
0 -> 8 [labeldistance=2.5, labelangle=-45, headlabel="False"] ;
9 [label=<f1 &le; -6.66<br/>gini = 0.75<br/>samples = 1567<br/>value = [411.0, 0.0, 389.0, 0.0, 388.0, 0.0, 0.0, 379.0, 0.0, 0.0]<br/>class = c0>, fillcolor="#e5813905"] ;
8 -> 9 ;
10 [label=<gini = 0.0<br/>samples = 389<br/>value = [0, 0, 389, 0, 0, 0, 0, 0, 0, 0]<br/>class = c2>, fillcolor="#7be539ff"] ;
9 -> 10 ;
11 [label=<f7 &le; -1.028<br/>gini = 0.666<br/>samples = 1178<br/>value = [411.0, 0.0, 0.0, 0.0, 388.0, 0.0, 0.0, 379.0, 0.0, 0.0]<br/>class = c0>, fillcolor="#e5813907"] ;
9 -> 11 ;
12 [label=<f1 &le; -0.99<br/>gini = 0.5<br/>samples = 799<br/>value = [411.0, 0.0, 0.0, 0.0, 388.0, 0.0, 0.0, 0.0, 0.0, 0.0]<br/>class = c0>, fillcolor="#e581390e"] ;
11 -> 12 ;
13 [label=<gini = 0.0<br/>samples = 411<br/>value = [411, 0, 0, 0, 0, 0, 0, 0, 0, 0]<br/>class = c0>, fillcolor="#e58139ff"] ;
12 -> 13 ;
14 [label=<gini = 0.0<br/>samples = 388<br/>value = [0, 0, 0, 0, 388, 0, 0, 0, 0, 0]<br/>class = c4>, fillcolor="#39e5c5ff"] ;
12 -> 14 ;
15 [label=<gini = 0.0<br/>samples = 379<br/>value = [0, 0, 0, 0, 0, 0, 0, 379, 0, 0]<br/>class = c7>, fillcolor="#a339e5ff"] ;
11 -> 15 ;
16 [label=<f3 &le; -0.023<br/>gini = 0.499<br/>samples = 779<br/>value = [0.0, 0.0, 0.0, 406.0, 0.0, 0.0, 0.0, 0.0, 0.0, 373.0]<br/>class = c3>, fillcolor="#39e55e15"] ;
8 -> 16 ;
17 [label=<gini = 0.0<br/>samples = 373<br/>value = [0, 0, 0, 0, 0, 0, 0, 0, 0, 373]<br/>class = c9>, fillcolor="#e53958ff"] ;
16 -> 17 ;
18 [label=<gini = 0.0<br/>samples = 406<br/>value = [0, 0, 0, 406, 0, 0, 0, 0, 0, 0]<br/>class = c3>, fillcolor="#39e55eff"] ;
16 -> 18 ;
}
