digraph Tree {
node [shape=box, style="filled, rounded", color="black", fontname=helvetica] ;
edge [fontname=helvetica] ;
0 [label=<f6 &le; -3.7<br/>gini = 0.892<br/>samples = 4000<br/>value = [415.0, 442.0, 56.0, 434.0, 427.0, 479.0, 406.0, 452.0, 432.0<br/>457.0]<br/>class = c5>, fillcolor="#399de502"] ;
1 [label=<f2 &le; 1.675<br/>gini = 0.749<br/>samples = 1759<br/>value = [0.0, 442.0, 0.0, 0.0, 0.0, 479.0, 406.0, 0.0, 432.0, 0.0]<br/>class = c5>, fillcolor="#399de507"] ;
0 -> 1 [labeldistance=2.5, labelangle=45, headlabel="True"] ;
2 [label=<f5 &le; -1.082<br/>gini = 0.666<br/>samples = 1280<br/>value = [0.0, 442.0, 0.0, 0.0, 0.0, 0.0, 406.0, 0.0, 432.0, 0.0]<br/>class = c1>, fillcolor="#e2e53903"] ;
1 -> 2 ;
3 [label=<f1 &le; 4.594<br/>gini = 0.5<br/>samples = 838<br/>value = [0.0, 0.0, 0.0, 0.0, 0.0, 0.0, 406.0, 0.0, 432.0, 0.0]<br/>class = c8>, fillcolor="#e539c00f"] ;
2 -> 3 ;
4 [label=<gini = 0.0<br/>samples = 432<br/>value = [0, 0, 0, 0, 0, 0, 0, 0, 432, 0]<br/>class = c8>, fillcolor="#e539c0ff"] ;
3 -> 4 ;
5 [label=<gini = 0.0<br/>samples = 406<br/>value = [0, 0, 0, 0, 0, 0, 406, 0, 0, 0]<br/>class = c6>, fillcolor="#3c39e5ff"] ;
3 -> 5 ;
6 [label=<gini = 0.0<br/>samples = 442<br/>value = [0, 442, 0, 0, 0, 0, 0, 0, 0, 0]<br/>class = c1>, fillcolor="#e2e539ff"] ;
2 -> 6 ;
7 [label=<gini = 0.0<br/>samples = 479<br/>value = [0, 0, 0, 0, 0, 479, 0, 0, 0, 0]<br/>class = c5>, fillcolor="#399de5ff"] ;
1 -> 7 ;
8 [label=<f0 &le; 0.636<br/>gini = 0.809<br/>samples = 2241<br/>value = [415.0, 0.0, 56.0, 434.0, 427.0, 0.0, 0.0, 452.0, 0.0, 457.0]<br/>class = c9>, fillcolor="#e5395801"] ;
0 -> 8 [labeldistance=2.5, labelangle=-45, headlabel="False"] ;
9 [label=<f1 &le; -6.279<br/>gini = 0.692<br/>samples = 1350<br/>value = [415.0, 0.0, 56.0, 0.0, 427.0, 0.0, 0.0, 452.0, 0.0, 0.0]<br/>class = c7>, fillcolor="#a339e507"] ;
8 -> 9 ;
10 [label=<gini = 0.0<br/>samples = 56<br/>value = [0, 0, 56, 0, 0, 0, 0, 0, 0, 0]<br/>class = c2>, fillcolor="#7be539ff"] ;
9 -> 10 ;
11 [label=<f7 &le; -0.979<br/>gini = 0.666<br/>samples = 1294<br/>value = [415.0, 0.0, 0.0, 0.0, 427.0, 0.0, 0.0, 452.0, 0.0, 0.0]<br/>class = c7>, fillcolor="#a339e507"] ;
9 -> 11 ;
12 [label=<f1 &le; -0.999<br/>gini = 0.5<br/>samples = 842<br/>value = [415.0, 0.0, 0.0, 0.0, 427.0, 0.0, 0.0, 0.0, 0.0, 0.0]<br/>class = c4>, fillcolor="#39e5c507"] ;
11 -> 12 ;
13 [label=<gini = 0.0<br/>samples = 415<br/>value = [415, 0, 0, 0, 0, 0, 0, 0, 0, 0]<br/>class = c0>, fillcolor="#e58139ff"] ;
12 -> 13 ;
14 [label=<gini = 0.0<br/>samples = 427<br/>value = [0, 0, 0, 0, 427, 0, 0, 0, 0, 0]<br/>class = c4>, fillcolor="#39e5c5ff"] ;
12 -> 14 ;
15 [label=<gini = 0.0<br/>samples = 452<br/>value = [0, 0, 0, 0, 0, 0, 0, 452, 0, 0]<br/>class = c7>, fillcolor="#a339e5ff"] ;
11 -> 15 ;
16 [label=<f3 &le; 0.258<br/>gini = 0.5<br/>samples = 891<br/>value = [0.0, 0.0, 0.0, 434.0, 0.0, 0.0, 0.0, 0.0, 0.0, 457.0]<br/>class = c9>, fillcolor="#e539580d"] ;
8 -> 16 ;
17 [label=<gini = 0.0<br/>samples = 457<br/>value = [0, 0, 0, 0, 0, 0, 0, 0, 0, 457]<br/>class = c9>, fillcolor="#e53958ff"] ;
16 -> 17 ;
18 [label=<gini = 0.0<br/>samples = 434<br/>value = [0, 0, 0, 434, 0, 0, 0, 0, 0, 0]<br/>class = c3>, fillcolor="#39e55eff"] ;
16 -> 18 ;
}
