digraph Tree {
node [shape=box, style="filled, rounded", color="black", fontname=helvetica] ;
edge [fontname=helvetica] ;
0 [label=<f6 &le; -3.446<br/>gini = 0.9<br/>samples = 4000<br/>value = [387.0, 395.0, 428.0, 383.0, 418.0, 412.0, 388.0, 416.0, 380.0<br/>393.0]<br/>class = c2>, fillcolor="#7be53901"] ;
1 [label=<f2 &le; 1.961<br/>gini = 0.75<br/>samples = 1575<br/>value = [0.0, 395.0, 0.0, 0.0, 0.0, 412.0, 388.0, 0.0, 380.0, 0.0]<br/>class = c5>, fillcolor="#399de504"] ;
0 -> 1 [labeldistance=2.5, labelangle=45, headlabel="True"] ;
2 [label=<f5 &le; 9.906<br/>gini = 0.667<br/>samples = 1163<br/>value = [0.0, 395.0, 0.0, 0.0, 0.0, 0.0, 388.0, 0.0, 380.0, 0.0]<br/>class = c1>, fillcolor="#e2e53902"] ;
1 -> 2 ;
3 [label=<f1 &le; 7.127<br/>gini = 0.667<br/>samples = 1161<br/>value = [0.0, 393.0, 0.0, 0.0, 0.0, 0.0, 388.0, 0.0, 380.0, 0.0]<br/>class = c1>, fillcolor="#e2e53902"] ;
2 -> 3 ;
4 [label=<gini = 0.457<br/>samples = 586<br/>value = [0, 205, 0, 0, 0, 0, 1, 0, 380, 0]<br/>class = c8>, fillcolor="#e539c075"] ;
3 -> 4 ;
5 [label=<gini = 0.44<br/>samples = 575<br/>value = [0, 188, 0, 0, 0, 0, 387, 0, 0, 0]<br/>class = c6>, fillcolor="#3c39e583"] ;
3 -> 5 ;
6 [label=<gini = 0.0<br/>samples = 2<br/>value = [0, 2, 0, 0, 0, 0, 0, 0, 0, 0]<br/>class = c1>, fillcolor="#e2e539ff"] ;
2 -> 6 ;
7 [label=<gini = 0.0<br/>samples = 412<br/>value = [0, 0, 0, 0, 0, 412, 0, 0, 0, 0]<br/>class = c5>, fillcolor="#399de5ff"] ;
1 -> 7 ;
8 [label=<f0 &le; 0.731<br/>gini = 0.833<br/>samples = 2425<br/>value = [387.0, 0.0, 428.0, 383.0, 418.0, 0.0, 0.0, 416.0, 0.0, 393.0]<br/>class = c2>, fillcolor="#7be53901"] ;
0 -> 8 [labeldistance=2.5, labelangle=-45, headlabel="False"] ;
9 [label=<f1 &le; -6.859<br/>gini = 0.75<br/>samples = 1649<br/>value = [387.0, 0.0, 428.0, 0.0, 418.0, 0.0, 0.0, 416.0, 0.0, 0.0]<br/>class = c2>, fillcolor="#7be53902"] ;
8 -> 9 ;
10 [label=<gini = 0.0<br/>samples = 428<br/>value = [0, 0, 428, 0, 0, 0, 0, 0, 0, 0]<br/>class = c2>, fillcolor="#7be539ff"] ;
9 -> 10 ;
11 [label=<f7 &le; -0.981<br/>gini = 0.666<br/>samples = 1221<br/>value = [387.0, 0.0, 0.0, 0.0, 418.0, 0.0, 0.0, 416.0, 0.0, 0.0]<br/>class = c4>, fillcolor="#39e5c501"] ;
9 -> 11 ;
12 [label=<f1 &le; -0.826<br/>gini = 0.499<br/>samples = 805<br/>value = [387.0, 0.0, 0.0, 0.0, 418.0, 0.0, 0.0, 0.0, 0.0, 0.0]<br/>class = c4>, fillcolor="#39e5c513"] ;
11 -> 12 ;
13 [label=<gini = 0.0<br/>samples = 387<br/>value = [387, 0, 0, 0, 0, 0, 0, 0, 0, 0]<br/>class = c0>, fillcolor="#e58139ff"] ;
12 -> 13 ;
14 [label=<gini = 0.0<br/>samples = 418<br/>value = [0, 0, 0, 0, 418, 0, 0, 0, 0, 0]<br/>class = c4>, fillcolor="#39e5c5ff"] ;
12 -> 14 ;
15 [label=<gini = 0.0<br/>samples = 416<br/>value = [0, 0, 0, 0, 0, 0, 0, 416, 0, 0]<br/>class = c7>, fillcolor="#a339e5ff"] ;
11 -> 15 ;
16 [label=<f3 &le; 0.052<br/>gini = 0.5<br/>samples = 776<br/>value = [0.0, 0.0, 0.0, 383.0, 0.0, 0.0, 0.0, 0.0, 0.0, 393.0]<br/>class = c9>, fillcolor="#e5395806"] ;
8 -> 16 ;
17 [label=<gini = 0.0<br/>samples = 393<br/>value = [0, 0, 0, 0, 0, 0, 0, 0, 0, 393]<br/>class = c9>, fillcolor="#e53958ff"] ;
16 -> 17 ;
18 [label=<gini = 0.0<br/>samples = 383<br/>value = [0, 0, 0, 383, 0, 0, 0, 0, 0, 0]<br/>class = c3>, fillcolor="#39e55eff"] ;
16 -> 18 ;
}
