digraph Tree {
node [shape=box, style="filled, rounded", color="black", fontname=helvetica] ;
edge [fontname=helvetica] ;
0 [label=<f6 &le; -3.44<br/>gini = 0.9<br/>samples = 4000<br/>value = [390.0, 405.0, 422.0, 430.0, 392.0, 409.0, 413.0, 371.0, 368.0<br/>400.0]<br/>class = c3>, fillcolor="#39e55e01"] ;
1 [label=<f2 &le; -9.962<br/>gini = 0.749<br/>samples = 1595<br/>value = [0.0, 405.0, 0.0, 0.0, 0.0, 409.0, 413.0, 0.0, 368.0, 0.0]<br/>class = c6>, fillcolor="#3c39e501"] ;
0 -> 1 [labeldistance=2.5, labelangle=45, headlabel="True"] ;
7 [label=<gini = 0.0<br/>samples = 1<br/>value = [0, 1, 0, 0, 0, 0, 0, 0, 0, 0]<br/>class = c1>, fillcolor="#e2e539ff"] ;
1 -> 7 ;
2 [label=<f5 &le; 3.188<br/>gini = 0.749<br/>samples = 1594<br/>value = [0.0, 404.0, 0.0, 0.0, 0.0, 409.0, 413.0, 0.0, 368.0, 0.0]<br/>class = c6>, fillcolor="#3c39e501"] ;
1 -> 2 ;
3 [label=<f1 &le; 6.83<br/>gini = 0.658<br/>samples = 1053<br/>value = [0.0, 1.0, 0.0, 0.0, 0.0, 271.0, 413.0, 0.0, 368.0, 0.0]<br/>class = c6>, fillcolor="#3c39e511"] ;
2 -> 3 ;
4 [label=<gini = 0.472<br/>samples = 596<br/>value = [0, 0, 0, 0, 0, 228, 0, 0, 368, 0]<br/>class = c8>, fillcolor="#e539c061"] ;
3 -> 4 ;
5 [label=<gini = 0.174<br/>samples = 457<br/>value = [0, 1, 0, 0, 0, 43, 413, 0, 0, 0]<br/>class = c6>, fillcolor="#3c39e5e4"] ;
3 -> 5 ;
6 [label=<gini = 0.38<br/>samples = 541<br/>value = [0, 403, 0, 0, 0, 138, 0, 0, 0, 0]<br/>class = c1>, fillcolor="#e2e539a8"] ;
2 -> 6 ;
8 [label=<f0 &le; 0.724<br/>gini = 0.833<br/>samples = 2405<br/>value = [390.0, 0.0, 422.0, 430.0, 392.0, 0.0, 0.0, 371.0, 0.0, 400.0]<br/>class = c3>, fillcolor="#39e55e01"] ;
0 -> 8 [labeldistance=2.5, labelangle=-45, headlabel="False"] ;
9 [label=<f1 &le; -6.612<br/>gini = 0.749<br/>samples = 1575<br/>value = [390.0, 0.0, 422.0, 0.0, 392.0, 0.0, 0.0, 371.0, 0.0, 0.0]<br/>class = c2>, fillcolor="#7be53906"] ;
8 -> 9 ;
10 [label=<gini = 0.0<br/>samples = 422<br/>value = [0, 0, 422, 0, 0, 0, 0, 0, 0, 0]<br/>class = c2>, fillcolor="#7be539ff"] ;
9 -> 10 ;
11 [label=<f7 &le; -1.143<br/>gini = 0.666<br/>samples = 1153<br/>value = [390.0, 0.0, 0.0, 0.0, 392.0, 0.0, 0.0, 371.0, 0.0, 0.0]<br/>class = c4>, fillcolor="#39e5c501"] ;
9 -> 11 ;
12 [label=<f1 &le; -1.13<br/>gini = 0.5<br/>samples = 782<br/>value = [390.0, 0.0, 0.0, 0.0, 392.0, 0.0, 0.0, 0.0, 0.0, 0.0]<br/>class = c4>, fillcolor="#39e5c501"] ;
11 -> 12 ;
13 [label=<gini = 0.0<br/>samples = 390<br/>value = [390, 0, 0, 0, 0, 0, 0, 0, 0, 0]<br/>class = c0>, fillcolor="#e58139ff"] ;
12 -> 13 ;
14 [label=<gini = 0.0<br/>samples = 392<br/>value = [0, 0, 0, 0, 392, 0, 0, 0, 0, 0]<br/>class = c4>, fillcolor="#39e5c5ff"] ;
12 -> 14 ;
15 [label=<gini = 0.0<br/>samples = 371<br/>value = [0, 0, 0, 0, 0, 0, 0, 371, 0, 0]<br/>class = c7>, fillcolor="#a339e5ff"] ;
11 -> 15 ;
16 [label=<f3 &le; 0.202<br/>gini = 0.499<br/>samples = 830<br/>value = [0.0, 0.0, 0.0, 430.0, 0.0, 0.0, 0.0, 0.0, 0.0, 400.0]<br/>class = c3>, fillcolor="#39e55e12"] ;
8 -> 16 ;
17 [label=<gini = 0.0<br/>samples = 400<br/>value = [0, 0, 0, 0, 0, 0, 0, 0, 0, 400]<br/>class = c9>, fillcolor="#e53958ff"] ;
16 -> 17 ;
18 [label=<gini = 0.0<br/>samples = 430<br/>value = [0, 0, 0, 430, 0, 0, 0, 0, 0, 0]<br/>class = c3>, fillcolor="#39e55eff"] ;
16 -> 18 ;
}
