digraph Tree {
node [shape=box, style="filled, rounded", color="black", fontname=helvetica] ;
edge [fontname=helvetica] ;
0 [label=<f6 &le; -3.333<br/>gini = 0.9<br/>samples = 4000<br/>value = [410.0, 401.0, 383.0, 394.0, 423.0, 398.0, 380.0, 414.0, 425.0<br/>372.0]<br/>class = c8>, fillcolor="#e539c000"] ;
1 [label=<f2 &le; 1.964<br/>gini = 0.75<br/>samples = 1604<br/>value = [0.0, 401.0, 0.0, 0.0, 0.0, 398.0, 380.0, 0.0, 425.0, 0.0]<br/>class = c8>, fillcolor="#e539c005"] ;
0 -> 1 [labeldistance=2.5, labelangle=45, headlabel="True"] ;
2 [label=<f5 &le; -1.335<br/>gini = 0.666<br/>samples = 1206<br/>value = [0.0, 401.0, 0.0, 0.0, 0.0, 0.0, 380.0, 0.0, 425.0, 0.0]<br/>class = c8>, fillcolor="#e539c008"] ;
1 -> 2 ;
3 [label=<f1 &le; 4.699<br/>gini = 0.498<br/>samples = 805<br/>value = [0.0, 0.0, 0.0, 0.0, 0.0, 0.0, 380.0, 0.0, 425.0, 0.0]<br/>class = c8>, fillcolor="#e539c01b"] ;
2 -> 3 ;
4 [label=<gini = 0.0<br/>samples = 425<br/>value = [0, 0, 0, 0, 0, 0, 0, 0, 425, 0]<br/>class = c8>, fillcolor="#e539c0ff"] ;
3 -> 4 ;
5 [label=<gini = 0.0<br/>samples = 380<br/>value = [0, 0, 0, 0, 0, 0, 380, 0, 0, 0]<br/>class = c6>, fillcolor="#3c39e5ff"] ;
3 -> 5 ;
6 [label=<gini = 0.0<br/>samples = 401<br/>value = [0, 401, 0, 0, 0, 0, 0, 0, 0, 0]<br/>class = c1>, fillcolor="#e2e539ff"] ;
2 -> 6 ;
7 [label=<gini = 0.0<br/>samples = 398<br/>value = [0, 0, 0, 0, 0, 398, 0, 0, 0, 0]<br/>class = c5>, fillcolor="#399de5ff"] ;
1 -> 7 ;
8 [label=<f0 &le; 0.93<br/>gini = 0.833<br/>samples = 2396<br/>value = [410.0, 0.0, 383.0, 394.0, 423.0, 0.0, 0.0, 414.0, 0.0, 372.0]<br/>class = c4>, fillcolor="#39e5c501"] ;
0 -> 8 [labeldistance=2.5, labelangle=-45, headlabel="False"] ;
9 [label=<f1 &le; -6.603<br/>gini = 0.75<br/>samples = 1630<br/>value = [410.0, 0.0, 383.0, 0.0, 423.0, 0.0, 0.0, 414.0, 0.0, 0.0]<br/>class = c4>, fillcolor="#39e5c502"] ;
8 -> 9 ;
10 [label=<gini = 0.0<br/>samples = 383<br/>value = [0, 0, 383, 0, 0, 0, 0, 0, 0, 0]<br/>class = c2>, fillcolor="#7be539ff"] ;
9 -> 10 ;
11 [label=<f7 &le; -0.921<br/>gini = 0.667<br/>samples = 1247<br/>value = [410.0, 0.0, 0.0, 0.0, 423.0, 0.0, 0.0, 414.0, 0.0, 0.0]<br/>class = c4>, fillcolor="#39e5c503"] ;
9 -> 11 ;
12 [label=<f1 &le; -1.172<br/>gini = 0.5<br/>samples = 833<br/>value = [410.0, 0.0, 0.0, 0.0, 423.0, 0.0, 0.0, 0.0, 0.0, 0.0]<br/>class = c4>, fillcolor="#39e5c508"] ;
11 -> 12 ;
13 [label=<gini = 0.0<br/>samples = 410<br/>value = [410, 0, 0, 0, 0, 0, 0, 0, 0, 0]<br/>class = c0>, fillcolor="#e58139ff"] ;
12 -> 13 ;
14 [label=<gini = 0.0<br/>samples = 423<br/>value = [0, 0, 0, 0, 423, 0, 0, 0, 0, 0]<br/>class = c4>, fillcolor="#39e5c5ff"] ;
12 -> 14 ;
15 [label=<gini = 0.0<br/>samples = 414<br/>value = [0, 0, 0, 0, 0, 0, 0, 414, 0, 0]<br/>class = c7>, fillcolor="#a339e5ff"] ;
11 -> 15 ;
16 [label=<f3 &le; 0.163<br/>gini = 0.5<br/>samples = 766<br/>value = [0.0, 0.0, 0.0, 394.0, 0.0, 0.0, 0.0, 0.0, 0.0, 372.0]<br/>class = c3>, fillcolor="#39e55e0e"] ;
8 -> 16 ;
17 [label=<gini = 0.0<br/>samples = 372<br/>value = [0, 0, 0, 0, 0, 0, 0, 0, 0, 372]<br/>class = c9>, fillcolor="#e53958ff"] ;
16 -> 17 ;
18 [label=<gini = 0.0<br/>samples = 394<br/>value = [0, 0, 0, 394, 0, 0, 0, 0, 0, 0]<br/>class = c3>, fillcolor="#39e55eff"] ;
16 -> 18 ;
}
