digraph Tree {
node [shape=box, style="filled, rounded", color="black", fontname=helvetica] ;
edge [fontname=helvetica] ;
0 [label=<f6 &le; -3.531<br/>gini = 0.891<br/>samples = 4000<br/>value = [440.0, 455.0, 421.0, 419.0, 466.0, 51.0, 427.0, 444.0, 445.0<br/>432.0]<br/>class = c4>, fillcolor="#39e5c501"] ;
1 [label=<f2 &le; 2.681<br/>gini = 0.689<br/>samples = 1378<br/>value = [0.0, 455.0, 0.0, 0.0, 0.0, 51.0, 427.0, 0.0, 445.0, 0.0]<br/>class = c1>, fillcolor="#e2e53903"] ;
0 -> 1 [labeldistance=2.5, labelangle=45, headlabel="True"] ;
2 [label=<f5 &le; -1.23<br/>gini = 0.666<br/>samples = 1327<br/>value = [0.0, 455.0, 0.0, 0.0, 0.0, 0.0, 427.0, 0.0, 445.0, 0.0]<br/>class = c1>, fillcolor="#e2e53903"] ;
1 -> 2 ;
3 [label=<f1 &le; 4.408<br/>gini = 0.5<br/>samples = 872<br/>value = [0.0, 0.0, 0.0, 0.0, 0.0, 0.0, 427.0, 0.0, 445.0, 0.0]<br/>class = c8>, fillcolor="#e539c00a"] ;
2 -> 3 ;
4 [label=<gini = 0.0<br/>samples = 445<br/>value = [0, 0, 0, 0, 0, 0, 0, 0, 445, 0]<br/>class = c8>, fillcolor="#e539c0ff"] ;
3 -> 4 ;
5 [label=<gini = 0.0<br/>samples = 427<br/>value = [0, 0, 0, 0, 0, 0, 427, 0, 0, 0]<br/>class = c6>, fillcolor="#3c39e5ff"] ;
3 -> 5 ;
6 [label=<gini = 0.0<br/>samples = 455<br/>value = [0, 455, 0, 0, 0, 0, 0, 0, 0, 0]<br/>class = c1>, fillcolor="#e2e539ff"] ;
2 -> 6 ;
7 [label=<gini = 0.0<br/>samples = 51<br/>value = [0, 0, 0, 0, 0, 51, 0, 0, 0, 0]<br/>class = c5>, fillcolor="#399de5ff"] ;
1 -> 7 ;
8 [label=<f0 &le; 0.579<br/>gini = 0.833<br/>samples = 2622<br/>value = [440.0, 0.0, 421.0, 419.0, 466.0, 0.0, 0.0, 444.0, 0.0, 432.0]<br/>class = c4>, fillcolor="#39e5c503"] ;
0 -> 8 [labeldistance=2.5, labelangle=-45, headlabel="False"] ;
9 [label=<f1 &le; -6.32<br/>gini = 0.75<br/>samples = 1771<br/>value = [440.0, 0.0, 421.0, 0.0, 466.0, 0.0, 0.0, 444.0, 0.0, 0.0]<br/>class = c4>, fillcolor="#39e5c504"] ;
8 -> 9 ;
10 [label=<gini = 0.0<br/>samples = 421<br/>value = [0, 0, 421, 0, 0, 0, 0, 0, 0, 0]<br/>class = c2>, fillcolor="#7be539ff"] ;
9 -> 10 ;
11 [label=<f7 &le; -0.974<br/>gini = 0.666<br/>samples = 1350<br/>value = [440.0, 0.0, 0.0, 0.0, 466.0, 0.0, 0.0, 444.0, 0.0, 0.0]<br/>class = c4>, fillcolor="#39e5c506"] ;
9 -> 11 ;
12 [label=<f1 &le; -0.994<br/>gini = 0.5<br/>samples = 906<br/>value = [440.0, 0.0, 0.0, 0.0, 466.0, 0.0, 0.0, 0.0, 0.0, 0.0]<br/>class = c4>, fillcolor="#39e5c50e"] ;
11 -> 12 ;
13 [label=<gini = 0.0<br/>samples = 440<br/>value = [440, 0, 0, 0, 0, 0, 0, 0, 0, 0]<br/>class = c0>, fillcolor="#e58139ff"] ;
12 -> 13 ;
14 [label=<gini = 0.0<br/>samples = 466<br/>value = [0, 0, 0, 0, 466, 0, 0, 0, 0, 0]<br/>class = c4>, fillcolor="#39e5c5ff"] ;
12 -> 14 ;
15 [label=<gini = 0.0<br/>samples = 444<br/>value = [0, 0, 0, 0, 0, 0, 0, 444, 0, 0]<br/>class = c7>, fillcolor="#a339e5ff"] ;
11 -> 15 ;
16 [label=<f3 &le; 0.159<br/>gini = 0.5<br/>samples = 851<br/>value = [0.0, 0.0, 0.0, 419.0, 0.0, 0.0, 0.0, 0.0, 0.0, 432.0]<br/>class = c9>, fillcolor="#e5395808"] ;
8 -> 16 ;
17 [label=<gini = 0.0<br/>samples = 432<br/>value = [0, 0, 0, 0, 0, 0, 0, 0, 0, 432]<br/>class = c9>, fillcolor="#e53958ff"] ;
16 -> 17 ;
18 [label=<gini = 0.0<br/>samples = 419<br/>value = [0, 0, 0, 419, 0, 0, 0, 0, 0, 0]<br/>class = c3>, fillcolor="#39e55eff"] ;
16 -> 18 ;
}
