digraph Tree {
node [shape=box, style="filled, rounded", color="black", fontname=helvetica] ;
edge [fontname=helvetica] ;
0 [label=<f6 &le; -3.439<br/>gini = 0.9<br/>samples = 4000<br/>value = [399.0, 386.0, 401.0, 399.0, 423.0, 416.0, 403.0, 409.0, 386.0<br/>378.0]<br/>class = c4>, fillcolor="#39e5c500"] ;
1 [label=<f2 &le; 1.493<br/>gini = 0.75<br/>samples = 1592<br/>value = [0.0, 386.0, 0.0, 1.0, 0.0, 416.0, 403.0, 0.0, 386.0, 0.0]<br/>class = c5>, fillcolor="#399de503"] ;
0 -> 1 [labeldistance=2.5, labelangle=45, headlabel="True"] ;
2 [label=<f5 &le; -1.361<br/>gini = 0.667<br/>samples = 1175<br/>value = [0.0, 386.0, 0.0, 0.0, 0.0, 0.0, 403.0, 0.0, 386.0, 0.0]<br/>class = c6>, fillcolor="#3c39e505"] ;
1 -> 2 ;
3 [label=<f1 &le; 4.716<br/>gini = 0.5<br/>samples = 789<br/>value = [0.0, 0.0, 0.0, 0.0, 0.0, 0.0, 403.0, 0.0, 386.0, 0.0]<br/>class = c6>, fillcolor="#3c39e50b"] ;
2 -> 3 ;
4 [label=<gini = 0.0<br/>samples = 386<br/>value = [0, 0, 0, 0, 0, 0, 0, 0, 386, 0]<br/>class = c8>, fillcolor="#e539c0ff"] ;
3 -> 4 ;
5 [label=<gini = 0.0<br/>samples = 403<br/>value = [0, 0, 0, 0, 0, 0, 403, 0, 0, 0]<br/>class = c6>, fillcolor="#3c39e5ff"] ;
3 -> 5 ;
6 [label=<gini = 0.0<br/>samples = 386<br/>value = [0, 386, 0, 0, 0, 0, 0, 0, 0, 0]<br/>class = c1>, fillcolor="#e2e539ff"] ;
2 -> 6 ;
7 [label=<gini = 0.005<br/>samples = 417<br/>value = [0, 0, 0, 1, 0, 416, 0, 0, 0, 0]<br/>class = c5>, fillcolor="#399de5fe"] ;
1 -> 7 ;
8 [label=<f0 &le; 1.405<br/>gini = 0.833<br/>samples = 2408<br/>value = [399.0, 0.0, 401.0, 398.0, 423.0, 0.0, 0.0, 409.0, 0.0, 378.0]<br/>class = c4>, fillcolor="#39e5c502"] ;
0 -> 8 [labeldistance=2.5, labelangle=-45, headlabel="False"] ;
9 [label=<f1 &le; -6.743<br/>gini = 0.752<br/>samples = 1639<br/>value = [399.0, 0.0, 401.0, 0.0, 423.0, 0.0, 0.0, 409.0, 0.0, 7.0]<br/>class = c4>, fillcolor="#39e5c503"] ;
8 -> 9 ;
10 [label=<gini = 0.0<br/>samples = 401<br/>value = [0, 0, 401, 0, 0, 0, 0, 0, 0, 0]<br/>class = c2>, fillcolor="#7be539ff"] ;
9 -> 10 ;
11 [label=<f7 &le; -1.01<br/>gini = 0.67<br/>samples = 1238<br/>value = [399.0, 0.0, 0.0, 0.0, 423.0, 0.0, 0.0, 409.0, 0.0, 7.0]<br/>class = c4>, fillcolor="#39e5c504"] ;
9 -> 11 ;
12 [label=<f1 &le; -0.987<br/>gini = 0.5<br/>samples = 822<br/>value = [399.0, 0.0, 0.0, 0.0, 423.0, 0.0, 0.0, 0.0, 0.0, 0.0]<br/>class = c4>, fillcolor="#39e5c50e"] ;
11 -> 12 ;
13 [label=<gini = 0.0<br/>samples = 399<br/>value = [399, 0, 0, 0, 0, 0, 0, 0, 0, 0]<br/>class = c0>, fillcolor="#e58139ff"] ;
12 -> 13 ;
14 [label=<gini = 0.0<br/>samples = 423<br/>value = [0, 0, 0, 0, 423, 0, 0, 0, 0, 0]<br/>class = c4>, fillcolor="#39e5c5ff"] ;
12 -> 14 ;
15 [label=<gini = 0.033<br/>samples = 416<br/>value = [0, 0, 0, 0, 0, 0, 0, 409, 0, 7]<br/>class = c7>, fillcolor="#a339e5fb"] ;
11 -> 15 ;
16 [label=<f3 &le; 0.246<br/>gini = 0.499<br/>samples = 769<br/>value = [0.0, 0.0, 0.0, 398.0, 0.0, 0.0, 0.0, 0.0, 0.0, 371.0]<br/>class = c3>, fillcolor="#39e55e11"] ;
8 -> 16 ;
17 [label=<gini = 0.0<br/>samples = 371<br/>value = [0, 0, 0, 0, 0, 0, 0, 0, 0, 371]<br/>class = c9>, fillcolor="#e53958ff"] ;
16 -> 17 ;
18 [label=<gini = 0.0<br/>samples = 398<br/>value = [0, 0, 0, 398, 0, 0, 0, 0, 0, 0]<br/>class = c3>, fillcolor="#39e55eff"] ;
16 -> 18 ;
}
