digraph Tree {
node [shape=box, style="filled, rounded", color="black", fontname=helvetica] ;
edge [fontname=helvetica] ;
0 [label=<f6 &le; -3.354<br/>gini = 0.9<br/>samples = 4000<br/>value = [426.0, 403.0, 397.0, 401.0, 389.0, 394.0, 412.0, 378.0, 401.0<br/>399.0]<br/>class = c0>, fillcolor="#e5813901"] ;
1 [label=<f2 &le; 2.139<br/>gini = 0.75<br/>samples = 1610<br/>value = [0.0, 403.0, 0.0, 0.0, 0.0, 394.0, 412.0, 0.0, 401.0, 0.0]<br/>class = c6>, fillcolor="#3c39e502"] ;
0 -> 1 [labeldistance=2.5, labelangle=45, headlabel="True"] ;
2 [label=<f5 &le; -1.24<br/>gini = 0.667<br/>samples = 1216<br/>value = [0.0, 403.0, 0.0, 0.0, 0.0, 0.0, 412.0, 0.0, 401.0, 0.0]<br/>class = c6>, fillcolor="#3c39e503"] ;
1 -> 2 ;
3 [label=<f1 &le; 4.573<br/>gini = 0.5<br/>samples = 813<br/>value = [0.0, 0.0, 0.0, 0.0, 0.0, 0.0, 412.0, 0.0, 401.0, 0.0]<br/>class = c6>, fillcolor="#3c39e507"] ;
2 -> 3 ;
4 [label=<gini = 0.0<br/>samples = 401<br/>value = [0, 0, 0, 0, 0, 0, 0, 0, 401, 0]<br/>class = c8>, fillcolor="#e539c0ff"] ;
3 -> 4 ;
5 [label=<gini = 0.0<br/>samples = 412<br/>value = [0, 0, 0, 0, 0, 0, 412, 0, 0, 0]<br/>class = c6>, fillcolor="#3c39e5ff"] ;
3 -> 5 ;
6 [label=<gini = 0.0<br/>samples = 403<br/>value = [0, 403, 0, 0, 0, 0, 0, 0, 0, 0]<br/>class = c1>, fillcolor="#e2e539ff"] ;
2 -> 6 ;
7 [label=<gini = 0.0<br/>samples = 394<br/>value = [0, 0, 0, 0, 0, 394, 0, 0, 0, 0]<br/>class = c5>, fillcolor="#399de5ff"] ;
1 -> 7 ;
8 [label=<f0 &le; 0.552<br/>gini = 0.833<br/>samples = 2390<br/>value = [426.0, 0.0, 397.0, 401.0, 389.0, 0.0, 0.0, 378.0, 0.0, 399.0]<br/>class = c0>, fillcolor="#e5813903"] ;
0 -> 8 [labeldistance=2.5, labelangle=-45, headlabel="False"] ;
9 [label=<f1 &le; -6.748<br/>gini = 0.749<br/>samples = 1590<br/>value = [426.0, 0.0, 397.0, 0.0, 389.0, 0.0, 0.0, 378.0, 0.0, 0.0]<br/>class = c0>, fillcolor="#e5813906"] ;
8 -> 9 ;
10 [label=<gini = 0.0<br/>samples = 397<br/>value = [0, 0, 397, 0, 0, 0, 0, 0, 0, 0]<br/>class = c2>, fillcolor="#7be539ff"] ;
9 -> 10 ;
11 [label=<f7 &le; -1.108<br/>gini = 0.666<br/>samples = 1193<br/>value = [426.0, 0.0, 0.0, 0.0, 389.0, 0.0, 0.0, 378.0, 0.0, 0.0]<br/>class = c0>, fillcolor="#e581390c"] ;
9 -> 11 ;
12 [label=<f1 &le; -0.735<br/>gini = 0.499<br/>samples = 815<br/>value = [426.0, 0.0, 0.0, 0.0, 389.0, 0.0, 0.0, 0.0, 0.0, 0.0]<br/>class = c0>, fillcolor="#e5813916"] ;
11 -> 12 ;
13 [label=<gini = 0.0<br/>samples = 426<br/>value = [426, 0, 0, 0, 0, 0, 0, 0, 0, 0]<br/>class = c0>, fillcolor="#e58139ff"] ;
12 -> 13 ;
14 [label=<gini = 0.0<br/>samples = 389<br/>value = [0, 0, 0, 0, 389, 0, 0, 0, 0, 0]<br/>class = c4>, fillcolor="#39e5c5ff"] ;
12 -> 14 ;
15 [label=<gini = 0.0<br/>samples = 378<br/>value = [0, 0, 0, 0, 0, 0, 0, 378, 0, 0]<br/>class = c7>, fillcolor="#a339e5ff"] ;
11 -> 15 ;
16 [label=<f3 &le; -0.058<br/>gini = 0.5<br/>samples = 800<br/>value = [0.0, 0.0, 0.0, 401.0, 0.0, 0.0, 0.0, 0.0, 0.0, 399.0]<br/>class = c3>, fillcolor="#39e55e01"] ;
8 -> 16 ;
17 [label=<gini = 0.0<br/>samples = 398<br/>value = [0, 0, 0, 0, 0, 0, 0, 0, 0, 398]<br/>class = c9>, fillcolor="#e53958ff"] ;
16 -> 17 ;
18 [label=<gini = 0.005<br/>samples = 402<br/>value = [0, 0, 0, 401, 0, 0, 0, 0, 0, 1]<br/>class = c3>, fillcolor="#39e55efe"] ;
16 -> 18 ;
}
