digraph Tree {
node [shape=box, style="filled, rounded", color="black", fontname=helvetica] ;
edge [fontname=helvetica] ;
0 [label=<f6 &le; -3.384<br/>gini = 0.9<br/>samples = 4000<br/>value = [410.0, 394.0, 413.0, 386.0, 371.0, 395.0, 386.0, 412.0, 414.0<br/>419.0]<br/>class = c9>, fillcolor="#e5395800"] ;
1 [label=<f2 &le; 2.125<br/>gini = 0.75<br/>samples = 1589<br/>value = [0.0, 394.0, 0.0, 0.0, 0.0, 395.0, 386.0, 0.0, 414.0, 0.0]<br/>class = c8>, fillcolor="#e539c004"] ;
0 -> 1 [labeldistance=2.5, labelangle=45, headlabel="True"] ;
2 [label=<f5 &le; -0.432<br/>gini = 0.666<br/>samples = 1194<br/>value = [0.0, 394.0, 0.0, 0.0, 0.0, 0.0, 386.0, 0.0, 414.0, 0.0]<br/>class = c8>, fillcolor="#e539c006"] ;
1 -> 2 ;
3 [label=<f1 &le; 4.432<br/>gini = 0.501<br/>samples = 801<br/>value = [0.0, 1.0, 0.0, 0.0, 0.0, 0.0, 386.0, 0.0, 414.0, 0.0]<br/>class = c8>, fillcolor="#e539c011"] ;
2 -> 3 ;
4 [label=<gini = 0.0<br/>samples = 414<br/>value = [0, 0, 0, 0, 0, 0, 0, 0, 414, 0]<br/>class = c8>, fillcolor="#e539c0ff"] ;
3 -> 4 ;
5 [label=<gini = 0.005<br/>samples = 387<br/>value = [0, 1, 0, 0, 0, 0, 386, 0, 0, 0]<br/>class = c6>, fillcolor="#3c39e5fe"] ;
3 -> 5 ;
6 [label=<gini = 0.0<br/>samples = 393<br/>value = [0, 393, 0, 0, 0, 0, 0, 0, 0, 0]<br/>class = c1>, fillcolor="#e2e539ff"] ;
2 -> 6 ;
7 [label=<gini = 0.0<br/>samples = 395<br/>value = [0, 0, 0, 0, 0, 395, 0, 0, 0, 0]<br/>class = c5>, fillcolor="#399de5ff"] ;
1 -> 7 ;
8 [label=<f0 &le; 0.585<br/>gini = 0.833<br/>samples = 2411<br/>value = [410.0, 0.0, 413.0, 386.0, 371.0, 0.0, 0.0, 412.0, 0.0, 419.0]<br/>class = c9>, fillcolor="#e5395801"] ;
0 -> 8 [labeldistance=2.5, labelangle=-45, headlabel="False"] ;
9 [label=<f1 &le; -6.836<br/>gini = 0.75<br/>samples = 1606<br/>value = [410.0, 0.0, 413.0, 0.0, 371.0, 0.0, 0.0, 412.0, 0.0, 0.0]<br/>class = c2>, fillcolor="#7be53900"] ;
8 -> 9 ;
10 [label=<gini = 0.0<br/>samples = 413<br/>value = [0, 0, 413, 0, 0, 0, 0, 0, 0, 0]<br/>class = c2>, fillcolor="#7be539ff"] ;
9 -> 10 ;
11 [label=<f7 &le; -1.163<br/>gini = 0.666<br/>samples = 1193<br/>value = [410.0, 0.0, 0.0, 0.0, 371.0, 0.0, 0.0, 412.0, 0.0, 0.0]<br/>class = c7>, fillcolor="#a339e501"] ;
9 -> 11 ;
12 [label=<f1 &le; -0.966<br/>gini = 0.499<br/>samples = 781<br/>value = [410.0, 0.0, 0.0, 0.0, 371.0, 0.0, 0.0, 0.0, 0.0, 0.0]<br/>class = c0>, fillcolor="#e5813918"] ;
11 -> 12 ;
13 [label=<gini = 0.0<br/>samples = 410<br/>value = [410, 0, 0, 0, 0, 0, 0, 0, 0, 0]<br/>class = c0>, fillcolor="#e58139ff"] ;
12 -> 13 ;
14 [label=<gini = 0.0<br/>samples = 371<br/>value = [0, 0, 0, 0, 371, 0, 0, 0, 0, 0]<br/>class = c4>, fillcolor="#39e5c5ff"] ;
12 -> 14 ;
15 [label=<gini = 0.0<br/>samples = 412<br/>value = [0, 0, 0, 0, 0, 0, 0, 412, 0, 0]<br/>class = c7>, fillcolor="#a339e5ff"] ;
11 -> 15 ;
16 [label=<f3 &le; -0.012<br/>gini = 0.499<br/>samples = 805<br/>value = [0.0, 0.0, 0.0, 386.0, 0.0, 0.0, 0.0, 0.0, 0.0, 419.0]<br/>class = c9>, fillcolor="#e5395814"] ;
8 -> 16 ;
17 [label=<gini = 0.0<br/>samples = 419<br/>value = [0, 0, 0, 0, 0, 0, 0, 0, 0, 419]<br/>class = c9>, fillcolor="#e53958ff"] ;
16 -> 17 ;
18 [label=<gini = 0.0<br/>samples = 386<br/>value = [0, 0, 0, 386, 0, 0, 0, 0, 0, 0]<br/>class = c3>, fillcolor="#39e55eff"] ;
16 -> 18 ;
}
