digraph Tree {
node [shape=box, style="filled, rounded", color="black", fontname=helvetica] ;
edge [fontname=helvetica] ;
0 [label=<f6 &le; -3.769<br/>gini = 0.9<br/>samples = 4000<br/>value = [455.0, 394.0, 409.0, 399.0, 387.0, 382.0, 386.0, 377.0, 382.0<br/>429.0]<br/>class = c0>, fillcolor="#e5813902"] ;
1 [label=<f2 &le; 2.775<br/>gini = 0.75<br/>samples = 1544<br/>value = [0.0, 394.0, 0.0, 0.0, 0.0, 382.0, 386.0, 0.0, 382.0, 0.0]<br/>class = c1>, fillcolor="#e2e53902"] ;
0 -> 1 [labeldistance=2.5, labelangle=45, headlabel="True"] ;
2 [label=<f5 &le; -0.821<br/>gini = 0.667<br/>samples = 1162<br/>value = [0.0, 394.0, 0.0, 0.0, 0.0, 0.0, 386.0, 0.0, 382.0, 0.0]<br/>class = c1>, fillcolor="#e2e53903"] ;
1 -> 2 ;
3 [label=<f1 &le; 4.826<br/>gini = 0.5<br/>samples = 768<br/>value = [0.0, 0.0, 0.0, 0.0, 0.0, 0.0, 386.0, 0.0, 382.0, 0.0]<br/>class = c6>, fillcolor="#3c39e503"] ;
2 -> 3 ;
4 [label=<gini = 0.0<br/>samples = 382<br/>value = [0, 0, 0, 0, 0, 0, 0, 0, 382, 0]<br/>class = c8>, fillcolor="#e539c0ff"] ;
3 -> 4 ;
5 [label=<gini = 0.0<br/>samples = 386<br/>value = [0, 0, 0, 0, 0, 0, 386, 0, 0, 0]<br/>class = c6>, fillcolor="#3c39e5ff"] ;
3 -> 5 ;
6 [label=<gini = 0.0<br/>samples = 394<br/>value = [0, 394, 0, 0, 0, 0, 0, 0, 0, 0]<br/>class = c1>, fillcolor="#e2e539ff"] ;
2 -> 6 ;
7 [label=<gini = 0.0<br/>samples = 382<br/>value = [0, 0, 0, 0, 0, 382, 0, 0, 0, 0]<br/>class = c5>, fillcolor="#399de5ff"] ;
1 -> 7 ;
8 [label=<f0 &le; 0.636<br/>gini = 0.833<br/>samples = 2456<br/>value = [455.0, 0.0, 409.0, 399.0, 387.0, 0.0, 0.0, 377.0, 0.0, 429.0]<br/>class = c0>, fillcolor="#e5813903"] ;
0 -> 8 [labeldistance=2.5, labelangle=-45, headlabel="False"] ;
9 [label=<f1 &le; -6.62<br/>gini = 0.749<br/>samples = 1628<br/>value = [455.0, 0.0, 409.0, 0.0, 387.0, 0.0, 0.0, 377.0, 0.0, 0.0]<br/>class = c0>, fillcolor="#e581390a"] ;
8 -> 9 ;
10 [label=<gini = 0.0<br/>samples = 409<br/>value = [0, 0, 409, 0, 0, 0, 0, 0, 0, 0]<br/>class = c2>, fillcolor="#7be539ff"] ;
9 -> 10 ;
11 [label=<f7 &le; -1.046<br/>gini = 0.664<br/>samples = 1219<br/>value = [455.0, 0.0, 0.0, 0.0, 387.0, 0.0, 0.0, 377.0, 0.0, 0.0]<br/>class = c0>, fillcolor="#e5813915"] ;
9 -> 11 ;
12 [label=<f1 &le; -1.103<br/>gini = 0.497<br/>samples = 842<br/>value = [455.0, 0.0, 0.0, 0.0, 387.0, 0.0, 0.0, 0.0, 0.0, 0.0]<br/>class = c0>, fillcolor="#e5813926"] ;
11 -> 12 ;
13 [label=<gini = 0.0<br/>samples = 455<br/>value = [455, 0, 0, 0, 0, 0, 0, 0, 0, 0]<br/>class = c0>, fillcolor="#e58139ff"] ;
12 -> 13 ;
14 [label=<gini = 0.0<br/>samples = 387<br/>value = [0, 0, 0, 0, 387, 0, 0, 0, 0, 0]<br/>class = c4>, fillcolor="#39e5c5ff"] ;
12 -> 14 ;
15 [label=<gini = 0.0<br/>samples = 377<br/>value = [0, 0, 0, 0, 0, 0, 0, 377, 0, 0]<br/>class = c7>, fillcolor="#a339e5ff"] ;
11 -> 15 ;
16 [label=<f3 &le; -0.062<br/>gini = 0.499<br/>samples = 828<br/>value = [0.0, 0.0, 0.0, 399.0, 0.0, 0.0, 0.0, 0.0, 0.0, 429.0]<br/>class = c9>, fillcolor="#e5395812"] ;
8 -> 16 ;
17 [label=<gini = 0.0<br/>samples = 429<br/>value = [0, 0, 0, 0, 0, 0, 0, 0, 0, 429]<br/>class = c9>, fillcolor="#e53958ff"] ;
16 -> 17 ;
18 [label=<gini = 0.0<br/>samples = 399<br/>value = [0, 0, 0, 399, 0, 0, 0, 0, 0, 0]<br/>class = c3>, fillcolor="#39e55eff"] ;
16 -> 18 ;
}
