digraph Tree {
node [shape=box, style="filled, rounded", color="black", fontname=helvetica] ;
edge [fontname=helvetica] ;
0 [label=<f6 &le; -3.621<br/>gini = 0.707<br/>samples = 4000<br/>value = [197.0, 217.0, 218.0, 236.0, 2067.0, 205.0, 222.0, 218.0, 231.0<br/>189.0]<br/>class = c4>, fillcolor="#39e5c57c"] ;
1 [label=<f2 &le; 2.069<br/>gini = 0.75<br/>samples = 875<br/>value = [0.0, 217.0, 0.0, 0.0, 0.0, 205.0, 222.0, 0.0, 231.0, 0.0]<br/>class = c8>, fillcolor="#e539c004"] ;
0 -> 1 [labeldistance=2.5, labelangle=45, headlabel="True"] ;
2 [label=<f5 &le; -1.002<br/>gini = 0.666<br/>samples = 670<br/>value = [0.0, 217.0, 0.0, 0.0, 0.0, 0.0, 222.0, 0.0, 231.0, 0.0]<br/>class = c8>, fillcolor="#e539c005"] ;
1 -> 2 ;
3 [label=<f1 &le; 4.892<br/>gini = 0.5<br/>samples = 453<br/>value = [0.0, 0.0, 0.0, 0.0, 0.0, 0.0, 222.0, 0.0, 231.0, 0.0]<br/>class = c8>, fillcolor="#e539c00a"] ;
2 -> 3 ;
4 [label=<gini = 0.0<br/>samples = 231<br/>value = [0, 0, 0, 0, 0, 0, 0, 0, 231, 0]<br/>class = c8>, fillcolor="#e539c0ff"] ;
3 -> 4 ;
5 [label=<gini = 0.0<br/>samples = 222<br/>value = [0, 0, 0, 0, 0, 0, 222, 0, 0, 0]<br/>class = c6>, fillcolor="#3c39e5ff"] ;
3 -> 5 ;
6 [label=<gini = 0.0<br/>samples = 217<br/>value = [0, 217, 0, 0, 0, 0, 0, 0, 0, 0]<br/>class = c1>, fillcolor="#e2e539ff"] ;
2 -> 6 ;
7 [label=<gini = 0.0<br/>samples = 205<br/>value = [0, 0, 0, 0, 0, 205, 0, 0, 0, 0]<br/>class = c5>, fillcolor="#399de5ff"] ;
1 -> 7 ;
8 [label=<f0 &le; 0.408<br/>gini = 0.539<br/>samples = 3125<br/>value = [197.0, 0.0, 218.0, 236.0, 2067.0, 0.0, 0.0, 218.0, 0.0, 189.0]<br/>class = c4>, fillcolor="#39e5c5a2"] ;
0 -> 8 [labeldistance=2.5, labelangle=-45, headlabel="False"] ;
9 [label=<f1 &le; -6.838<br/>gini = 0.396<br/>samples = 2700<br/>value = [197.0, 0.0, 218.0, 0.0, 2067.0, 0.0, 0.0, 218.0, 0.0, 0.0]<br/>class = c4>, fillcolor="#39e5c5be"] ;
8 -> 9 ;
10 [label=<gini = 0.0<br/>samples = 218<br/>value = [0, 0, 218, 0, 0, 0, 0, 0, 0, 0]<br/>class = c2>, fillcolor="#7be539ff"] ;
9 -> 10 ;
11 [label=<f7 &le; -1.067<br/>gini = 0.292<br/>samples = 2482<br/>value = [197.0, 0.0, 0.0, 0.0, 2067.0, 0.0, 0.0, 218.0, 0.0, 0.0]<br/>class = c4>, fillcolor="#39e5c5d0"] ;
9 -> 11 ;
12 [label=<f1 &le; -1.026<br/>gini = 0.159<br/>samples = 2264<br/>value = [197.0, 0.0, 0.0, 0.0, 2067.0, 0.0, 0.0, 0.0, 0.0, 0.0]<br/>class = c4>, fillcolor="#39e5c5e7"] ;
11 -> 12 ;
13 [label=<gini = 0.0<br/>samples = 197<br/>value = [197, 0, 0, 0, 0, 0, 0, 0, 0, 0]<br/>class = c0>, fillcolor="#e58139ff"] ;
12 -> 13 ;
14 [label=<gini = 0.0<br/>samples = 2067<br/>value = [0, 0, 0, 0, 2067, 0, 0, 0, 0, 0]<br/>class = c4>, fillcolor="#39e5c5ff"] ;
12 -> 14 ;
15 [label=<gini = 0.0<br/>samples = 218<br/>value = [0, 0, 0, 0, 0, 0, 0, 218, 0, 0]<br/>class = c7>, fillcolor="#a339e5ff"] ;
11 -> 15 ;
16 [label=<f3 &le; 0.116<br/>gini = 0.494<br/>samples = 425<br/>value = [0.0, 0.0, 0.0, 236.0, 0.0, 0.0, 0.0, 0.0, 0.0, 189.0]<br/>class = c3>, fillcolor="#39e55e33"] ;
8 -> 16 ;
17 [label=<gini = 0.0<br/>samples = 189<br/>value = [0, 0, 0, 0, 0, 0, 0, 0, 0, 189]<br/>class = c9>, fillcolor="#e53958ff"] ;
16 -> 17 ;
18 [label=<gini = 0.0<br/>samples = 236<br/>value = [0, 0, 0, 236, 0, 0, 0, 0, 0, 0]<br/>class = c3>, fillcolor="#39e55eff"] ;
16 -> 18 ;
}
