digraph Tree {
node [shape=box, style="filled, rounded", color="black", fontname=helvetica] ;
edge [fontname=helvetica] ;
0 [label=<f6 &le; -3.621<br/>gini = 0.892<br/>samples = 4000<br/>value = [57.0, 411.0, 431.0, 439.0, 473.0, 425.0, 426.0, 428.0, 444.0<br/>466.0]<br/>class = c4>, fillcolor="#39e5c501"] ;
1 [label=<f2 &le; 1.533<br/>gini = 0.75<br/>samples = 1706<br/>value = [0.0, 411.0, 0.0, 0.0, 0.0, 425.0, 426.0, 0.0, 444.0, 0.0]<br/>class = c8>, fillcolor="#e539c004"] ;
0 -> 1 [labeldistance=2.5, labelangle=45, headlabel="True"] ;
2 [label=<f5 &le; -1.132<br/>gini = 0.666<br/>samples = 1281<br/>value = [0.0, 411.0, 0.0, 0.0, 0.0, 0.0, 426.0, 0.0, 444.0, 0.0]<br/>class = c8>, fillcolor="#e539c005"] ;
1 -> 2 ;
3 [label=<f1 &le; 4.692<br/>gini = 0.5<br/>samples = 870<br/>value = [0.0, 0.0, 0.0, 0.0, 0.0, 0.0, 426.0, 0.0, 444.0, 0.0]<br/>class = c8>, fillcolor="#e539c00a"] ;
2 -> 3 ;
4 [label=<gini = 0.0<br/>samples = 444<br/>value = [0, 0, 0, 0, 0, 0, 0, 0, 444, 0]<br/>class = c8>, fillcolor="#e539c0ff"] ;
3 -> 4 ;
5 [label=<gini = 0.0<br/>samples = 426<br/>value = [0, 0, 0, 0, 0, 0, 426, 0, 0, 0]<br/>class = c6>, fillcolor="#3c39e5ff"] ;
3 -> 5 ;
6 [label=<gini = 0.0<br/>samples = 411<br/>value = [0, 411, 0, 0, 0, 0, 0, 0, 0, 0]<br/>class = c1>, fillcolor="#e2e539ff"] ;
2 -> 6 ;
7 [label=<gini = 0.0<br/>samples = 425<br/>value = [0, 0, 0, 0, 0, 425, 0, 0, 0, 0]<br/>class = c5>, fillcolor="#399de5ff"] ;
1 -> 7 ;
8 [label=<f0 &le; 0.619<br/>gini = 0.809<br/>samples = 2294<br/>value = [57.0, 0.0, 431.0, 439.0, 473.0, 0.0, 0.0, 428.0, 0.0, 466.0]<br/>class = c4>, fillcolor="#39e5c501"] ;
0 -> 8 [labeldistance=2.5, labelangle=-45, headlabel="False"] ;
9 [label=<f1 &le; -6.415<br/>gini = 0.691<br/>samples = 1389<br/>value = [57.0, 0.0, 431.0, 0.0, 473.0, 0.0, 0.0, 428.0, 0.0, 0.0]<br/>class = c4>, fillcolor="#39e5c50b"] ;
8 -> 9 ;
10 [label=<gini = 0.0<br/>samples = 431<br/>value = [0, 0, 431, 0, 0, 0, 0, 0, 0, 0]<br/>class = c2>, fillcolor="#7be539ff"] ;
9 -> 10 ;
11 [label=<f7 &le; -1.044<br/>gini = 0.553<br/>samples = 958<br/>value = [57.0, 0.0, 0.0, 0.0, 473.0, 0.0, 0.0, 428.0, 0.0, 0.0]<br/>class = c4>, fillcolor="#39e5c516"] ;
9 -> 11 ;
12 [label=<f1 &le; -1.075<br/>gini = 0.192<br/>samples = 530<br/>value = [57.0, 0.0, 0.0, 0.0, 473.0, 0.0, 0.0, 0.0, 0.0, 0.0]<br/>class = c4>, fillcolor="#39e5c5e0"] ;
11 -> 12 ;
13 [label=<gini = 0.0<br/>samples = 57<br/>value = [57, 0, 0, 0, 0, 0, 0, 0, 0, 0]<br/>class = c0>, fillcolor="#e58139ff"] ;
12 -> 13 ;
14 [label=<gini = 0.0<br/>samples = 473<br/>value = [0, 0, 0, 0, 473, 0, 0, 0, 0, 0]<br/>class = c4>, fillcolor="#39e5c5ff"] ;
12 -> 14 ;
15 [label=<gini = 0.0<br/>samples = 428<br/>value = [0, 0, 0, 0, 0, 0, 0, 428, 0, 0]<br/>class = c7>, fillcolor="#a339e5ff"] ;
11 -> 15 ;
16 [label=<f3 &le; 0.314<br/>gini = 0.5<br/>samples = 905<br/>value = [0.0, 0.0, 0.0, 439.0, 0.0, 0.0, 0.0, 0.0, 0.0, 466.0]<br/>class = c9>, fillcolor="#e539580f"] ;
8 -> 16 ;
17 [label=<gini = 0.004<br/>samples = 467<br/>value = [0, 0, 0, 1, 0, 0, 0, 0, 0, 466]<br/>class = c9>, fillcolor="#e53958fe"] ;
16 -> 17 ;
18 [label=<gini = 0.0<br/>samples = 438<br/>value = [0, 0, 0, 438, 0, 0, 0, 0, 0, 0]<br/>class = c3>, fillcolor="#39e55eff"] ;
16 -> 18 ;
}
